2405 128
1397 0.0 0.0 0.0 0.0 0.0 0.0 0.0 0.0 0.0 0.0 0.0 0.0 0.0 0.0 0.0 0.0 7.4457564 0.0 0.0 0.0 4.948079 0.3833418 0.0 0.0 1.0617824 0.0 0.0 0.0 0.0 0.0 7.9121327 0.0 0.0 0.0 0.0 0.0 0.0 0.011038646 0.0 0.0 0.0 0.0 0.0 0.0 0.0 0.0 0.0 0.0 2.861146 0.0 0.0 0.0 0.0 0.0 0.0 0.0 0.0 0.0 0.0 0.0 0.0 0.0 0.0 0.0 0.0 0.0 1.2426294 0.0 0.0 0.0 0.0 0.0 0.0 0.0 0.0 0.0 2.0343738 0.0 0.0 0.0 0.0 0.0 0.0 5.0366464 0.0 0.0 0.0 0.0 0.0 0.049015604 0.7106593 0.0 0.0 0.0 0.09030056 0.0 0.0 5.0308595 0.0 0.0 0.0 0.0 0.0 0.0 0.0 1.3280407 0.0 0.0 0.0 0.0 0.0 0.0 0.0 4.223635 0.0 0.60677755 0.0 0.0 0.0 0.0 0.0 0.0 0.0 0.0 0.0 0.0 0.0 0.0
1470 0.0 0.0 0.0 0.0 0.77889156 0.0 0.0 0.0 0.0 0.0 0.0 0.0 0.0 0.0 0.0 0.0 1.545159 0.0 0.0 0.0 3.7192314 0.0 0.0 3.534295 1.6341385 0.0 0.0 0.0 0.0 0.0 11.351933 0.0 0.0 0.0 0.48881066 0.0 0.0 0.0 0.0 0.22712773 0.0 1.5680933 0.0 0.0 0.0 0.0 0.0 0.055411026 0.0 0.0 0.0 0.0 0.0 0.0 1.5373006 0.0 0.0 0.0 0.0 0.0 0.0 0.0 0.0 0.0 0.0 0.0 3.793983 0.0 0.0 0.0 0.0 0.0 2.2492218 4.5246143 0.0 0.0 4.2744837 0.0 0.0 0.0 0.0 0.0 0.0 3.6899097 0.0 0.0 0.0 0.0 0.0 0.0 0.0 0.0 0.0 0.0 0.0 0.0 0.0 5.6196146 0.0 0.0 0.0 0.0 0.0 0.0 0.0 4.3378315 0.83705574 0.0 0.0 0.0 0.0 0.0 0.0 6.4562306 0.0 0.0 0.0 0.0 0.0 0.0 0.0 0.0 0.0 0.0 0.0 0.0 0.0 0.0
362 0.0 0.0 0.0 0.0 0.0 0.0 0.0 0.0 0.0 0.0 0.0 0.0 0.0 0.0 0.0 0.0 4.2027035 0.0 0.0 0.0 1.7037354 0.4761253 0.0 0.0 0.98502606 0.43196023 0.0 0.0 0.0 0.36202568 6.6793065 0.0 0.0 0.0 0.0 0.0 0.0 0.0 0.0 0.0 0.0 0.0 0.0 0.0 0.0 0.0 0.0 0.0 0.0 0.0 0.0 0.0 0.0 0.0 0.0 0.0 0.0 0.0 2.114843 0.0 0.0 0.0 0.0 0.0 0.0 0.0 0.0 0.0 0.0 0.0 0.5257227 0.0 0.0 0.0 0.0 0.0 1.8720318 2.0165446 0.0 0.0 0.0 0.0 0.0 2.5822518 0.0 0.0 0.13175835 0.0 0.0 1.2289319 2.5619595 0.0 0.0 0.0 0.0 0.0 0.0 4.4481754 0.0 0.0 0.0 0.0 0.0 0.0 0.0 0.0 0.0 0.0 0.0 0.0 0.0 0.0 0.0 2.5522006 0.0 0.0 0.0 0.0 0.0 0.0 0.0 0.0 0.0 2.1882956 0.0 0.0 0.0 0.0
226 0.0 0.0 0.0 0.0 0.0 0.0 0.0 0.0 0.0 0.0 0.0 0.0 0.0 0.0 0.0 0.0 8.161175 0.0 0.0 0.0 4.6720486 0.0 0.0 0.0 0.0 0.0 0.0 0.0 0.0 0.0 0.0 0.0 0.0 0.0 0.0 0.0 0.0 0.0 0.0 0.0 0.0 0.0 0.0 0.0 0.0 0.0 0.0 0.0 5.5558963 0.0 0.0 0.0 0.0 0.0 0.0 0.05170256 0.0 0.0 0.0 0.0 0.0 0.0 0.0 0.0 0.0 0.0 0.0 0.0 0.0 0.0 0.0 0.0 0.0 0.0 0.0 0.0 0.0 0.0 0.0 0.0 0.0 0.0 0.0 9.534496 0.0 0.0 0.0 0.0 0.0 0.0 0.0 0.0 0.0 0.0 0.0 0.0 0.0 0.0 0.83521926 0.0 0.0 0.98343164 0.0 0.0 0.0 8.640308 1.2472534 0.0 0.0 0.0 0.0 0.0 0.0 0.0 0.0 0.0 0.0 0.0 0.0 0.0 0.0 0.0 0.0 0.0 0.0 0.0 0.0 0.0
750 0.0 0.0 0.0 5.727572 2.2146409 0.39357454 0.0 0.0 0.0 0.0 0.0 0.0 0.0 0.0 0.0 0.0 0.0025781393 2.5768635 0.0 0.0 1.1614865 0.0 0.0 0.7951902 0.12464291 0.0 0.0 0.0 0.0 0.0 11.068561 0.0 0.0 0.0 0.0 0.0 0.0 0.0 0.0 0.0 0.0 1.8267539 0.0 0.0 0.0 0.0 0.0 0.0 0.0 0.0 0.0 0.7726975 0.0 0.0 0.0 0.0 0.0 0.37348336 0.0 0.0 0.0 0.0 0.0 0.0 0.0 0.0 0.8668655 0.0 0.0 0.0 0.0 0.6936403 0.0 0.0 0.0 0.0 3.1998832 0.4655824 0.0 0.0 0.0 0.0 0.0 0.0 0.0 0.0 0.018632725 0.0 0.0 0.9731279 0.0 0.0 0.0 0.0 0.0 0.0 0.0 7.171288 0.0 0.0 0.0 0.0 0.0 0.109798 0.0 0.0 0.0 0.0 0.0 0.0 0.0 0.0 0.0 6.9734516 0.0 0.0 0.0 0.0 0.0 0.0 0.0 0.0 0.0 0.0 0.0 0.0 0.0 0.0
489 0.0 0.0 0.0 0.0 0.0 0.0 0.0 0.0 0.0 0.0 0.0 0.0 0.0 0.0 0.0 0.2815275 0.0 0.0 0.11462298 0.0 0.0 0.0 0.0 0.0 0.0 0.0 0.0 16.754322 0.0 0.0 0.0 0.0 0.0 0.0 0.0 0.0 0.0 0.0 0.0 0.0 0.0 0.0 0.0 0.0 0.0 0.0 0.0 0.0 0.0 0.0 0.0 0.0 0.0 0.0 0.20420887 0.0 0.0 0.0 0.0 0.0 0.0 0.0 0.0 0.0 0.0 0.0 0.0 0.4032445 0.0 0.0 0.0 0.0 0.0 0.0 0.0 0.0 0.8272761 0.0 0.0 0.0 0.0 0.0 0.0 0.0 0.0 0.0 0.0 0.0 0.0 0.0 0.0 0.0 0.0 0.0 0.0 0.0 0.0 0.0 0.0 0.0 0.0 0.0 0.1965562 0.0 0.0 0.0 0.0 0.0 0.0 0.0 0.0 0.0 1.134053 1.6406206 0.0 0.0 0.0 0.0 0.0 0.0 0.0 0.0 0.0 10.2142515 0.0 0.0 0.0 0.0
1462 0.0 0.0 0.0 0.0 0.0 1.5232542 0.0 0.0 0.0 0.0 0.0 0.0 0.0 0.0 0.0 0.0 10.439641 0.0 0.0 0.0 4.5274053 0.0 0.3877548 0.0 0.0 0.0 0.0 0.0 0.0 0.0 0.0 0.0 0.0 0.0 0.0 0.0 0.0 0.0 0.0 0.0 0.0 0.0 0.021946624 0.0 0.0 0.0 0.0 0.0 7.0617757 0.0 0.0 0.0 0.0 0.0 0.0 0.0 0.0 0.0 0.0 0.0 0.0 0.0 0.0 0.0 0.0 0.0 0.0 0.0 0.0 0.0 0.0 0.0 0.0 0.0 0.0 0.0 0.0 0.0 0.0 0.0 0.0 0.0 0.0 8.789838 0.0 0.0 0.0 0.0 0.0 0.0 0.0 0.0 0.0 0.0 0.0 0.0 0.0 0.0 0.0 0.0 0.0 0.0 0.0 0.0 0.0 0.8193642 0.2293205 0.0 0.0 0.0 0.0 0.0 0.0 0.0 0.0 0.0 0.0 0.0 0.0 0.0 0.0 0.0 0.0 0.0 0.0 0.0 0.0 0.0
1713 0.0 0.0 0.0 0.0 0.0 0.43411052 0.0 0.0 0.0 0.0 0.0 0.0 0.0 0.0 3.8568673 0.0 0.0 0.0 0.43966272 0.0 0.0 0.0 0.0 0.0 0.0 0.0 0.0 0.0 2.5031307 0.0 0.0 0.0 0.0 0.0 0.0 1.5761976 0.0 0.0 0.0 0.0 0.0 0.0 0.0 0.0 0.0 0.0 0.0 0.46182907 0.0 0.0 0.0 0.0 0.0 0.0 0.0 0.0 0.0 0.0 0.0 0.0 0.0 0.0 0.3233043 3.836399 0.0 0.0 0.0 0.0 0.0 0.0 0.0 0.0 0.0 0.0 0.0 0.0 0.0 0.0 0.0 0.0 0.0 0.0 0.0 0.0 0.0 1.0205086 0.0 0.0 0.0 0.0 0.0 0.0 0.0 0.0 0.0 0.0 0.0 0.0 0.0 0.0 0.0 0.0 3.9017098 6.992521 0.0 0.0 0.0 0.0 0.0 0.0 0.0 0.0 0.0 0.0 0.0 0.0 0.0 0.0 0.0 0.0 0.0 6.099806 1.0774386 0.0 0.0 0.0 0.04080215 0.0
393 0.0 0.0 0.0 0.0 0.0 0.0 0.0 0.0 0.0 0.0 0.0 0.0 0.0 0.0 8.368481 0.0 0.0 0.0 0.0 0.0 0.0 0.18847306 0.0 0.0 0.0 0.0 0.0 0.0 0.0 0.0 0.0 0.0 0.0 0.0 0.0 0.0 0.0 0.0 0.0 0.0 0.0 0.0 0.0 0.0 0.0 0.0 0.0 0.0 0.0 0.0 0.0 0.0 0.0 0.0 0.0 0.0 0.0 0.0 0.0 0.0 0.0 0.0 0.31481516 0.0 0.0 0.0 0.0 0.0 0.0 0.0 0.0 0.0 0.0 0.0 0.0 0.0 0.0 0.0 0.0 0.0 0.0 0.0 0.0 0.0 0.0 0.0 0.0 0.0 0.0 0.0 0.0 0.0 0.0 0.0 0.0 0.0 0.0 0.0 0.0 0.0 0.0 0.0 0.0 0.0 0.0 0.0 0.0 0.0 0.0 0.0 0.2773837 0.0 0.0 0.0 0.0 0.0 0.0 0.0 0.0 0.0 0.0 15.986639 7.4945197 0.0 0.0 0.0 0.0 0.0
445 0.0 0.0 0.0 0.29212588 0.0 0.20689285 0.0 0.0 0.0 0.0 0.0 0.0 0.0 0.0 0.0 0.0 0.0 0.934116 0.0 0.0 0.0 0.0 0.0 0.0 0.0 0.0 0.0 0.0 0.0 0.0 0.0 0.0 0.0 0.0 0.0 0.0 0.0 0.0 0.0 0.0 0.0 2.2594013 0.0 0.0 0.0 0.0 0.0 0.0 0.0 0.0 0.0 0.0 0.25764906 0.0 0.0 0.0 0.0 0.0 0.0 0.0 0.0 0.0 5.1304483 0.0 0.0 0.0 0.0 0.0 0.0 0.0 0.0 0.0 0.0 0.0 0.0 0.0 0.0 0.0 0.0 0.0 0.49285126 0.0 0.0 0.0 0.0 0.0 0.0 0.0 0.0 0.0 0.0 0.0 0.0 0.0 0.0 0.0 0.0 0.0 0.0 0.0 0.0 0.0 0.0 15.730317 0.0 0.0 0.0 0.0 0.0 0.0 0.0 0.0 0.0 0.0 0.0 0.0 0.0 0.0 0.0 0.0 0.0 0.0 0.0 0.0 0.0 0.0 0.0 0.0
696 0.0 0.0 0.0 0.0 0.0 14.515518 0.0 0.0 0.0 0.0 0.0 0.0 0.0 0.0 0.0 0.0 1.8296753 0.0 0.0 0.0 0.47075346 0.0 0.0 0.0 0.0 0.0 4.3100324 0.0 0.0 0.0 0.0 0.0 0.0 0.0 3.1198778 0.0 0.0 0.0 0.0 0.0 0.0 0.0 4.3261538 0.0 0.0 0.0 0.0 0.0 1.7749528 0.0 0.0 0.0 0.0 0.0 0.0 0.0 5.612918 0.0 0.0 0.0 0.0 0.0 0.0 0.0 0.0 0.0 2.5074801 0.0 0.0 1.1136366 0.51561207 0.0 0.0 0.0 0.0 0.0 0.0 0.0 0.0 0.0 0.0 0.0 0.0 1.9878519 0.0 0.0 0.0 0.0 0.0 0.0 0.0 0.0 0.0 0.0 0.0 0.0 0.0 0.0 0.0 0.0 0.0 0.0 0.0 0.0 0.0 0.0 0.0 0.0 0.0 0.0 0.0 0.0 0.0 0.0 0.0 0.0 0.0 0.0 0.0 0.36952257 0.0 0.0 0.0 0.0 0.0 1.7894361 0.0 0.0
1610 0.0 0.0 0.0 0.0 0.0 11.902188 0.0 0.0 0.0 0.0 0.0 0.0 0.0 0.0 0.0 0.0 5.8057885 0.0 0.0 0.0 4.562039 0.0 0.0 0.0 0.0 0.0 3.6928105 0.0 0.0 0.0 0.0 0.0 0.0 0.0 1.0650401 0.0 0.0 0.0 0.0 0.0 0.0 0.0 4.002927 0.0 0.0 0.0 0.0 0.0 5.61572 0.0 0.0 0.0 0.0 0.0 0.0 0.0 4.419264 0.0 0.0 0.0 0.0 0.0 0.0 0.0 0.0 0.0 1.7603937 0.0 0.0 0.0 0.0 0.0 0.0 0.0 0.0 0.0 0.0 0.0 0.0 0.0 0.0 0.0 0.0 5.4944305 0.0 0.0 0.0 0.0 0.0 0.0 0.0 0.0 0.0 0.0 0.0 0.0 0.0 0.0 0.0 0.0 0.0 0.0 0.0 0.0 0.0 0.0 0.0 0.0 0.0 0.0 0.0 0.0 0.0 0.0 0.0 0.0 0.0 0.0 0.0 0.0 0.0 0.0 0.0 0.0 0.0 0.0 0.0 0.0
889 0.0 0.0 0.011951312 0.0 0.0 9.395343 0.0 0.0 0.0 1.15389 0.0 1.3891256 0.0 0.0 0.0 0.0 0.0 0.0 0.904487 0.0 0.0 0.0 0.0 0.0 0.0 0.0 0.0977543 0.0 0.0 0.0 0.0 0.0 0.0 0.0 0.0 0.0 0.0 0.0 1.0091971 1.7872173 0.0 0.12010293 2.1426435 1.4487387 0.0 0.0 0.0 0.0 0.0 0.0 0.0 0.0 0.0 0.0 0.0 0.0 10.140489 0.0 0.0 0.0 0.616864 0.0 0.0 1.7979584 0.0 0.4493516 0.0 0.0 0.0 0.35445395 0.0 0.0 0.0 0.46996534 0.0 0.0 0.0 0.0 0.0 0.0 0.0 0.0 0.0 0.0 0.0 0.13551292 0.0 0.0 0.0 0.29517928 0.0 0.0 0.0 0.0 0.0 0.0 0.0 0.0 0.0 0.0 0.0 0.0 0.5475909 0.0 0.0 0.0 0.0 0.0 0.0 0.0 0.0 3.845347 0.0 0.0 0.0 0.0 0.0 0.0 1.2963789 0.0 0.0 0.0 0.0 0.0 0.0 0.0 4.134599 0.0
1615 0.0 0.0 4.957166 0.0 0.0 3.677721 0.0 0.0 0.0 0.0 0.0 0.0 0.0 0.0 0.0 0.0 0.0 0.0 0.0 0.0 0.0 0.0 0.0 0.0 0.0 0.0 0.89064884 0.0 0.0 0.0 0.0 0.0 0.0 0.0 13.36418 0.0 0.0 0.0 0.0 0.0 0.0 0.0 2.9699144 0.0 0.0 0.0 0.0 0.0 0.0 0.0 0.0 0.0 0.0 0.0 0.0 0.0 0.0 0.0 0.0 0.0 0.0 0.0 0.0 0.0 0.23560792 0.0 0.14972582 0.0 0.0 1.9179403 0.0 0.0 0.0 0.0 0.0 0.0 0.0 0.0 0.0 0.0 0.0 0.0 0.0 0.0 0.0 0.0 0.0 0.0 0.0 0.0 0.0 0.0 0.0 0.0 0.0 0.0 0.0 0.0 0.0 0.0 0.0 0.0 0.0 0.0 0.0 0.0 0.0 0.0 0.0 0.0 0.0 0.0 0.0 0.0 0.0 0.0 0.0 0.0 0.0 0.0 0.0 0.0 0.0 0.0 0.0 6.4022913 0.0 0.0
708 0.0 0.0 0.0 0.0 0.0 0.0 0.0 0.0 0.0 0.0 0.0 0.0 0.0 0.0 0.0 2.4344466 0.0 0.0 0.0 0.0 0.0 0.0 0.0 0.0 0.0 0.0 2.408289 0.0 0.0 0.0 0.0 0.0 0.0 0.0 0.0 0.0 0.0 0.0 0.0 0.0 0.0 0.3560714 0.0 0.0 0.0 0.0 0.0 0.0 0.0 0.0 0.0 0.0 0.0 0.0 0.0 0.0 0.64888215 0.7137962 0.0 0.0 0.0 0.0 0.0 0.0 0.0 0.0 0.0 0.0 0.0 0.0 0.0 0.0 0.0 0.0 0.0 0.0 0.0 0.0 0.0 0.0 0.0 0.0 0.0 0.0 0.0 0.0 10.443056 8.866143 0.0 0.0 0.0 0.0 0.0 0.0 0.0 0.0 7.782044 0.0 0.0 0.0 0.0 0.0 0.0 0.0 0.0 0.0 0.0 2.7270117 0.0 0.0 0.0 0.0 0.0 0.0 0.0 0.0 0.0 0.0 0.0 1.5997144 1.1875013 0.0 0.0 0.0 0.46511012 0.0 0.0 0.0
713 0.0 0.0 9.278052 0.0 0.0 0.0 0.0 0.0 0.5854456 0.0 0.0 0.0 0.0 0.0 0.0 0.0 0.0 0.0 0.0 0.0 0.0 0.0 0.0 0.0 0.0 0.0 4.606346 0.0 0.0 0.0 0.0 0.0 0.0 0.0 6.772413 0.0 0.0 0.0 0.0 0.0 0.0 0.0 0.21837105 0.0 0.0 0.0 0.0 0.0 0.0 0.0 0.0 0.0 0.0 0.0 0.0 0.0 3.7241075 0.0 0.0 0.0 0.0 0.9295391 0.0 0.0 0.0 0.0 0.0 0.0 0.0 1.3715534 0.0 0.0 0.0 0.0 0.0 0.0 0.0 0.0 0.0 0.0 0.0 0.0 0.0 0.0 0.0 0.0 0.0 0.0 0.0 0.0 0.0 0.0 0.0 0.0 0.0 0.0 0.0 0.0 0.0 0.0 0.0 0.0 0.0 0.0 0.0 0.0 0.0 0.0 0.42714357 1.382837 0.0 0.0 0.0 0.0 0.0 0.0 0.0 0.0 0.0 0.0 0.0 0.0 0.0 0.0 0.0 14.8300085 0.0 0.0
718 0.0 0.0 0.0 0.0 0.0 2.659534 0.0 0.0 0.0 0.0 0.0 0.0 0.0 0.0 0.0 0.5512117 0.0 0.0 0.0 0.0 0.0 0.0 0.0 0.0 0.0 0.0 6.80188 0.0 0.0 0.0 0.0 0.0 0.0 0.0 0.39855552 0.0 0.0 0.0 0.0 0.0 0.0 0.0 0.0 0.0 0.0 0.0 0.0 0.0 0.0 0.0 0.0 0.0 0.0 0.0 0.0 0.0 5.9107013 2.0604203 0.0 0.0 0.0 0.0 0.0 0.0 0.0 0.0 0.0 0.0 2.7346911 0.0 0.0 0.0 0.0 0.0 0.0 0.0 0.0 0.0 0.0 0.0 0.0 0.0 0.0 0.0 0.0 0.0 0.29694414 5.4624085 0.0 0.0 0.0 0.0 0.0 0.0 0.0 0.0 0.0 0.0 0.0 0.0 0.0 0.0 0.0 0.0 0.0 0.0 0.0 0.0 0.0 0.0 0.0 0.0 0.0 0.0 0.0 0.0 0.0 0.0 0.0 12.639263 0.0 0.0 0.0 0.0 0.0 2.7149632 0.0 0.0
1630 0.0 0.0 5.5764303 0.0 0.0 3.938088 0.0 0.0 1.7843823 0.0 0.0 1.2391057 0.0 0.0 0.0 0.0 0.27873242 0.0 0.0 0.0 0.0 0.0 0.0 0.0 0.0 0.0 2.5250573 0.0 0.0 0.0 0.0 0.0 0.0 0.0 10.014011 0.0 0.0 0.0 0.0 0.0 0.0 0.0 1.506891 0.0 0.0 0.0 0.0 0.2936052 0.0 0.0 0.5005251 0.0 0.0 0.0 0.0 0.0 4.731066 0.0 0.0 0.0 0.0 0.0 0.0 0.11236672 0.11493942 0.0 0.20136923 0.0 0.0 0.84692955 0.0 0.0 0.0 0.83589697 0.0 0.0 0.0 0.0 0.0 0.0 0.0 0.0 0.0 0.37470573 0.0 0.0 0.0 0.0 0.8963633 0.0 0.0 0.0 0.0 0.0 0.31415713 0.0 0.0 0.0 0.0 0.0 0.0 0.0 0.0 0.0 0.0 0.0 0.52479905 0.0 0.0 0.0 0.0 0.0 0.0 0.0 0.3716564 0.0 0.0 0.0 0.0 0.099153176 0.0 0.0 0.0 0.0 0.0 8.698532 0.0 0.0
734 0.0 0.0 0.48774755 0.0 0.0 3.391017 0.0 0.0 0.0 0.0 0.0 0.0 0.0 0.0 0.0 0.0 3.5167027 0.0 0.0 0.25408605 1.0395632 0.0 0.0 0.0 0.0 0.0 11.967652 0.0 0.0 0.0 0.0 0.0 0.0 0.0 0.17149621 0.0 0.0 0.0 0.0 0.0 0.0 0.0 0.0 0.0 0.0 0.0 0.0 0.0 1.2937293 0.0 0.0 1.4243166 0.0 0.0 0.0 0.0 8.8030815 0.0 0.0 0.0 0.0 0.0 0.0 0.0 0.0 0.0 0.0 0.0 0.0 0.0 0.0 0.0 0.0 0.0 0.0 0.0 0.0 0.0 0.0 0.0 0.0 0.0 0.0 2.2430093 0.0 0.0 0.0 0.0 0.0 0.0 0.0 0.0 0.0 0.0 0.0 0.0 0.0 0.0 0.0 0.0 0.0 0.0 0.0 0.0 0.0 0.31508547 0.0 0.0 0.0 0.0 0.0 0.0 0.0 0.0 0.0 0.0 0.0 0.0 0.0 2.156229 0.0 0.0 0.0 0.0 0.0 2.9362652 0.0 0.0
776 0.0 0.0 0.0 0.0 0.0 2.4340873 0.0 0.0 0.0 0.0 0.0 0.0 0.0 0.0 0.0 0.0 0.0 0.0 0.0 0.0 0.0 0.0 0.0 0.0 0.0 0.0 14.291353 0.0 0.0 0.0 0.0 0.0 0.0 0.0 0.86327267 0.0 0.0 0.0 0.0 0.0 0.0 0.0 0.0 0.0 0.0 0.0 0.0 0.0 0.0 0.0 0.0 3.8323119 0.0 0.0 0.0 0.0 9.5715275 0.0 0.0 0.0 0.0 0.0 0.0 0.0 1.5296824 0.0 0.0 0.0 0.0 0.0 0.0 0.0 0.0 0.0 0.0 0.0 0.0 0.0 0.0 0.0 0.0 0.0 0.0 0.0 0.0 0.0 0.0051356107 1.0318304 0.0 0.0 0.0 0.0 0.40512276 0.0 0.0 0.0 0.0 0.0 0.0 0.2755986 0.0 0.024533823 0.0 0.0 0.0 0.0 0.0 0.0 0.0 0.0 0.0 0.0 0.0 0.0 0.0 0.0 0.0 0.0 0.0 5.839172 0.0 0.0 0.0 0.0 0.0 3.216044 0.0 0.0
814 0.0 0.0 0.0 0.0 0.0 2.6729467 0.0 0.0 0.0 0.0 0.0 0.0 0.0 0.0 0.0 0.0 0.0 0.0 0.0 0.0 0.0 0.0 0.0 0.0 0.0 0.0 10.202464 0.0 0.023237117 0.0 0.0 0.0 0.0 0.0 1.4003679 0.0 0.0 0.0 0.0 0.24229586 0.0 0.0 0.044260368 0.0 0.0 0.0 0.0 0.0 0.039834812 0.0 0.0 0.0 0.0 0.0 0.0 0.0 11.515991 0.0 0.0 0.17344788 0.0 0.0 0.0 0.0 2.233936 0.0 0.0 0.0 1.6266859 0.0 0.0 0.0 0.0 0.0 0.0 0.0 0.0 0.0 0.0 0.0 0.0 0.0 0.0 0.0 0.0 0.0 0.31601453 1.3831681 0.0 0.0 0.0 0.0 0.0 0.0 0.0 0.0 0.0 0.0 0.0 0.0 0.0 0.0 0.0 0.0 0.0 0.0 0.0 0.0 0.0 0.0 0.0 0.0 0.0 0.0 0.0 0.0 0.0 0.0 0.0 7.847274 0.0 0.0 0.0 0.0 0.0 2.1332784 0.0 0.0
818 0.0 0.0 0.8479397 0.0 0.0 1.0773902 0.0 0.0 0.0 0.0 0.0 0.0 0.0 0.0 0.0 0.0 0.9100403 0.0 0.0 1.5211855 0.0 0.0 0.0 0.0 0.0 0.0 13.130273 0.0 0.24233744 0.0 0.0 0.0 0.0 0.0 0.0 0.0 0.0 0.0 0.574811 0.41155553 0.0 0.0 0.0 0.0 0.0 0.0 0.0 0.0 0.0 0.0 0.0 0.0 0.0 0.0 0.0 0.0 12.816244 0.0 0.0 0.0 0.0 0.0 0.088177636 0.4812081 0.0 0.0 0.0 0.0 0.0 0.0 0.0 0.0 0.0 0.0 0.0 0.0 0.0 0.0 0.0 0.0 0.0 0.0 0.0 0.0 0.0 0.0 0.0 0.0 0.0 0.0 0.0 1.3488094 0.771561 0.0 0.0 0.0 0.0 0.0 0.0 0.0 0.0 0.0 0.0 0.0 0.0 0.0 0.0 0.0 0.0 0.0 0.0 0.0 0.0 0.0 0.0 0.0 0.0 0.0 0.0 2.97961 0.0 0.0 0.0 0.0 0.0 4.335122 0.0 0.0
1401 0.0 0.0 0.0 0.0 0.0 0.0 0.0 0.010017775 0.0 0.0 0.0 0.0 0.0 0.0 0.0 0.0 8.565252 0.0 0.0 0.0 2.7362638 0.0 0.0 0.0 0.0 0.0 0.12212631 0.0 0.0 0.0 0.0 0.0 0.0 0.0 0.39765507 0.0 0.0 0.0 0.0 0.0 0.0 0.0 0.0 0.0 0.0 0.0 0.0 0.0 3.668109 0.0 0.0 0.0 0.0 0.0 0.0 0.0 0.0 0.0 0.0 0.0 0.0 0.0 0.0 2.2772899 0.0 0.0 0.0 0.0 0.0 0.0 0.0 0.0 0.0 0.0 0.0 0.0 0.054189444 0.0 0.0 0.0 0.0 0.0 0.0 7.6197433 0.0 0.0 0.0 0.0 0.0 0.0 0.0 0.0 0.0 0.0 0.0 0.0 0.0 0.0 0.0 0.0 0.0 1.6443408 0.0 0.0 1.7083127 10.549189 1.608745 0.0 0.0 0.0 0.0 0.0 0.0 0.0 0.0 0.0 0.0 0.0 0.0 0.0 0.0 0.0 0.0 0.0 0.0 0.0 0.0 0.0
220 0.0 0.0 0.0 0.0 0.0 0.0 0.0 0.0 0.0 0.0 0.0 0.0 0.0 0.0 0.0 0.0 6.083351 0.3841315 0.0 0.0 1.1347386 0.0 0.0 0.0 0.0 0.0 0.0 0.0 0.0 0.0 0.0 0.0 0.0 0.0 0.0 0.0 0.0 0.0 0.0 0.0 0.0 0.12866853 0.0 0.0 0.0 0.0 0.0 0.0 1.816853 0.0 0.0 0.0 0.0 0.0 0.0 0.0 0.0 0.0 0.0 0.0 0.0 0.0 0.0 0.0 0.0 0.0 0.0 0.0 0.0 0.0 0.0 0.0 0.0 0.0 0.0 0.0 0.0 0.0 0.0 0.0 0.0 0.0 0.0 6.7073884 0.0 0.0 0.0 0.0 0.0 0.66425073 0.0 0.19059575 0.0 0.0 0.0 0.0 0.0 0.0 0.0 0.0 0.0 0.32908326 0.0 0.0 0.0 10.521965 0.0 0.0 0.0 0.0 0.0 0.0 0.0 0.0 0.0 0.0 0.0 0.0 0.0 0.0 0.0 0.0 0.0 0.0 0.0 0.0 0.0 0.0
1412 0.0 0.0 0.0 0.0 0.0 0.0 0.0 0.0 0.0 0.0 0.0 0.0 0.0 0.0 0.0 0.0 9.18583 0.0 0.0 0.0 6.433416 0.014271036 0.0 0.0 0.0 0.0 0.0 0.0 0.0 0.0 0.0 0.0 0.0 0.0 0.0 0.0 0.0 0.0 0.0 0.0 0.0 0.0 0.0 0.0 0.0 0.0 0.0 0.0 5.998619 0.0 0.0 0.0 0.0 0.0 0.0 1.6359653 0.0 0.0 0.0 0.5719362 0.0 0.0 0.0 0.0 0.0 0.0 0.0 0.0 0.0 0.0 0.0 0.0 0.0 0.0 0.0 0.0 0.0 0.0 0.0 0.0 0.0 0.0 0.0 9.555474 0.0 0.0 0.0 0.0 0.0 0.0 0.0 0.0 0.0 0.0 0.0 0.0 0.0 0.0 0.0 1.3515632 0.0 0.47925097 0.0 0.0 0.0 1.1525043 0.0 0.0 0.0 0.0 0.0 0.0 0.0 0.0 0.0 0.0 0.0 0.0 0.0 0.0 0.0 0.0 0.0 0.0 0.0 0.0 0.0 0.0
1413 0.0 0.0 0.0 0.0 0.0 0.0 0.0 0.0 0.0 0.38617918 0.0 0.0 0.0 0.0 0.0 0.0 6.211931 0.0 0.19425556 0.0 2.9128525 0.0 0.0 0.0 0.0 0.0 0.0 0.0 0.0 0.0 0.0 0.0 0.0 0.0 0.0 0.0 0.0 0.0 0.0 0.0 0.0 0.0 0.0 0.0 0.0 0.0 0.0 0.0 4.070664 0.0 0.0 0.0 0.0 0.0 0.0 0.0 0.0 0.0 0.0 0.0 0.0 0.0 0.0 0.39980292 0.0 0.0 0.0 0.0 0.0 0.0 0.0 0.0 0.0 0.0 0.0 0.0 0.0 0.0 0.0 0.0 0.0 0.0 0.0 8.384207 0.0 0.0 0.0 0.0 0.0 0.0 0.0 0.0 0.0 0.0 0.0 0.0 0.0 0.0 2.0266252 0.0 0.0 3.05857 0.0 0.0 0.0 10.562907 0.72543126 0.0 0.0 0.0 0.0 0.0 0.0 0.0 0.0 0.0 0.0 0.0 0.0 0.0 0.0 0.0 0.0 0.0 0.0 0.0 0.0 0.0
228 0.0 0.0 0.0 0.0 0.0 0.0 0.0 0.0 0.0 0.0 0.0 0.0 0.0 0.0 0.0 0.0 6.591062 0.0 0.0 0.0 2.391272 0.0 0.0 0.0 0.0 0.0 0.0 0.0 0.0 0.0 0.0 0.0 0.0 0.0 0.0 0.0 0.0 0.0 0.0 0.0 0.0 0.0 0.0 0.0 0.0 0.0 0.0 0.0 4.5374875 0.0 0.0 0.0 0.0 0.0 0.0 0.0 0.0 0.0 0.0 0.0 0.0 0.3195483 0.0 0.0 0.0 0.0 0.0 0.0 0.0 0.0 0.0 0.0 0.0 0.0 0.0 0.0 0.0 0.0 0.0 0.0 0.0 0.0 0.0 9.908727 0.0 0.0 0.0 0.0 0.0 0.0 0.0 0.0 0.0 0.0 0.0 0.0 0.0 0.0 0.0 0.0 0.0 5.622847 0.0 0.0 0.0 9.277529 2.7850373 0.0 0.0 0.0 0.0 0.0 0.0 0.0 0.0 0.0 0.0 0.0 0.0 0.0 0.44997495 0.0 0.0 0.0 0.0 0.0 0.0 0.6995417
233 0.0 0.0 0.0 0.0 0.0 0.0 0.0 0.0 0.0 0.0 0.0 0.0 0.0 0.0 0.0 0.0 4.66687 0.0 0.0 0.0 3.3204055 1.0845717 0.0 0.0 0.6727009 0.0 0.0 0.0 0.0 0.0 0.5768145 0.0 0.0 0.0 0.0 0.0 0.0 0.0 0.0 0.0 0.0 0.0 0.0 0.0 0.0 0.0 0.0 0.0 4.206876 0.0 0.0 0.0 0.0 0.0 0.0 0.0 0.0 0.0 0.0 0.0 0.0 0.0 0.0 0.00909178 0.0 0.0 0.0 0.0 0.0 0.0 0.0 0.0 0.0 0.0 0.0 0.0 0.73512423 0.0 0.0 0.0 0.0 0.0 0.0 7.365854 0.0 0.0 0.0 0.0 0.0 0.0 0.0 0.0 0.0 0.0 0.0 0.0 0.0 0.44357258 0.0 0.0 0.0 3.9381077 0.0 0.0 0.0 11.568049 1.7161164 0.0 0.0 0.0 0.0 0.0 0.0 0.0 0.0 0.0 0.0 0.0 0.0 0.0 0.0 0.0 0.0 0.0 0.0 0.0 0.0 0.0
235 0.0 0.0 0.0 0.0 0.0 0.0 0.0 0.0 0.0 0.2299228 0.0 0.0 0.0 0.0 0.0 0.0 4.4182053 0.0 0.0 0.0 1.1788701 0.0 0.0 0.0 0.0 0.0 0.0 0.0 0.0 0.0 0.0 0.0 0.0 0.0 0.0 0.0 0.0 0.0 0.0 0.0 0.0 0.0 0.3082983 0.0 0.0 0.0 0.0 0.0 4.021273 0.0 0.0 0.0 0.0 0.0 0.0 0.0 0.0 0.0 0.0 0.0 0.0 0.0 0.0 0.8199558 0.0 0.0 0.0 0.0 0.0 0.0 0.0 0.0 0.0 0.0 0.0 0.0 0.0 0.0 0.0 0.0 0.0 0.0 0.0 9.601386 0.0 0.0 0.0 0.0 0.0 0.0 0.0 0.0 0.0 0.0 0.0 0.0 0.0 0.0 0.15272462 0.0 0.0 5.219719 0.0 0.0 0.0 9.111581 3.751486 0.0 0.0 0.0 1.0058217 0.53703934 0.0 0.0 0.0 0.0 0.0 0.0 0.0 0.0 0.0 0.0 0.0 0.0 0.0 0.0 0.0 0.0
1450 0.0 0.0 0.0 0.0 0.0 0.14782932 0.0 0.0 0.0 0.0 0.0 0.0 0.0 0.0 0.0 0.0 7.4119625 0.03033781 0.0 0.0 2.0183518 0.5601799 0.0 0.0 0.20955203 0.0 0.0 0.0 0.0 0.0 0.0 0.0 0.0 0.0 0.0 0.0 0.0 0.0 0.0 0.0 0.0 0.0 0.0 0.0 0.0 0.0 0.0 0.0 3.1877928 0.0 0.0 0.0 0.0 0.0 0.0 0.0 0.0 0.0 0.0 0.0 0.0 0.0 0.0 1.1919171 0.0 0.0 0.0 0.0 0.0 0.0 0.0 0.0 0.0 0.0 0.0 0.0 0.0 0.0 0.0 0.0 0.0 0.0 0.0 8.10619 0.0 0.0 0.0 0.0 0.0 0.0 0.0 0.0 0.0 0.0 0.0 0.0 0.0 0.0 0.0 0.0 0.0 0.3885929 0.0 0.0 0.7420432 9.228205 2.8405044 0.0 0.0 0.0 0.0 0.0 0.0 0.0 0.0 0.0 0.0 0.0 0.0 0.0 0.0 0.0 0.0 0.0 0.0 0.0 0.0 0.0
236 0.0 0.0 0.0 0.0 0.0 0.0 0.0 0.0 0.0 0.0 0.0 0.0 0.0 0.0 0.0 0.0 2.4754436 0.0 0.0 0.0 2.9540825 0.0 0.0 0.0 0.23140444 0.0 0.0 0.0 0.0 0.0 0.30299306 0.0 0.0 0.0 0.0 0.0 0.0 0.0 0.0 0.0 0.0 0.0 0.0 0.0 0.0 0.0 0.0 0.0 1.5104302 0.0 0.0 0.0 0.0 0.0 0.0 0.0 0.0 0.0 0.0 0.0 0.0 0.069821596 0.0 0.0 0.0 0.0 0.0 0.0 0.0 0.0 0.0 0.0 0.0 0.0 0.0 0.0 0.0 0.0 0.0 0.0 0.0 0.0 0.0 6.174244 0.0 0.0 0.0 0.0 0.0 0.0 0.0 0.0 0.0 0.0 0.0 0.0 0.0 0.0 2.54533 0.0 0.0 3.9451635 0.0 0.0 0.0 13.241997 0.0 0.0 0.0 0.0 0.0 0.0 0.0 0.0 0.0 0.0 0.0 0.0 0.0 0.0 0.0 0.0 0.0 0.0 0.0 0.0 0.0 0.0
1455 0.0 0.0 0.0 0.0 0.0 0.0 0.0 0.0 0.0 4.198237 0.0 1.16821 0.0 0.0 0.0 0.0 6.177644 0.0 0.0 0.0 1.5436212 0.0 0.28509372 0.0 0.0 0.0 0.0 0.0 0.0 0.0 0.0 0.0 0.0 0.0 0.0 0.0 0.0 0.0 0.0 0.0 0.0 0.0 0.0 0.0 0.0 0.0 0.014429249 1.5256051 0.0 0.0 0.0 0.0 0.0 0.0 0.0 0.0 0.0 0.0 0.0 0.0 0.0 0.0 0.0 7.0552545 0.0 4.3760023 0.0 0.0 0.0 1.6794218 0.0 0.0 0.0 0.19790813 0.0 0.0 0.0 0.0 0.0 0.0 0.0 0.47741073 0.0 5.4429564 0.0 0.0 0.0 0.0 0.0 0.0 0.0 0.0 2.379446 0.0 0.0 0.0 0.0 0.0 0.0 0.0 0.0 0.50806755 2.0006585 0.0 0.0 6.864652 4.1191807 0.0 0.0 0.0 0.0 0.0 0.0 0.0 0.0 0.0 0.0 0.0 0.0 0.0 0.0 0.0 0.0 0.0 0.0 0.0 0.0 0.0
1465 0.0 0.0 0.0 0.0 0.0 0.0 0.0 0.0 0.0 0.0 0.0 0.0 0.0 0.0 0.0 0.0 9.297678 0.0 0.0 0.0 4.0329585 0.0 0.0 0.0 0.0 0.0 0.0 0.0 0.0 0.0 0.0 0.0 0.0 0.0 0.0 0.0 0.0 0.0 0.0 0.0 0.0 0.0 0.0 0.0 0.0 0.0 0.0 0.0 9.759602 0.0 0.0 0.0 0.0 0.0 0.0 0.0 0.0 0.0 0.0 0.0 0.0 0.0 0.0 0.0 0.0 0.0 0.0 0.0 0.0 0.0 0.0 0.0 0.0 0.0 0.0 0.0 0.0 0.0 0.0 0.0 0.0 0.0 0.0 8.712605 0.0 0.0 0.0 0.0 0.0 0.0 0.0 0.0 0.0 0.0 0.0 0.0 0.0 0.0 0.0 0.0 0.0 0.0 0.0 0.0 0.0 2.2575157 0.0 0.0 0.0 0.0 0.0 0.0 0.0 0.0 0.0 0.0 0.0 0.0 0.0 0.0 0.0 0.0 0.0 0.0 0.0 0.0 0.0 0.0
1466 0.0 0.0 0.0 0.0 0.0 0.0 0.0 0.0 0.0 0.0 0.10535401 0.09176886 0.0 0.0 0.0 0.0 11.219009 0.0 0.0 0.0 4.358197 0.0 0.0 0.0 0.0 0.0 0.0 0.0 0.0 0.0 0.0 0.0 0.0 0.0 0.0 0.0 0.0 0.07220985 0.0 0.0 0.0 0.0 0.0 0.0 0.0 0.0 0.0 0.0 7.456047 0.0 0.0 0.0 0.0 0.0 0.0 0.0 0.0 0.0 0.0 0.024808824 0.0 0.0 0.0 0.8484018 0.0 0.0 0.0 0.0 0.0 0.0 0.0 0.0 0.0 0.0 0.0 0.0 0.0 0.0 0.0 0.0 0.0 0.0 0.0 8.833685 0.0 0.0 0.0 0.0 0.0 0.0 0.0 0.0 0.0 0.0 0.0 0.0 0.0 0.0 0.0 0.0 0.0 0.0 0.0 0.0 0.0 4.1728573 0.0 0.0 0.0 0.0 0.0 0.0 0.0 0.0 0.5817133 0.0 0.0 0.0 0.0 0.0 0.0 0.0 0.0 0.0 0.0 0.0 0.0 0.0
1468 0.0 0.0 0.0 0.0 0.0 0.0 0.0 0.0 0.0 0.0 0.0 0.0 0.0 0.0 0.0 0.0 9.944333 0.0 0.042459637 0.0 2.6577451 0.0 0.0 0.0 0.0 0.0 0.0 0.0 0.0 0.0 0.0 0.0 0.0 0.0 0.0 0.0 0.0 0.0 0.0 0.0 0.0 0.0 0.0 0.0 0.0 0.0 0.0 0.0 2.5733533 0.0 0.0 0.0 0.0 0.0 0.0 0.0 0.0 0.0 0.0 0.0 0.0 0.0 0.0 0.022781074 0.0 0.0 0.0 0.0 0.0 0.0 2.440926 0.0 0.0 0.0 0.0 0.0 0.0 0.0 0.73971146 0.0 0.0 0.0 0.0 9.329778 0.0 0.0 0.0 0.0 0.0 0.0 0.0 0.0 0.0 0.0 0.0 0.0 0.0 0.0 0.0 0.0 0.0 0.35503322 0.0 0.0 0.0 8.393944 0.9086889 0.0 0.0 0.0 0.0 0.0 0.0 0.0 0.0 0.0 0.0 0.0 0.0 0.0 0.0 0.0 0.0 0.0 0.0 0.0 0.0 0.0
243 0.0 0.0 0.0 0.0 0.0 0.0 0.0 0.0 0.0 0.0 0.0 0.0 0.0 0.0 0.0 0.0 3.5110776 0.0 0.0 0.0 4.2907095 0.0 0.0 0.0 0.0 0.0 0.0 0.0 0.0 0.27448434 0.0 0.0 0.0 0.0 0.0 0.0 0.0 0.0 0.0 0.0 0.0 0.613919 0.0 0.0 0.0 0.0 0.0 0.0 1.9390051 0.0 0.0 0.0 0.0 0.0 0.0 0.0 0.0 0.0 0.0 0.0 0.0 0.114040166 0.0 0.6823948 0.0 0.0 0.0 0.0 0.0 0.0 0.0 0.0 0.0 0.0 0.0 0.0 0.0 0.0 0.0 0.0 0.0 0.0 0.0 6.926549 0.5547605 0.0 0.0 0.0 0.0 0.0 0.0 0.0 0.0 0.0 0.0 0.0 0.0 0.0 0.0 0.0 0.0 3.7576137 0.0 0.0 0.0 12.192076 1.3978943 0.0 0.0 0.0 0.0 0.0 0.0 0.0 0.0 0.0 0.0 0.0 0.0 0.0 0.0 0.0 0.0 0.0 0.0 0.0 0.0 0.27120322
245 0.0 0.0 0.0 0.0 0.0 0.0 0.0 0.0 0.0 0.0 0.0 0.0 0.0 0.0 0.0 0.0 4.810909 0.0 0.39802042 0.0 4.6565647 0.9277882 0.0 0.0 0.0 0.0 0.0 0.0 0.0 0.0 0.0 0.0 0.0 0.0 0.0 0.0 0.0 0.0 0.0 0.0 0.0 0.0 0.0 0.0 0.0 0.0 0.0 0.0 4.632686 0.0 0.0 0.0 0.0 0.0 0.0 0.0 0.0 0.0 0.0 0.0 0.0 0.036410525 0.0 0.0 0.0 0.0 0.0 0.0 0.0 0.0 0.0 0.0 0.0 0.0 0.0 0.0 0.0 0.0 0.0 0.0 0.3077507 0.0 0.0 7.1397147 0.0 0.0 0.0 0.0 0.0 0.0 0.0 0.5152898 0.0 0.0 0.0 0.0 0.0 0.0 0.0 0.0 0.0 2.0207696 0.0 0.0 0.11510326 11.566317 0.13723207 0.0 0.0 0.0 0.0 0.0 0.0 0.0 0.0 0.0 0.0 0.0 0.0 0.0 0.0 0.0 0.0 0.0 0.0 0.0 0.0 0.0
1535 0.0 0.0 0.0 10.481184 0.0 7.1927743 0.0 0.0 0.0 0.0 0.0 0.0 0.0 0.0 0.0 0.0 0.0 4.1844172 0.0 0.0 0.0 0.0 0.0 0.0 0.0 0.0 0.0 0.0 0.0 0.0 0.21932451 0.0 0.0 0.0 0.0 0.0 0.0 0.0 0.0 0.0 0.0 5.297033 0.0968429 0.0 0.0 0.0 0.0 0.0 0.0 0.0 0.0 0.0 0.0 0.0 0.0 0.0 0.0 0.0 0.0 0.0 0.0 0.0 0.0 0.0 0.27634168 0.0 0.0 0.0 0.0 0.0 0.0 0.0 0.0 0.0 0.0 0.0 0.0 0.0 0.0 0.0 0.0 0.0 0.0 0.0 0.0 0.0 0.0 0.0 0.0 2.744154 0.0 0.0 0.0 0.0 1.295672 0.0 1.4207501 0.5819195 0.23415053 0.0 0.0 0.0 0.0 8.809027 0.0 0.0 0.0 0.0 0.0 0.0 0.0 0.0 0.0 0.0 0.0 0.0 0.0 0.0 0.0 0.0 0.43508428 0.0 0.0 0.0 0.0 0.0 0.0 0.0
780 0.0 0.0 0.0 8.451167 0.0 5.5178185 0.0 0.0 0.0 0.0 0.0 0.0 0.0 0.01477465 0.0 0.0 0.0 3.210603 0.0 0.0 0.0 0.0 0.0 0.0 0.0 0.0 0.0 0.0 0.0 0.0 0.0 0.0 0.13893017 0.0 0.0 0.0 0.0 0.0 0.0 0.0 0.0 2.7140045 0.13581114 0.0 0.0 0.0 0.0 0.0 0.51851314 0.0 0.0 0.0 0.0 0.0 0.0 0.0 0.0 0.0 0.0 0.0 0.0 0.0 0.0 0.0 0.0 0.0 0.0 0.0 0.0 0.0 0.0 0.78577054 0.0 0.0 0.0 0.05087042 0.0 0.0 0.0 0.0 0.0 0.0 0.0 0.0 0.0 0.0 0.0 0.0 0.30318254 1.0407748 0.0 0.0 0.0 0.0 0.0 0.0 0.0 0.0 0.0 0.0 0.0 0.0 0.0 4.8355393 0.0 0.0 0.0 0.0 0.0 0.0 0.0 0.0 0.04696381 0.0 0.0 0.28553873 0.0 0.0 0.0 0.06218119 0.0 0.0 0.0 0.0 0.0 0.0 0.0 0.0
1550 0.0 0.0 0.0 5.089242 0.0 2.5327597 0.0 0.0 0.0 0.0 0.0 0.0 0.0 0.0 0.0 0.0 0.0 1.8349143 0.0 0.0 0.0 0.0 0.0 0.0 0.0 0.0 0.0 0.0 0.0 0.0 0.0 0.0 0.0 0.0 0.0 0.0 0.0 0.0 0.0 0.0 0.0 3.417434 0.6350006 0.0 0.0 0.0 0.0 0.22287087 0.0 0.0 0.0 0.0 0.0 0.0 0.0 0.0 0.0 0.0 0.0 0.67276424 0.0 0.0 1.370123 0.28727567 0.0 0.0 0.0 0.0 0.0 0.0 0.0 0.0 0.0 0.0 0.0 0.0 0.0 0.0 0.0 0.0 0.0 0.0 0.0 0.0 0.0 0.0 0.0 0.0 0.0 0.2986825 0.0 0.0 0.0 0.0 0.0 0.0 0.0 0.0 0.0 0.0 0.0 0.0 0.0 13.229593 0.0 0.0 0.0 0.0 0.0 0.0 0.0 0.0 0.0 0.0 0.0 0.0 0.0 0.0 0.0 0.0 0.0 0.0 0.0 0.0 0.0 0.0 0.0 0.0
2273 0.0 0.0 0.0 8.662106 0.0 0.0 0.0 0.0 0.0 0.0 0.0 0.0 0.0 0.0 0.0 0.0 0.0 12.198144 0.0 0.0 0.0 0.0 0.0 0.0 0.0 1.8289282 1.333283 0.0 0.0 0.0 0.5053363 0.0 0.0 0.0 0.0 0.0 0.0 0.0 0.0 2.0757146 0.0 0.0 0.0 0.0 0.0 0.0 0.0 0.0 0.0 0.0 0.0 0.0 0.0 0.0 0.0 0.0 0.0 0.0 0.0 0.0 0.0 0.0 0.0 0.0 5.4293776 0.0 0.0 0.0 0.0 0.0 0.0 1.6349095 0.0 0.0 0.0 0.0 0.0 0.0 0.0 0.0 0.0 0.0 0.0 0.0 0.0 0.0 0.0 0.0 0.0 0.0 0.4416539 0.0 1.746504 0.0 1.348928 0.0 0.0 0.0 6.622767 0.0 0.0 0.0 0.0 4.246482 0.0 0.0 0.0 0.0 0.0 0.0 0.0 0.0 0.0 0.30054665 0.0 0.0 0.0 0.0 0.0 0.0 0.0 0.0 0.0 0.0 0.0 0.0 0.0 0.0
1616 0.0 0.0 5.9412313 0.0 0.0 1.1576099 0.0 0.0 0.0 0.0 0.0 0.0 0.0 0.0 0.005677879 0.0 0.0 0.33171982 0.0 0.0 0.0 0.042172566 0.0 0.0 0.0 0.0 0.0 0.0 0.0 0.0 0.0 0.0 0.0 0.0 11.332113 0.0 0.0 0.9137475 0.0 0.0 0.0 0.0 0.9039342 0.0 0.0 0.0 0.0 0.9796441 0.0 0.0 0.0 0.0 0.03597772 0.0 0.0 0.0 0.0 0.0 0.0 0.0 0.0 0.0 0.0 0.39109135 0.0 0.0 0.0 0.0 0.0 0.011475742 0.0 0.0 0.0 0.051177144 0.0 0.0 0.0 0.0 0.0 0.0 0.0 0.0 0.0 0.0 0.0 0.0 0.0 0.0 0.0 0.0 0.0 0.0 0.0 0.0 0.0 0.40147078 0.25231767 0.0 0.0 0.0 0.0 0.0 0.0 0.0 0.0 0.0 0.0 0.0 0.0 0.0 0.0 0.0 0.0 0.0 0.0 0.0 0.0 0.0 0.0 0.0 0.0 0.0 0.0 0.0 0.0 9.009013 0.0 0.0
2158 0.0 0.0 4.557148 0.0 0.0 4.902483 0.0 0.0 0.0 0.0 0.0 0.0 0.0 0.0 0.0 0.0 0.0 0.0 0.0 0.0 0.0 0.68118984 0.0 0.0 0.0 0.0 0.0 0.0 0.0 0.0 0.0 0.0 0.0 0.0 13.483895 0.0 0.0 0.0 0.0 0.0 0.0 0.0 1.1140244 0.0 0.0 0.0 0.0 0.0 0.29628804 0.0 0.0 0.0 0.0 0.0 0.0 0.0 0.32779062 0.0 0.0 0.0 0.0 0.0 0.0 0.0 2.045187 0.0 0.0 0.0 0.0 0.0017292649 0.0 0.0 0.0 0.0 0.0 0.0 0.0 0.0 0.0 0.0 0.0 0.0 0.0 0.0 0.0 0.0 0.0 0.0 0.0 0.0 0.0 0.0 0.0 0.0 0.0 0.0 0.0 0.0 0.0 0.0 0.0 0.0 0.0 0.0 0.0 0.0 0.0 0.0 0.0 0.0 0.0 0.0 0.0 0.0 0.0 0.0 0.0 0.0 0.0 0.0 0.0 0.0 0.0 0.0 0.0 7.427972 0.0 0.0
1624 0.0 0.0 4.5211496 0.0 0.0 2.1431587 0.0 0.0 0.0 0.0 0.0 1.8599124 0.0 0.0 0.0 0.0 0.0 0.0 0.0 0.0 0.0 1.2816652 0.0 0.021644697 0.32204413 0.0 0.0 0.0 0.04970766 0.0 0.0 0.7659686 0.0 0.0 13.557084 0.0 0.0 0.0 0.0 0.0 0.0 0.0 0.3420192 0.36179596 0.0 0.0 0.0 1.1563306 0.0 0.0 0.0 0.0 0.0 0.0 0.0 0.0 0.67182386 0.0 0.0 0.0 0.0 0.0 0.0 0.47741342 0.0 0.21378899 0.0 0.0 0.0 0.5795121 0.0 0.0 0.0 0.0 0.0 0.0 0.0 0.0 0.0 0.0 0.0 0.0 0.0 0.0 0.0 0.0 0.0 0.0 0.0 0.0 0.0 0.0 0.0 0.0 0.0 0.0 0.0 0.0 0.0 0.0 0.0 1.3578689 0.0 0.097196266 0.0 0.0 0.0 0.0 0.0 0.0 0.0 0.0 0.0 0.0 0.0 0.0 0.0 0.0 0.0 0.0 0.0 0.0 0.0 0.0 0.0 8.699094 0.0 0.0
2165 0.0 0.0 4.3832507 0.0 0.0 7.6634345 0.0 0.0 0.0 0.0 0.0 0.07336804 0.0 0.0 0.0 0.0 0.0 0.0 0.0 0.0 0.0 0.0 0.0 2.578726 0.0 0.0 0.0 0.0 0.0 0.0 3.2937145 0.0 0.0 0.0 13.118089 0.0 0.0 0.0 0.0 0.0 0.0 0.0 4.3842506 0.34057015 0.0 0.0 0.0 0.0 0.0 0.0 0.0 0.0 0.0 0.0 1.3674842 0.0 0.0 0.0 0.0 0.0 0.0 0.0 0.0 0.0 0.0 0.3077104 0.0 0.8015968 0.0 5.740866 0.0 0.0 0.0 0.0 0.0 0.0 0.79770607 0.0 0.0 0.0 0.0 0.0 0.0 0.0 0.0 0.0 0.0 0.0 0.0 0.0 0.0 0.0 0.0 0.0 0.0 0.0 0.0 0.0 0.0 0.0 0.0 0.0 0.0 0.0 0.0 0.0 0.0 0.0 0.0 0.102463424 0.0 0.0 0.0 0.0 0.0 0.0 0.0 0.0 0.0 0.0 0.0 0.0 0.0 0.6955534 0.0 2.0156922 0.0 0.0
2167 0.0 0.0 3.8905418 0.0 0.0 10.657774 0.0 0.0 0.33679324 0.0 0.0 0.0 0.0 0.0 0.0 0.0 0.033739194 0.0 0.0 0.1492823 0.48547414 0.0 0.0 1.1561068 0.0 0.0 0.603633 0.0 0.0 0.0 0.931181 0.0 0.8093847 0.0 12.351874 0.0 0.0 0.0 0.0 0.0 0.0 0.0 4.1981916 0.0 0.0 0.0 0.0 0.0 0.0 0.0 0.0 0.0 0.0 0.0 0.14401819 0.0 1.3967803 0.0 0.0 0.0 0.0 0.0 0.0 0.15807123 0.0 0.0 0.83781886 0.0 0.0 2.5934706 0.26163596 0.0 0.0 0.0 0.16372494 0.0 0.0 0.0 0.0 0.0 0.0 0.0 0.0 0.0 0.0 0.0 0.29608858 0.0 0.0 0.0 0.0 0.0 0.0 0.0 0.0 0.0 0.0 0.0 0.0 0.0 0.0 0.0 0.0 0.9071167 0.0 0.0 0.0 0.0 0.0 0.0 0.0 0.0 0.0 0.0 0.0 0.0 0.0 0.0 0.0 0.0 0.0 0.0 0.0 0.0 0.0 3.6224258 0.0 0.3217066
1631 0.0 0.0 6.5945716 0.0 0.0 0.31317365 0.0 0.0 0.0 0.7533521 0.0 0.08074322 0.20364101 0.0 0.0 0.0 0.0 0.0 0.0 0.0 0.0 0.05654569 0.0 0.0 0.0 0.0 0.0 0.0 0.0 0.0 0.0 0.0 0.046876147 0.0 12.31321 0.0 0.0 0.0 0.0 1.2644433 0.0 0.0 0.0 0.0 0.0 0.0 0.0 0.06351279 0.0 0.0 0.0 0.0 0.0 0.0 0.013167053 0.0 2.963845 0.0 0.0 0.0 0.0 0.0 0.0 0.0136410445 0.0 0.0 0.0 0.0 0.0 1.5415488 0.0 0.0 0.0 0.0 0.0 0.0 0.0 0.0 0.0 0.0 0.0 0.0 0.0 0.0 0.0 0.0 0.0 0.0 0.0 0.0 0.0 0.0 0.0 0.0 0.0 0.0 0.0 0.0 0.0 0.0 0.0 0.0 0.0 0.0 0.0 0.0 0.0 0.0 0.0 0.0 0.0 0.0 0.0 0.0 0.0 0.0 0.0 0.01002413 0.0 0.0 0.0 0.0 0.0 0.0 0.0 7.8295717 0.0 0.0
1640 0.0 0.0 4.7375956 0.0 0.0 0.0 0.0 0.0 0.0 0.0 0.0 1.6437762 0.0 0.0 0.0 0.0 0.0 0.0 0.0 0.0 0.0 0.0 0.0 0.0 0.0 0.0 0.6988874 0.0 1.1466564 0.0 0.0 0.0 0.0 0.0 10.780673 0.0 0.0 0.0 0.0 0.0 0.0 0.0 0.59969246 0.0 0.0 0.0 0.0 0.546854 0.0 0.0 0.16983834 0.0 0.0 0.0 0.0 0.0 0.0 0.0 0.0 0.0 0.0 0.0 0.16170095 0.0 0.0 0.0 0.0 0.0 0.0 0.0 0.0 0.0 0.0 0.0 0.0 0.0 0.0 0.0 2.7119632 0.0 0.0 0.0 0.0 0.0 0.0 0.0 0.038505226 0.0 2.1538453 0.0 0.0 0.0 0.0 0.0 0.0 0.0 0.2295126 0.0 0.0 0.0 0.0 0.0 0.0 0.0 0.0 0.0 0.0 0.0 0.0 0.0 0.0 0.0 0.0 0.0 0.0 0.0 0.0 0.0 0.0 0.0 0.0 0.0 0.0 0.0 0.0 9.103896 0.4777511 0.0
1659 0.0 0.0 6.9399467 0.0 0.0 0.065308034 0.0 0.0 0.30625403 0.0 0.0 0.0 0.0 0.0 0.0 0.0 0.0 0.0 0.0 0.0 0.0 0.04505126 0.0 0.0 0.0 0.0 0.0 0.0 0.0 0.0 0.0 0.0 0.0 0.0 11.513656 0.0 0.0 0.0 0.0 0.0 0.0 0.0 0.09066762 0.0 0.0 0.0 0.0 0.0 0.0 0.0 0.0 0.0 0.0 0.0 0.0 0.0 0.0 0.0 0.0 0.0 0.0 0.0 0.0 0.0 0.0 0.0 0.0 0.38714063 0.0 0.16367275 0.0 0.0 0.0 0.0 0.0 0.0 0.0 0.0 0.0 0.0 0.0 0.0 0.6890286 0.0 0.0 0.0 0.0 0.0 0.3680355 0.0 0.0 0.08375613 0.0 0.0 0.0 0.0 0.0 0.0 0.0 0.0 0.0 0.0 0.0 0.0 0.0 0.0 0.0 0.0 0.09392601 0.0 0.0 0.0 0.0 0.0 0.0 0.0 0.0 0.0 0.0 0.0 0.0 0.0 0.0 0.0 0.0 9.338864 0.0 0.0
1662 0.0 0.0 3.4346464 0.0 0.0 0.0 0.0 0.0 1.3290943 0.0 0.0 0.0 0.0 0.0 0.0 0.0 0.0 0.21952485 0.0 0.07387884 0.0 1.2009107 0.0 0.0 0.0 0.0 0.0 0.0 0.0 0.0 0.0 0.0 0.0 0.0 10.1305895 0.0 0.0 0.0 0.0 0.14156106 0.0 0.0 0.0 0.0 0.0 0.0 0.0 0.0 0.0 0.0 0.0 0.0 1.562765 0.0 0.0 0.0 0.0 0.0 0.0 0.0 0.0 0.0 0.0 0.0 0.0 0.0 0.0 0.0 0.0 0.0 0.0 0.0 0.0 0.0 0.0 0.0 0.0 0.0 0.0 0.0 0.0 0.0 0.0 0.0 0.0 0.0 0.0 0.0 0.0 0.0 0.0 0.0 0.0 0.0 0.0 0.0 0.0 0.0 0.0 0.0 0.0 0.0 0.0 0.25310546 0.0 0.0 0.0 0.0 0.0 0.0 0.0 0.0 0.0 0.0 0.0 0.0 0.0 0.0 0.0 0.0 0.0 0.0 0.0 0.0 0.0 8.8554735 0.0 0.0
2280 0.0 0.0 2.3844466 0.0 0.0 6.131984 0.0 0.0 0.0 0.0 0.0 0.0 0.0 0.0 0.0 0.0 0.0 0.0 0.0 0.0 0.0 0.0 0.0 0.0 0.0 0.0 0.0 0.0 0.0 0.0 0.67088693 0.0 0.0 0.0 13.14294 0.0 0.0 0.0 0.0 0.0 0.0 0.0 3.5164149 0.0 0.0 0.0 0.0 0.0 0.0 0.0 0.0 0.0 0.0 0.0 0.0 0.0 0.0 0.0 0.0 0.0 0.0 0.0 0.0 0.0 0.0 0.0 0.0 0.0 0.0 1.7022297 0.0 0.0 0.0 0.0 0.0 0.0 0.0 0.24816662 0.065108165 0.0 0.0 0.0 0.0 0.0 0.0 0.0 0.0 0.0 0.0 0.21069404 0.0 0.0 0.0 0.0 0.0 0.0 0.77141434 0.0 0.0 0.0 0.0 0.0 0.0 0.0 0.0 0.0 0.0 0.0 0.0 0.0 0.0 0.0 0.0 0.0 0.0 0.0 0.0 0.0 0.0 0.0 0.0 0.0 0.0 0.0 0.0 4.1212196 0.0 0.0
2307 0.0 0.0 2.602415 0.0 0.0 7.270715 0.0 0.0 0.0 0.0 0.0 0.0 0.0 0.0 0.0 0.0 0.0 0.0 0.0 0.0 0.0 0.0 0.0 1.1980144 0.21747388 0.0 0.0 0.0 0.0 0.11195813 2.3142157 0.0 0.0 0.0 13.339495 0.0 0.0 0.0 0.0 0.0 0.0 0.0 2.8971717 0.0 0.0 0.75931484 0.0 0.0 0.039388478 0.0 0.0 0.0 0.24792302 0.0 0.0 0.0 0.0 0.0 0.0 0.0 0.0 0.0 0.0 0.0 0.41973966 0.0 0.0 0.0 0.0 1.4983109 0.0 0.0 0.0 0.0 0.0 0.0 0.0 0.0 0.0 0.0 0.0 0.0 0.0 0.0 0.0 0.0 0.0 0.0 0.33683252 0.0 0.0 0.0 0.0 0.0 0.0 0.0 0.71238816 0.0 0.0 0.0 0.0 0.0 0.0 0.0 0.0 0.0 0.0 0.0 0.0 0.0 0.0 0.0 0.0 0.0 0.0 0.11154418 0.0 0.0 0.0 0.0 0.0 0.0 0.0 0.0 0.0 4.673854 0.0 0.0
16 0.0 0.0 0.0 0.0 0.0 0.0 0.0 0.0 0.0 0.0 0.0 0.0 0.0 0.0 0.0 0.0 0.0 0.0 0.0 2.3120031 2.8873026 0.0 0.0 0.0 1.4466068 0.0 1.1937855 0.0 0.0 0.0 0.0 0.0 0.0 0.0 0.0 0.0 0.0 1.3030955 0.0 0.81724304 0.0 0.0 0.0 0.0 0.0 0.0 0.0 0.0 0.0 0.0 0.10343045 0.0 0.0 0.0 0.0 0.0 0.0 0.0 1.2699839 0.0 0.9497642 0.0 0.59928054 0.0 0.0 0.0 0.06664395 0.0 2.0458064 0.0 0.0 0.0 0.0 0.0 0.0 0.0 0.5177597 0.0 0.0 0.0 0.0 0.0 0.0 0.8782154 12.495989 0.0 0.0 0.0 0.0 0.0 0.0 0.0 0.40171826 0.0 0.0 0.0 0.0 0.0 0.0 0.0 0.48772696 0.0 0.0 0.0 0.0 0.13915649 0.0 0.0 0.0 0.0 7.0160985 0.0 0.0 0.0 0.0 0.0 0.0 0.0 0.0 0.0 0.0 0.0 0.0 0.0 0.0 0.0 0.0 0.0
11 0.0 0.0 0.0 0.0 0.0 0.0 0.0 0.0 0.11231612 0.0 0.0 0.0 0.0 0.0 0.0 0.0 0.0 0.0 0.25046358 2.5051255 3.8289316 0.3621822 0.0 0.0 0.0 0.0 0.0 0.0 0.0 0.0 0.0 0.0 0.0 0.0 0.0 0.0 0.0 4.384513 0.0 0.0 0.0 0.0 0.0 0.0 0.0 0.0 0.0 0.0 0.0 0.0 1.1846743 0.0 0.0 0.0 0.0 0.0 0.0 0.0 0.0 0.30867487 5.826813 0.0 0.0 0.0 0.0 0.0 0.17002696 0.0 2.840361 0.0 0.0 0.0 0.0 0.0 0.0 0.0 0.0 0.0 0.0 0.0 0.0 0.0 0.0 0.99862057 12.925947 0.0 0.0 0.0 0.0 0.0 0.0 0.0 0.0 0.0 0.0 0.0 0.0 0.0 0.0 0.0 0.0 0.0 0.0 0.0 0.0 0.0 0.0 0.0 0.0 0.0 7.5687704 0.0 0.0 0.0 0.0 0.0 0.0 0.0 0.0 0.0 0.0 0.0 0.0 0.0 0.0 0.0 0.0 0.0
48 0.0 0.0 0.0 0.0 0.0 0.0 0.0 0.0 0.0 0.0 0.0 0.0 0.0 0.0 0.0 0.0 0.0 0.0 0.0 0.0 4.308486 0.0 0.0 0.0 0.0 0.0 0.0 0.0 0.0 0.0 0.0 0.0 0.0 0.0 0.0 0.0 0.0 0.0 0.0 0.7875291 0.0 0.0 0.0 0.0 0.0 0.0 0.0 0.0 0.0 0.0 0.0 0.0 0.0 0.0 0.0 0.0 0.0 0.0 0.0 0.0 0.0 0.0 0.0 0.0 0.0 0.0 4.836632 0.0 0.0 0.0 0.0 0.0 0.0 0.0 0.0 0.0 0.0 0.0 0.0 0.0 0.0 0.0 0.0 0.62643737 15.158418 0.0 0.0 0.0 0.0 0.0 0.0 0.0 0.0 0.0 0.0 0.0 0.0 0.0 0.0 0.0 0.0 0.0 0.0 0.0 0.0 0.0 0.0 0.0 0.0 0.0 5.8244834 0.0 0.0 0.0 0.0 0.0 0.0 0.0 0.0 0.0 0.0 0.0 0.0 0.0 0.0 0.0 0.0 0.0
68 0.0 0.0 0.0 0.0 0.0 0.0 0.0 0.0 0.0 0.0 0.0 0.0 0.0 0.0 0.0 0.0 0.0 0.0 0.0 0.48289588 7.919683 1.4921935 0.0 0.0 0.0 0.0 0.0 0.0 0.0 0.0 0.0 0.0 0.0 0.0 0.0 0.0 0.0 0.0 0.0 0.0 0.0 0.0 0.0 0.0 0.0 0.0 0.0 0.0 3.1033955 0.0 0.0 0.0 0.0 0.0 0.0 0.0 0.0 0.0 0.0 1.6317542 1.9830601 0.0 0.0 0.0 0.0 0.0 0.0 0.0 0.0 0.0 0.0 0.0 0.0 0.0 0.0 0.0 0.0 0.0 0.0 0.0 0.0 0.0 0.0 3.8285017 15.735221 0.0 0.0 0.0 0.0 0.0 0.0 0.0 0.0 0.0 0.0 0.0 0.0 0.0 0.0 0.0 0.0 0.0 0.0 0.0 0.0 0.0 0.0 0.0 0.0 0.0 7.2508774 0.0 0.0 0.0 0.0 0.0 0.0 0.0 0.0 0.0 0.0 0.0 0.0 0.0 0.0 0.0 0.0 0.0
67 0.0 0.0 0.0 0.0 0.0 0.0 0.0 0.0 0.0 0.0 0.0 0.0 0.0 0.0 0.9150497 0.0 0.0 0.0 0.0 0.0 4.284939 0.0 0.6908877 0.0 0.43662238 0.0 0.0 0.0 0.0 0.0 0.0 0.0 0.0 0.0 0.0 0.0 0.0 0.0 0.0 0.0 0.0 0.6804916 0.0 0.37778234 0.0 0.0 0.0 0.0 0.0 0.0 0.0 0.0 0.0 0.0 0.0 0.0 0.0 0.0 0.0 0.2122423 0.6350145 0.0 0.6836135 0.0 0.0 0.0 0.0 0.0 0.47581688 0.0 0.0 0.0 0.0 0.0 0.0 0.0 0.0 0.0 0.0 0.0 0.0 0.0 0.0 1.3228806 13.890369 0.0 0.0 0.0 0.0 0.0 0.0 0.0 0.0 0.0 0.0 0.0 0.0 0.0 0.0 0.0 0.0 0.0 0.0 4.2789106 0.0 0.0 0.0 0.0 0.0 0.0 5.183111 0.0 0.0 0.0 0.0 0.0 0.0 0.0 0.0 0.0 0.0 0.0 0.0 0.0 0.0 0.0 0.0 0.0
88 0.0 0.0 0.0 0.0 0.0 0.0 0.0 7.184577 0.0 1.1014979 0.0 0.0 0.0 0.0 0.0 0.0 0.0 0.0 0.0 1.949288 0.0 0.0 0.0 0.0 8.751022 0.0 0.0 0.0 0.0 0.0 0.0 0.0 0.0 0.0 0.0 0.0 0.0 0.0 0.0 0.0 0.0 0.292947 0.0 0.0 0.0 0.0 0.0 0.7999261 0.0 0.0 0.0 0.0 0.0 0.0 0.0 0.0 0.0 0.0 0.0 0.0 2.745224 0.0 0.0 0.0 0.0 0.0 0.0 0.0 0.0 0.0 0.0 0.0 0.0 3.1060057 0.0 0.0 0.0 0.0 0.0 0.0 0.0 0.0 0.0 0.60138446 4.800446 0.0 0.8234595 0.0 0.0 0.0 0.0 0.0 0.0 0.0 0.0 0.0 0.0 0.0 0.0 0.0 0.0 0.0 0.0 0.0 0.0 0.0 0.18424642 0.0 0.0 0.0 13.73526 0.0 0.0 0.0 0.0 0.0 0.0 0.0 0.0 0.0 0.0 0.0 0.0 0.0 0.0 0.0 0.0 1.4784966
116 0.0 0.0 0.0 0.0 0.0 0.0 0.0 0.0 0.0 0.0 0.0 0.0 0.0 0.0 0.0 0.0 0.0 0.0 0.0 0.90245557 0.3859044 0.0 0.0 0.0 0.47156787 0.0 2.5768094 0.0 0.0 0.0 0.0 0.0 0.0 0.0 0.0 0.0 0.0 0.0 0.7987697 3.442846 0.0 0.0 0.0 0.0 0.0 0.0 0.0 0.0 0.0 0.0 0.0 0.0 0.0 0.0 0.0 0.0 0.0 0.0 0.0 0.0 5.4435616 0.0 0.0 0.0 0.0 0.0 0.92509544 0.0 0.0 0.0 0.0 0.0 0.0 0.0 0.0 0.0 0.0 0.0 0.0 0.0 0.0 0.0 0.0 1.3188154 11.453443 0.18006226 0.0 0.0 0.0 0.0 0.0 0.0 1.9259644 0.0 0.0 0.0 0.0 0.0 0.0 0.0 0.0 0.0 0.0 0.0 0.21904816 0.0 1.8216451 0.0 0.0 0.0 6.468124 0.0 0.08665356 0.0 0.0 0.0 0.0 0.0 0.0 0.0 0.0 0.0 0.0 0.0 0.0 0.0 0.0 0.0
119 0.0 0.0 0.0 0.0 0.0 2.5687065 0.0 0.0 0.0 0.0 0.0 0.0 0.0 0.0 0.0 0.0 0.0 0.0 0.0 7.774136 0.0 0.0 0.0 0.0 2.505688 0.0 5.440687 0.0 0.0 0.0 0.0 0.0 0.0 0.0 0.0 0.0 0.0 0.0 0.0 1.645067 0.0 0.0 0.0 0.0 0.0 0.0 0.0 0.0 0.0 0.0 0.0 0.0 0.0 0.0 0.0 0.0 2.4659007 0.84408617 0.0 0.0 0.0 0.0 8.183678 0.0 0.0 0.0 0.0 0.0 0.098477066 0.0 0.0 0.18960351 0.0 0.0 0.0 0.0 0.0 0.0 0.0 0.0 3.9716792 0.0 0.0 0.0 0.0 0.0 0.13185559 1.0957949 0.0 0.0 0.0 0.0 0.0 0.0 0.0 0.0 0.0 0.0 0.0 0.0 0.6425103 0.0 0.0 0.0 0.0 0.0 0.0 0.0 0.0 0.0 2.237223 0.0 0.0 0.0 1.3585962 0.0 0.0 0.0 0.0 2.332355 0.0 0.0 0.0 0.0 0.0 0.0 0.0 0.67906666
493 0.0 0.0 0.0 0.0 0.0 0.0 0.28426018 0.0 0.0 0.0 2.100109 0.0 0.0 0.0 0.0 0.754303 0.0 0.0 0.0 0.0 0.0 0.0 0.0 4.683303 3.453503 0.0 0.0 0.0 0.0 0.0 0.0 0.0 0.0 0.0 0.0 0.0 0.0 8.192535 0.0 0.0 0.0 0.0 0.0 0.0 0.0 0.0 0.0 0.0 0.0 1.3017616 1.4145966 0.0 0.0 0.0 0.0 0.0 0.0 0.0 7.4553294 0.0 0.0 0.3211313 0.0 0.0 0.0 0.0 0.0 0.0 11.54046 0.0 0.0 0.0 0.0 0.0 0.0 0.0 3.243698 0.0 0.0 0.0 0.0 0.0 0.0 0.7790759 2.0482755 0.0 0.0 0.0 0.0 0.0 0.0 0.0 0.0 0.0 0.0 0.022698402 0.0 1.5312002 0.0 0.0 0.0 0.0 0.0 0.0 0.0 0.0 0.0 0.0 0.0 0.0 0.0 0.0 2.363031 0.0 0.0 0.0 1.4556447 0.0 0.0 0.0 0.0 0.0 0.0 0.0 0.0 0.0 0.0 0.0
167 0.0 0.0 0.0 0.0 0.0 0.59984034 0.71154726 0.0 0.0 0.0 0.19788784 0.0 0.0 0.0 0.0 0.0 0.0 0.0 0.0 0.0 2.9854953 0.0 0.0 0.0 0.0 0.0 0.0 0.0 0.0 0.0 0.0 0.0 0.0 0.0 0.0 0.0 0.0 0.0 0.9722822 0.0 0.0 0.0 0.0 0.0 0.0 0.0 0.0 0.037556738 0.0 0.0 0.0 0.0 0.20802528 0.0 0.0 0.0 0.0 0.0 0.0 0.0 0.0 0.0 0.0 0.652233 0.0 0.0 1.2922363 0.0 0.0 0.0 0.0 0.0 0.0 0.0 0.0 0.023828149 0.0 0.0 0.0 0.0 0.0 0.0 0.0 0.9130774 15.359056 0.43887213 0.0 0.0 0.0 0.0 0.0 0.0 0.0 0.0 0.0 0.0 0.0 0.0 0.0 0.0 0.0 0.44407994 0.17952774 1.3535833 0.0 0.0 0.0 0.0 0.0 0.0 6.490221 0.0 0.0 0.0 0.0 0.0 0.0 0.0 0.0 0.0 0.0 0.0 0.0 0.0 0.0 0.0 0.0 0.0
181 0.0 0.0 0.0 0.0 0.0 0.0 0.0 0.0 0.0 0.0 0.0 0.0 0.0 0.0 0.0 0.0 0.0 0.0 0.0 0.0 1.8180838 0.0 0.0 0.0 0.43664962 0.0 0.0 0.0 0.0 0.0 0.0 0.0 0.0 0.0 0.0 0.0 0.0 0.0 0.0 0.0 0.0 0.0 0.0 0.0 0.0 0.0 0.0 0.0 0.0 0.0 0.035918176 0.0 0.0 0.0 0.0 0.0 0.0 0.0 0.0 0.0 0.0 0.0 0.0 0.0 0.0 0.0 0.9311551 0.0 0.0 0.0 0.0 0.0 0.0 0.0 0.0 0.0 0.0 0.0 0.1607198 0.0 0.3414234 0.0 0.0 1.5076172 16.473022 0.17230693 0.0 0.0 0.0 0.0 0.0 0.0 0.0 0.0 0.0 0.0 0.0 0.0 0.0 0.0 0.0 0.0 0.0 0.0 0.0 0.0 1.3686619 0.0 0.0 0.0 5.4504566 0.0 0.0 0.0 0.0 0.0 0.0 0.0 0.0 0.0 0.0 0.0 0.0 0.0 0.5664428 0.0 0.0 0.0
15 0.0 0.0 0.0 0.0 0.0 0.0 0.0 0.09583663 0.0 0.0 0.0 0.044441074 0.0 0.0 0.0 0.0 0.0 0.0 0.0 0.0 2.5345075 0.0 0.0 0.0 0.0 0.0 0.5226311 0.2851419 0.0 0.0 0.0 0.0 0.0 0.0 0.0 0.0 0.0 1.0151736 1.1465614 0.12918964 0.0 0.0 0.0 0.0 0.0 0.0 0.0 0.0 0.0 0.0 0.0 0.0 0.0 0.0 0.0 0.0 0.0 0.0 0.0 0.0 1.1254041 0.0 0.0 0.0 0.0 0.0 0.0 0.0 0.0 0.0 0.0 0.0 0.0 0.0 0.0 0.0 0.0 0.0 0.0 0.0 0.0 0.0 0.0 0.8275548 14.46394 0.0 0.0 0.0 0.0 0.0 0.0 0.0 0.0 0.0 0.0 0.0 0.0 0.0 0.0 0.0 0.0 0.0 0.0 0.0 0.0 0.0 0.0 0.0 0.0 0.0 4.936166 0.0 0.0 0.0 0.0 0.0 0.0 0.0 0.0 0.0 0.0 0.0 0.0 0.0 0.0 0.0 0.0 0.0
64 0.0 0.0 0.0 0.0 0.0 0.0 0.0 1.1341958 0.0 0.0 0.0 0.0 0.0 0.0 0.0 0.0 0.0 0.0 0.0 0.0 1.7145499 0.0 0.0 0.0 1.6658012 0.0 0.15829074 0.0 0.0 0.0 0.0 0.0 0.0 0.0 0.0 0.0 0.0 0.0 0.0 0.0 0.0 0.0 0.0 0.0 0.0 0.0 0.0 0.043145493 0.0 0.0 0.0 0.0 0.0 0.0 0.0 0.0 0.0 0.0 0.0 0.0 0.30430764 0.0 0.0 0.0 0.0 0.0 0.0 0.0 0.0 0.0 0.0 0.0 0.0 0.112798244 0.0 0.0 0.0 0.0 0.0 0.0 0.0 0.0 0.0 1.7189536 14.444775 0.0 0.0 0.0 0.0 0.0 0.0 0.0 0.0 0.0 0.0 0.0 0.0 0.0 0.0 0.0 0.0 0.0 0.0 0.0 0.0 0.0 0.39441824 0.0 0.0 0.0 8.566832 0.0 0.0 0.0 0.0 0.0 0.0 0.0 0.0 0.0 0.0 0.0 0.0 0.0 0.0 0.0 0.0 0.0
66 0.0 0.0 0.0 0.0 0.0 0.0 0.0 0.0 0.0 0.0 0.0 0.0 0.0 0.0 0.0 0.0 0.0 0.0 0.0 0.92716694 3.358216 0.0 0.0 0.0 0.0 0.0 0.0 0.0 0.0 0.0 0.0 0.0 0.0 0.0 0.0 0.0 0.0 0.47128987 0.0 0.0 0.0 0.0 0.0 0.0 0.0 0.0 0.0 0.0 0.0 0.0 0.6060345 0.0 0.0 0.0 0.0 0.0 0.0 0.0 0.14073265 0.0 4.755333 0.0 0.0 0.0 0.0 0.0 2.1191168 0.0 1.2260242 0.0 0.0 0.0 0.0 0.0 0.0 0.0 0.30563563 0.0 0.0 0.0 0.0 0.0 0.0 0.31319946 13.309966 0.0 0.0 0.0 0.0 0.0 0.0 0.0 0.0 0.0 0.0 0.0 0.0 0.0 0.0 0.0 0.0 0.0 0.0 0.0 0.0 0.0 0.0 0.0 0.0 0.0 6.450921 0.0 0.0 0.0 0.0 0.0 0.0 0.0 0.0 0.0 0.0 0.0 0.0 0.0 0.0 0.0 0.0 0.0
73 0.0 0.0 0.0 0.0 0.0 0.0 0.0 0.0 0.0 0.0 0.0 0.0 0.0 0.0 0.0 0.0 0.0 0.0 0.0 0.7930275 2.628438 0.4373765 0.0 0.0 0.0 0.0 0.0 0.0 0.0 0.0 0.0 0.0 0.0 0.0 0.0 0.0 0.0 0.0 0.0 0.99325395 0.0 0.0 0.0 0.0 0.0 0.0 0.0 0.0 0.0 0.0 0.0 0.0 0.0 0.0 0.0 0.0 0.0 0.0 0.0 0.0 1.757967 0.0 0.0 0.0 0.0 0.0 1.3878527 0.0 0.0 0.0 0.0 0.0 0.0 0.0 0.0 0.0 0.0 0.0 0.0 0.0 0.0 0.0 0.0 1.7406613 14.709657 0.0 0.0 0.0 0.0 0.0 0.0 0.0 0.0 0.0 0.0 0.0 0.0 0.0 0.0 0.0 0.0 3.5439687 0.0 1.1599585 0.0 0.0 1.162618 0.0 0.0 0.0 7.948565 0.0 0.0 0.0 0.0 0.0 0.0 0.0 0.0 0.0 0.0 0.0 0.0 0.0 0.0 0.0 0.0 0.0
92 0.0 0.0 0.0 0.0 0.0 0.0 0.0 0.99728537 0.0 0.0 0.0 0.0 0.09326629 0.0 0.0 0.0 0.0 0.0 0.0 0.0 2.4439855 0.31062853 0.0 0.5278981 0.7303915 0.0 0.0 0.0 0.0 0.0 0.0 0.0 0.0 0.0 0.0 0.0 0.0 0.0 0.0 0.0 0.0 0.0 0.0 0.0 0.0 0.0 0.0 0.0 0.0 0.0 0.3402448 0.0 0.0 0.0 0.0 0.0 0.0 0.0 0.33555773 0.6650689 0.0 0.0 0.0 0.05443102 0.0 0.0 0.0 0.0 0.63704884 0.0 0.0 0.0 0.0 0.0 0.0 0.0 1.1638011 0.0 0.0 0.0 0.0 0.0 0.0 0.69552535 13.788309 0.04367803 0.0 0.0 0.0 0.0 0.0 0.0 0.0 0.0 0.0 0.6669715 0.0 0.0 0.0 0.0 0.0 0.0 0.0 0.0 0.0 0.0 0.0 0.0 0.0 0.0 5.9424353 0.0 0.0 0.0 0.0 0.0 0.0 0.0 0.0 0.0 0.0 0.0 0.0 0.9320686 0.0 0.0 0.0 0.0
172 0.0 0.0 0.0 0.0 0.0 0.0 0.0 0.42697364 0.0 0.0 0.0 0.0 0.0 0.0 0.0 0.0 0.0 0.1670952 0.0 2.5379593 1.84352 0.0 0.0 0.0 0.0 0.0 0.0 0.0 0.0 0.0 0.0 0.0 0.0 0.0 0.0 0.0 0.0 0.0 0.0 0.0 0.0 0.039870128 0.0 0.0 0.0 0.0 0.0 0.0 0.0 0.0 0.0 0.0 0.0 0.0 0.0 0.0 0.0 0.0 0.0 0.0 3.6508572 0.0 1.0082374 0.0 0.0 0.0 0.58539724 0.0 0.0 0.0 0.0 0.0 0.0 0.0 0.0 0.0 0.0 0.153297 0.0 0.0 0.0 0.0 0.0 0.99257165 12.797851 0.0 0.0 0.0 0.0 0.0 0.0 0.26825574 0.0 0.0 0.0 0.0 0.0 0.0 0.0 0.0 0.0 0.6944055 0.0 1.8751209 0.0 0.0 0.042689368 0.0 0.0 0.0 6.5202956 0.0 0.0 0.0 0.0 0.0 0.0 0.0 0.0 0.0 0.0 0.0 0.0 0.0 0.0 0.0 0.0 0.0
186 0.0 0.0 0.0 0.0 0.0 0.39371192 0.0 0.0 0.0 0.0 0.0 0.0 0.0 0.0 0.0 0.0 1.7774075 0.3690108 0.0 0.4770513 2.2278717 0.0 0.0 0.0 0.0 0.0 2.296795 0.0 0.0 0.0 0.0 0.0 0.0 0.0 0.18993273 0.0 0.0 0.0 0.0 6.195006 0.0 0.0 3.578335 0.0 0.0 0.0 0.0 1.4838368 4.5425987 0.0 0.0 0.0 0.0 0.0 0.0 0.0 0.0 0.0 0.0 0.016906068 0.0 0.33319724 0.0 0.44612128 0.0 0.0 10.530728 0.0 0.0 0.0 0.0 0.0 0.0 0.0 0.0 0.0 0.0 0.0 0.0 0.0 0.0 0.31331992 0.0 3.6626492 0.09254569 0.0 0.059760228 0.0 0.0 0.40527627 0.0 0.0049585477 0.6439822 0.0 0.0 0.0 0.0 0.0 0.0 0.0 0.87307835 1.2444228 0.0 0.0 0.0 0.0 0.0 0.0 0.0 0.0 0.0 0.0 0.0 0.0 0.0 0.0 0.0 0.0 0.0 0.0 0.0 0.0 0.0 0.0 0.0 0.0 0.0 0.0
63 0.0 0.0 0.0 0.0 0.0 0.81549865 0.0 0.0 0.0 1.379204 0.0 0.0 1.4034541 0.0 0.0 0.0 0.0 0.0 0.0 0.0 1.2130151 0.6816431 0.39065945 0.0 0.0 0.0 0.0 0.0 0.6323636 2.359222 0.0 0.0 0.0 1.9668602 0.0 0.0 0.0 0.0 0.0 2.1582015 0.0 0.0 3.8894405 0.0 0.0 0.0 0.0 1.0461918 0.05627811 0.0 0.0 0.0 0.0 0.0 0.0 0.0 0.0 0.0 0.0 0.0 0.0 1.1305043 0.0 2.281869 0.0 0.0 15.028453 0.0 0.0 0.0 0.0 0.0 0.0 0.0 0.0 0.0 0.0 0.0 0.0 0.0 0.0 0.0 0.0 0.6543839 0.9959158 0.0 0.0 0.0 0.0 0.0 0.0 0.0 0.0 0.0 0.0 0.0 0.0 0.0 0.0 0.0 0.0 0.5152141 0.0 0.0 0.0 0.0 0.0 0.30418158 0.0 0.0 0.92035234 0.54040784 0.0 0.0 0.0 0.0 0.0 0.0 0.0 0.0 0.0 0.0 0.0 0.0 0.0 0.0 0.0 0.0
436 0.0 0.0 0.0 0.0 0.0 0.0 0.0 0.0 0.0 0.0 0.0 0.0 0.0 0.0 0.0 3.832462 0.0 0.46609175 0.0 0.0 0.0 0.0 8.619545 0.0 0.0 0.0 0.0 0.0 0.0 0.0 0.0 0.0 0.997362 0.0 0.0 0.0 0.0 0.0 0.0 1.0323014 0.0 3.8503702 0.0 0.0 0.0 2.2747798 0.0 0.0 0.0 0.0 3.614071 0.0 0.0 0.0 0.0 0.0 0.0 0.0 0.0 0.0 0.0 0.0 0.044162154 0.0 0.0 0.0 1.4183006 0.0 0.0 0.0 1.5783664 0.0 0.0 0.0 0.0 0.0 0.0 0.0 1.7983131 0.0 0.0 0.0 3.1610708 0.0 0.7980597 0.0 1.5930157 0.0 0.0 2.5721705 0.06460642 1.3726217 0.0 0.0 0.0 0.0 1.8777819 0.0 0.0 0.0 11.664477 0.0 0.0 0.0 0.0 0.0 0.0 0.0 0.0 0.0 0.0 0.0 0.0 0.0 0.0 0.0 0.0 0.0 0.3495241 0.0 0.0 0.0 0.0 0.0 0.0 0.0 0.0 0.0
100 0.0 0.0 1.6810116 0.0 0.0 3.7649336 0.0 0.0 0.0 2.0741484 0.0 0.0 0.0 0.0 0.0 0.0 0.0 0.0 0.0 1.6259912 0.0 0.04326947 0.0 0.0 0.0 0.0 0.0 0.0 1.3534534 0.0 0.0 0.0 0.0 0.0 0.0 0.0 0.0 0.0 0.0 3.9422648 0.0 0.0 7.863746 0.0 0.0 0.0 0.0 1.8088593 0.0 0.0 0.0 0.0 0.0 0.0 0.0 0.0 0.0 0.0 0.0 0.0 0.23114645 0.0 0.0 1.8876619 0.0 0.0 9.73848 0.0 0.0 2.0591505 0.0 0.0 0.0 0.0 0.0 0.0 0.0 0.0 0.0 0.0 0.0 0.0 0.0 1.6556902 0.0 0.0 0.0 0.0 0.0 0.0 0.0 0.0 0.0 0.0 0.0 0.0 0.0 0.0 0.0 0.0 0.0 6.5301843 0.0 0.0 1.3595351 0.0 3.1218572 0.0 0.0 0.0 1.4899645 0.0 0.0 0.0 0.21248928 0.0 0.0 0.0 0.0 0.0 0.0 0.0 0.0 0.0 0.0 0.0 0.0 0.0
101 0.0 0.0 0.0 0.0 0.0 1.0830839 0.0 0.0 0.0 0.16354108 0.0 0.0 0.0 0.0 0.0 0.0 0.0 0.0 0.0 0.0 0.0 0.035498396 0.0 0.0 0.0 0.0 0.0 0.0 0.0 0.0 0.0 0.0 0.0 0.0 0.0 0.0 0.0 0.0 0.0 3.6505783 0.0 0.0 4.629064 0.0 0.0 0.0 0.0 3.0666523 0.0 0.0 0.0170829 0.0 0.0 0.0 0.0 0.0 0.0 0.0 0.0 0.0 2.0390074 0.0 0.0 5.1615252 0.0 0.0 12.363501 0.0 0.0 0.0 0.0 0.0 0.0 0.0 0.0 0.0 0.0 0.0 0.0 0.0 0.0 0.0 0.0 0.0 0.48226094 0.0 0.0 0.0 0.0 0.0 0.0 0.0 0.0 0.0 0.0 0.0 0.0 0.0 0.0 0.0 0.0 4.0653825 0.0 0.0 0.0 0.0 3.0900762 0.0 0.0 0.0 2.100831 0.0 0.0 0.0 0.0 0.0 0.0 0.0 1.5053424 0.0 0.0 0.0 0.0 0.0 0.0 0.0 0.0 0.0
107 0.0 0.0 0.0 0.0 2.119602 0.0 0.0 0.0 0.0 4.835555 0.0 0.0 0.0 0.0 0.0 0.0 0.0 0.0 0.0 1.2592225 0.0 0.0 0.0 0.0 0.12975736 0.0 0.0 0.0 4.317648 0.0 0.0 0.0 0.0 0.0 0.26231736 0.0 0.0 0.0 0.0 3.4330463 0.0 0.0 8.571647 0.0 0.0 0.0 0.0 3.4526532 0.0 0.0 0.0 0.0 0.0 0.0 0.0 0.0 0.0 0.0 0.0 0.0 0.0 0.00636369 0.0 0.0 0.0 0.0 2.3250213 0.0 0.0 0.0 0.0 0.0 0.0 0.0 0.0 0.0 0.0 0.0 0.0 0.0 0.0 0.0 0.0 2.0849557 0.0 0.0 0.0 0.0 0.0 0.0 0.0 0.0 0.0 0.0 0.0 0.0 0.0 0.0 0.0 0.0 0.0 7.0414634 0.0 0.0 0.0 3.3867762 4.794736 0.0 0.0 0.0 0.41481662 0.0 0.0 0.0 0.0 0.0 0.0 0.0 0.0 0.0 0.0 0.0 0.0 0.0 0.0 0.0 0.0 0.0
458 0.0 0.0 0.0 0.0 0.0 0.0 0.0 0.0 1.445308 0.0 0.0 0.0 0.0 0.0 0.0 0.0 0.0 7.330946 0.0 0.0 0.0 0.04599704 0.0 0.0 0.0 1.4201121 11.607662 0.0 0.0 0.0 0.0 0.0 0.0 0.0 0.0 0.0 0.0 0.0 5.0978026 9.919721 0.0 0.0 0.0 0.0 0.0 0.0 0.0 0.0 0.0 0.0 0.0 0.0 0.0 0.0 0.0 0.0 0.5714002 3.5583062 0.0 0.0 0.6979984 0.0 0.0 0.0 0.0 0.0 0.0 0.0 0.0 0.0 0.0 0.0 0.0 0.0 0.0 0.0 0.0 0.0 0.0 0.0 0.0 0.0 0.0 0.0 0.0 0.0 0.0 0.5673732 0.0 0.0 0.0 0.0 7.832542 0.0 0.0 0.0 0.0 0.0 0.0 0.0 0.0 0.0 0.0 0.0 0.0 0.0 0.0 0.0 0.0 0.0 0.6124996 0.0 0.0 0.0 0.0 0.0 0.0 0.0 0.0 0.0 0.0 0.0 0.0 0.0 0.0 0.0 0.75163996 1.257348
1443 0.0 0.0 0.0 0.0 0.0 0.0 0.0 0.0 0.0 0.0 0.0 0.9189308 0.0 0.0 0.0 0.0 7.500841 0.0 1.148703 0.0 5.4367514 0.1474054 0.0 0.0 0.0 0.0 0.0 0.0 0.0 0.0 0.0 0.0 0.0 0.0 0.0 0.0 0.0 0.0 0.0 0.1753192 0.0 0.0 0.0 0.0 0.0 0.0 0.0 0.0 10.369749 0.0 0.0 0.0 0.0 0.0 0.0 0.0 0.0 0.0 0.0 0.0 0.0 0.0 0.0 0.0 0.0 0.0 0.0 0.0 0.0 0.91973436 0.0 0.0 0.0 0.0 0.0 0.0 0.0 0.0 0.0 0.0 0.0 0.0 0.0 7.8442254 0.0 0.0 0.0 0.0 0.0 0.0 0.0 0.0 0.0 0.0 0.0 0.0 0.0 0.0 0.0 0.0 0.0 0.06467633 0.0 0.0 0.0 0.0 0.0 0.0 0.0 0.0 0.0 0.37116313 0.0 0.0 0.0 0.0 0.0 0.0 0.4298717 0.0 0.0 0.0 0.0 0.0 0.0 0.0 0.0 0.0
1445 0.0 0.0 0.0 0.0 0.0 0.0 0.0 0.0 0.0 0.0 0.0 0.0 0.0 0.0 0.0 0.0 10.036442 0.0 0.0 0.0 4.331277 0.0 0.0 0.0 0.0 0.0 3.6312723 0.0 0.0 0.0 0.0 0.0 0.0 0.0 0.0 0.0 0.0 0.0 0.0 0.0 0.0 0.0 0.0 0.0 0.0 0.0 0.0 0.0 8.577002 0.0 0.0 0.0 0.0 0.0 0.0 0.0 2.2352195 0.0124236345 0.0 0.0 0.0 0.0 0.0 0.0 0.0 0.0 0.37509072 0.0 0.0 0.0 0.0 0.0 0.0 0.0 0.0 0.0 0.0 0.0 0.0 0.0 0.0 0.0 0.0 8.960776 0.0 0.0 0.0 0.0 0.0 0.0 0.0 0.0 0.0 0.0 0.0 0.0 0.0 0.0 0.0 0.0 0.0 0.0 0.0 0.0 0.0 0.0 0.9176291 0.0 0.0 0.0 0.0 0.0 0.0 0.0 0.0 0.0 0.0 0.0 0.0 0.0 0.0 0.0 0.0 0.0 0.0 0.0 0.0 0.0
133 0.0 0.0 0.0 0.0 0.0 5.3710337 0.0 0.0 0.0 0.0 0.0 0.0 0.0 0.0 0.0 0.0 0.0 0.0 0.0 0.0 0.1981118 0.0 0.0 0.0 0.0 0.0 0.0 0.0 0.912515 0.0 0.0 0.0 0.0 0.0 0.0 0.0 0.0 0.0 0.0 0.4906122 0.0 0.0 3.6433733 0.0 0.0 0.0 0.0 2.7213311 0.0 0.0 0.0 0.0 0.0 0.0 0.0 0.0 0.051634595 0.0 0.0 0.0 2.1117835 0.0 0.0 2.1550756 0.0 0.0 12.319622 0.0 0.0 0.0 0.0 0.0 0.0 0.27746975 0.0 0.0 0.0 0.0 0.7630381 0.0 0.0 0.0 0.0 0.9194606 2.195991 0.0 0.0 0.0 0.0 1.7563393 0.0 0.0 0.0 0.0 0.0 0.0 0.42156702 0.0 0.0 0.0 0.16862589 3.864352 0.0 0.11809228 0.0 0.0 0.37709093 0.0 0.0 0.0 0.0 0.0 0.0 0.0 0.41313174 0.0 0.0 0.0 0.14096084 0.0 0.0 0.0 0.0 0.0 0.0 0.0 0.0 0.0
1567 0.0 0.0 0.0 0.0 0.0 0.0 0.0 0.0 0.0 0.0 0.0 0.0 0.0 0.0 0.0 0.0 0.0 0.0 0.0 0.0 0.0 0.0 0.0 0.0 0.0 0.0 0.0 0.0 0.0 0.0 0.010969028 0.0 0.0 0.0 0.5287606 0.0 0.0 0.0 0.0 0.0 0.0 0.0 0.0 0.0 0.0 0.0 0.0 0.0 0.0 0.11694071 0.0 0.0 0.0 0.0 0.0 0.0 0.0 0.0 0.0 0.0 0.0 0.0 0.0 0.0 0.0 0.0 0.0 0.0 0.0 0.7912314 0.0 0.0 0.0 0.0 0.0 0.0 0.0 0.0 0.0 0.0 0.0 0.0 2.7447078 0.0 0.0 0.0 0.0 0.0 0.0 2.0576968 0.0 0.0 0.0 0.0 0.0 0.0 1.2976661 0.0 0.0 0.0 3.1777039 0.0 0.0 0.0 0.0 0.0 0.0 0.0 0.0 16.97087 0.0 0.0 0.0 0.0 8.13904 0.0 0.0 0.0 0.0 0.0 0.38196266 0.0 0.0 0.0 0.8883921 0.0 0.0 0.0
890 0.0 0.0 0.0 0.0 0.0 0.0 0.0 0.0 0.0 0.0 0.0 0.0 0.0 0.0 0.0 0.0 0.0 0.0 0.0 0.0 0.0 0.12814291 0.0 0.0 0.0 0.0 0.0 0.0 0.0 0.0 0.0 0.29265612 0.0 0.0 0.0 0.0 0.0 0.0 0.3863953 0.0 0.0 0.95456296 0.0 0.0 0.0 0.0 0.0 0.0 0.0 0.0 0.0 0.0 0.0 0.0 0.0 0.0 0.0 0.0 0.0 0.0 0.0 0.0 0.0 0.0 0.0 0.0 0.0 0.0 0.0 0.0 0.0 0.0 0.0 0.0 0.26472825 0.0 0.0 0.0 0.0 0.0 0.0 0.0 7.4207153 0.0 0.0 0.0 0.0 0.0 0.0 0.0020353273 0.0 0.0400519 0.0 0.0 0.0 0.0 0.0 0.0 0.0 0.0 6.741369 0.0 0.0 0.0 0.0 0.0 0.0 0.0 1.0419606 12.630307 0.0 0.0 0.0 0.0 11.919073 0.0 0.0 0.0 0.0 0.0 0.0 0.0 0.0 0.0 0.0 0.0 0.0 0.07932784
1592 0.0 0.0 0.0 0.0 0.0 0.0 0.0 0.0 0.0 0.0 0.0 0.0 0.0 0.0 0.0 0.0 0.0 0.0 0.045090154 0.0 0.0 0.0 0.0 0.0 0.0 0.0 0.0 0.0 0.0 0.0 0.0 0.0 0.0 0.0 0.0 0.0 0.0 0.0 0.0 0.0 0.0 0.0 0.0 0.0 0.0 0.07217708 0.0 0.0 0.0 0.0 0.0 0.0 0.0 0.0 0.0 0.0 0.0 0.0 0.0 0.0 0.0 0.0 0.0 0.0 0.0 0.0 0.0 0.0 0.0 0.0 0.0 0.0 0.0 0.0 0.0 0.0 0.0 0.0 0.0 0.0 0.0 0.0 1.8685387 0.0 0.0 0.0 0.0 0.0 0.0 1.3302941 0.0 0.0 0.0 0.0 0.0 0.0 0.0 0.0 0.0 0.0 2.7597482 0.0 0.0 0.0 0.0 0.0 0.0 0.0 0.0 15.989077 0.0 0.0 0.0 0.0 8.164944 0.0 0.0 0.0 0.0 0.0 0.0 0.0 0.0 0.16979112 0.0 0.0 0.0 0.0
1597 0.0 0.0 0.0 0.0 0.0 0.0 0.0 0.0 0.0 0.0 0.0 0.0 0.0 0.0 0.0 0.0 0.0 0.0 0.0 0.0 0.0 0.0 0.0 0.0 0.0 0.0 0.0 0.0 0.0 0.0 0.0 0.0 0.0 0.0 0.20204574 0.0 0.0 0.0 0.0 0.0 0.0 0.0 0.0 0.0 0.0 0.0 0.0 0.0 0.0 0.0 0.0 0.0 0.0 0.0 0.0 0.0 0.0 0.0 0.0 0.0 0.0 0.0 0.0 0.0 0.0 0.0 0.0 0.0 0.0 0.1885468 0.0 0.0 0.0 0.0 2.052359 0.0 0.0 0.0 0.0 0.0 0.0 0.0 1.7206266 0.0 0.0 0.0 0.0 0.0 0.0 1.0006971 0.0 0.0 0.0433475 0.0 0.0 0.0 0.4059949 0.0 0.0 0.0 2.253913 0.0 0.0 0.0 0.0 0.0 0.0 0.0 0.0 18.2112 0.0 0.0 0.0 0.0 4.5894084 0.0 0.0 0.0 0.0 0.0 0.21546026 0.0 0.0 0.0 0.13142258 0.0 0.0 0.0
1601 0.0 0.0 0.0 0.0 0.0 0.0 0.0 0.0 0.0 0.0 0.0 0.0 0.0 0.0 0.0 0.0 0.0 0.30843645 0.0 0.25981668 0.0 0.0 0.0 0.0 0.0 0.0 0.0 0.0 0.0 0.0 0.0 0.0 0.0 0.0 0.0 0.0 0.0 0.0 0.0 0.0 0.0 0.0 0.0 0.0 0.0 0.0 0.0 0.0 0.0 0.0 0.0 0.0 0.0 0.0 0.0 0.0 0.0 0.0 0.0 0.0 0.0 0.0 0.0 0.0 0.0 0.0 0.0 0.0 0.0 0.8793299 0.0 0.0 0.0 0.0 0.5144687 0.0 0.0 0.0 0.0 0.0 0.0 0.0 3.4270687 0.0 0.0 0.0 0.0 0.0 0.0 1.7420707 0.0 0.0 0.0 0.0 0.0 0.0 0.0 0.0 0.0 0.0 2.7667143 0.0 0.0 0.0 0.0 0.0 0.0 0.0 0.0 16.737467 0.0 0.0 0.0 0.0 10.072362 0.0 0.0 0.0 0.0 0.0 0.0 0.0 0.0 0.0 0.0 0.0 0.0 0.0
1398 0.0 0.0 0.0 0.0 0.0 0.3671065 0.0 0.0 0.0 0.0 0.0 0.0 0.0 0.0 0.0 0.0 7.514209 0.0 0.0 0.0 4.78866 0.0 0.0 0.0 0.0 0.0 0.0 0.0 0.0 0.0 0.0 0.0 0.0 0.0 0.0 0.0 0.0 0.0 0.0 0.0 0.0 0.0 0.0 0.0 0.0 0.0 0.0 0.0 11.102335 0.0 0.0 0.0 0.0 0.0 0.0 0.0 0.0 0.0 0.0 0.0 0.0 0.0 0.0 0.0 0.0 0.0 0.0 0.0 0.0 0.0 0.0 0.0 0.0 0.0 0.0 0.0 0.0 0.0 0.0 0.0 0.0 0.0 0.0 8.298509 0.8803458 0.0 0.0 0.0 0.0 0.0 0.0 0.18533516 0.0 0.0 0.0 0.0 0.0 0.31072462 0.0 0.0 0.0 0.0 0.0 0.0 0.0 0.0 0.0 0.0 0.0 0.0 0.0 0.0 0.0 0.0 0.0 0.0 0.0 0.0 0.0 0.0 0.0 0.0 0.0 0.0 0.0 0.0 0.0 0.0
1005 0.0 0.0 9.25869 0.0 0.0 1.9782395 0.0 0.0 0.0 0.0 0.0 0.0 0.0 0.0 0.0 0.0 3.2989972 0.0 0.0 0.0 0.46536812 0.0 0.0 0.0 0.0 0.0 3.0156093 0.0 0.0 0.0 0.0 0.0 0.0 0.0 2.9568057 0.0 0.0 0.0 0.0 0.0 0.0 0.0 2.293659 0.0 0.0 0.0 0.0 0.0 1.8222456 0.0 0.0 0.0 0.0 0.10394125 1.5342557 0.0 3.274674 0.0 0.0 0.0 0.0 0.0 0.0 0.0 0.0 0.0 0.54984933 0.0 0.0 8.498542 0.0 0.0 0.0 0.0 0.0 0.0 0.0 0.0 0.0 0.0 0.0 0.0 0.0 1.6594974 0.0 0.0 0.0 0.0 0.0 0.0 0.0 0.0 0.0 0.0 0.0 0.0 0.0 0.0 0.0 0.0 0.0 0.0 0.10488431 0.0 0.0 0.0 1.6647835 0.0 0.0 0.0 0.0 0.0 0.0 0.0 0.0 0.0 0.0 0.0 0.0 0.0 0.0 0.0 0.0 0.0 0.0 1.6836648 0.0 0.0
695 0.0 0.0 8.953058 0.0 0.0 0.024193108 0.0 0.0 3.6973164 0.0 0.0 0.0 0.3780995 0.0 0.0 0.0 0.0 0.0 0.0 0.0 0.0 0.0 0.0 0.8859147 0.0 0.0 0.0 0.0 0.0 0.0 0.26585865 0.0 0.0 0.0 4.758943 0.0 0.0 0.2456988 0.0 0.0 0.0 0.0 4.5289636 0.0 0.0 0.0 0.0 0.0 0.0 0.0 0.0 0.0 0.0 0.0 2.0573502 0.0 0.0 0.0 0.0 0.0 0.0 0.85779405 0.0 0.0 0.0 0.0 0.0 0.0 0.0 9.514185 0.0 0.0 0.0 0.0 0.0 0.0 0.0 0.0 0.0 0.0 0.0 0.0 0.0 0.0 0.0 0.0 0.0 0.0 0.0 0.0 0.0 0.0 0.0 0.0 0.0 0.0 0.0 0.0 0.0 0.0 0.0 0.0 0.0 0.0 0.0 0.0 0.0 0.0 0.0 0.0 0.0 0.0 0.0 0.0 0.0 0.0 0.0 0.0 0.0 0.0 0.0 0.0 0.0 0.0 0.0 2.205435 0.0 0.0
700 0.0 0.0 10.894932 0.0 0.0 0.0 0.0 0.0 2.078472 0.0 0.0 0.7412902 0.0 0.0 0.0 0.0 0.0 0.0 0.0 0.0 0.0 0.0 0.0 0.0 0.0 0.0 0.0 0.0 0.0 0.0 0.0 0.0 0.0 0.0 3.979045 0.0 0.0 0.0 0.0 0.0 0.0 0.0 4.679436 0.0 0.0 0.0 0.0 0.0 0.0 0.0 0.0 0.0 0.0 0.0 0.8045893 0.0 2.8174274 0.0 0.0 0.0 0.0 3.711172 0.0 0.29134452 0.0 0.0 0.0 0.0 0.0 6.7277994 0.0 0.0 0.0 0.0 0.0 0.0 0.0 0.0 0.0 0.0 0.0 0.0 0.0 0.0 0.0 0.0 0.0 0.0 0.0 0.0 0.0 0.0 0.0 0.0 0.0 0.0 0.0 0.0 0.0 0.0 0.0 0.0 0.0 0.0 0.0 0.0 0.0 0.0 0.0 0.0 0.0 0.0 0.0 0.0 0.0 0.0 0.0 0.0 0.0 0.0 0.0 0.0 0.0 0.0 0.0 5.0073576 0.0 0.0
714 0.0 0.0 0.91903436 0.0 0.0 0.0 0.0 0.0 0.0 0.0 0.66471916 0.0 0.0 0.0 0.0 0.0 0.0 0.0 0.0 5.0030313 0.22244611 0.0 0.0 1.3296704 0.29513258 0.0 0.0 0.0 0.0 0.0 1.1921833 0.0 0.0 0.0 0.0 0.0 0.0 3.2494898 0.0 0.0 0.0 0.0 0.0 0.0 0.0 0.0 0.0 0.0 0.0 0.0 0.0 0.0 0.0 3.2690616 10.888032 0.0 0.0 0.0 2.3317673 7.350167 0.3105278 0.0 0.0 0.0 0.56735075 0.0 0.0 0.0 0.0 2.039531 0.0 0.5035851 0.0 0.0 0.0 0.0 1.8901869 0.0 0.0 0.0 0.0 0.0 0.0 0.629443 0.0 0.0 0.0 0.0 0.0 0.0 0.0 0.0 0.0 0.0 0.0 2.5443969 0.0 1.837213 0.0 0.0 0.0 0.0 0.0 0.0 0.0 0.0 0.0 0.0 0.0 0.0 0.19303513 0.0 0.8171337 1.4096222 0.0 0.0 0.0 0.0 0.0 0.0 0.0 0.0 0.0 0.33760142 0.0 0.0 0.0 5.9318547
722 0.0 0.0 11.221346 0.0 0.0 0.0 0.0 0.0 0.4958474 0.0 0.0 0.0 0.0 0.0 0.0 0.0 0.0 0.0 0.0 0.0 0.0 0.0 0.0 0.0 0.0 0.0 0.19615191 0.0 0.0 0.0 1.5799253 0.0 0.0 0.0 3.9019299 0.0 0.0 0.0 0.0 0.0 0.0 0.0 4.733883 0.0 0.0 0.0 0.0 0.0 0.0 0.0 0.0 0.09706098 0.0 0.0 1.8591585 0.48200002 0.0 0.58796775 0.0 0.0 0.0 2.8098805 0.0 0.0 0.0 0.0 0.0 0.0 0.0 10.238275 0.0 0.0 0.0 0.0 0.0 0.0 0.0 0.0 0.0 0.0 0.0 0.0 0.0 0.0 0.0 0.0 0.0 0.0 0.0 0.0 0.0 0.03588485 0.0 0.0 0.0 0.0 0.0 0.0 0.0 0.0 0.0 0.0 0.0 0.0 0.0 0.0 0.0 0.0 0.0 4.3048863 0.0 0.0 0.0 0.0 0.0 0.0 0.0 0.0 0.0 0.0 0.0 0.677041 0.0 0.0 0.0 2.5572832 0.0 0.0
663 0.0 0.0 6.773029 0.0 1.5806459 0.0 0.0 0.0 0.0 0.9365663 0.0 0.0 0.11038861 0.0 0.0 0.0 0.0 0.0 0.0 0.0 0.0 0.0 0.0 0.0 0.0 0.0 0.0 0.0 0.0 0.0 0.0 1.1245093 0.0 0.0 5.636888 0.26828068 0.0 0.0 0.0 1.2979312 0.0 0.0 7.715721 0.0 0.0 0.0 0.0 3.2914288 0.0 0.0 0.0 0.0 0.0 0.0 0.0 0.0 0.0 0.0 0.0 0.0 0.0 0.0 0.0 0.0 0.0 2.6135807 0.93014693 0.0 0.0 6.8346047 0.0 0.0 0.0 0.0 0.0 0.0 0.0 0.0 0.0 0.0 0.0 0.0 0.0 0.0 0.0 0.0 0.0 0.0 0.0 0.0 0.0 0.6508396 0.0 0.0 0.0 0.0 0.0 0.0 0.0 0.0 0.0 2.4762917 0.0 0.0 0.0 0.0 0.0 0.0 0.0 0.36200047 0.21131214 0.0 0.0 0.0 0.0 0.0 0.0 0.0 0.79727316 0.0 0.0 0.0 0.0 0.0 0.0 2.9027708 0.0 0.0
788 0.0 0.0 8.151214 0.0 0.0 0.029599428 0.0 0.0 0.08388375 0.0 0.0 0.0 0.0044359416 0.0 0.0 0.0 3.3100576 0.0 0.0 0.0 0.0 0.0 0.0 0.0 0.0 0.0 0.0 0.0 0.0 0.0 0.079711735 0.0 0.0 0.0 2.2130065 0.0 0.0 0.0 0.0 0.0 0.0 0.0 4.5849195 0.0 0.0 0.0 0.0 0.0 0.80359566 0.0 0.0 0.0 0.0 0.0 1.5525072 0.0 0.0 0.0 0.0 0.0 0.0 0.9160255 0.0 0.0 0.0 0.0 0.0 0.0 0.0 9.150348 0.0 0.0 0.0 0.0 0.0 0.0 0.21320336 0.0 0.0 0.0 0.0 0.0 0.0 0.4671411 0.0 0.0 0.0 0.0 0.0 0.0 0.0 0.0 0.0 0.0 0.0 0.0 0.0 0.0 0.0 0.0 0.0 0.0 0.0 0.0 0.0 0.0 0.0 0.0 0.0 0.0 0.0 0.0 0.0 0.0 0.0 0.0 0.0 0.0 0.0 0.0 0.0 0.0 0.7813374 0.0 0.0 0.0 0.0 0.0
1018 0.0 0.0 6.1986775 0.0 0.0 0.0 0.0 0.0 0.0 2.0632908 0.0 0.0 0.20579658 0.0 0.0 0.0 0.0 0.0 0.0 0.0 0.50091076 0.0 0.0 0.0 0.0 0.0 0.0 0.0 1.9574172 0.0 0.0 0.0 0.0 0.0 0.0 0.0 0.0 0.5638168 0.0 1.8511318 0.0 0.0 5.922466 0.0 0.0 0.0 0.0 0.950409 0.0 0.0 0.0 0.0 0.0 0.0 0.10225521 0.0 0.0 0.0 0.0 0.0 0.0 0.009801626 0.0 0.104282394 0.0 0.0 0.0 0.0 0.0 6.1909103 0.0 0.0 0.0 1.6337599 0.0 0.0 0.0 0.0 0.0 0.08352524 0.0 0.0 0.0 1.8675303 0.0 0.0 0.0 0.0 0.0 0.0 0.0 0.0 0.0 0.0 0.0 0.0 0.0 0.0 0.0 0.0 0.0 5.19711 0.0 0.22157119 0.0 0.0 9.56694 0.0 0.0 0.0 0.0 0.0 0.0 0.0 0.0 0.0 0.0 0.0 0.0 0.0 0.0 0.0 0.0 0.0 0.0 0.0 0.0 0.0
509 0.5597085 0.0 0.0 0.0 0.0 0.0 0.0 0.0 0.0 0.0 0.0 0.0 0.0 0.0 0.0 0.0 0.0 0.0 0.0 0.24954033 0.0 0.0 0.0 0.0 0.5672638 0.0 0.0 0.0 0.0 0.0 0.0 0.9573285 0.0 0.0 0.0 0.0 0.0 0.0 1.3590027 0.0 0.0 0.0 0.0 0.0 0.0 0.0 0.0 0.0 0.0 0.0 0.0 0.0 0.0 15.2631855 0.0 0.0 0.0 1.4902917 0.0 0.28285933 0.0 0.0 0.0 0.0 0.0 0.0 0.0 0.20951934 0.0 0.0 0.0 0.12279087 0.0 0.0 0.0 0.21139061 0.0 0.0 0.0 0.0 0.0 0.0 0.0 0.0 0.0 0.0 0.0 0.6032599 0.0 0.0 1.2321458 0.0 0.0 0.0 0.0 0.0 0.0 0.22462267 0.0 0.0 0.0 0.0 0.0 0.0 0.0 0.0 0.0 0.0 0.0 0.0 0.0 0.0 0.6047952 2.0228875 0.0 0.0 0.93810713 0.0 0.0 0.0 0.0 0.0 0.0 1.1479723 0.0 0.0 0.0 0.0
811 0.0 0.0 7.681456 0.0 0.0 0.0 0.0 0.0 0.5411628 0.0 0.0 0.0 0.0 0.0 0.0 0.0 0.0 0.0 0.0 0.0 0.0 0.0 0.0 1.3681893 0.0 0.0 0.5423683 0.0 0.0 0.0 2.0932207 0.0 0.0 0.0 2.2682219 0.0 0.0 0.0 0.0 0.13967061 0.0 0.39941674 4.2707944 0.0 0.0 0.0 0.0 0.0 0.0 0.0 0.0 0.0 0.0 0.0 3.1348581 0.0 0.4232331 0.0 0.0 0.0 0.0 1.7504276 0.0 0.0 0.0 0.0 0.0 0.0 0.0 8.890096 0.0 0.0 0.30823332 0.0 0.0 0.0 0.3644603 0.0 0.0 0.0 0.0 0.0 0.0 0.0 0.0 0.0 0.0 0.0 0.0 0.0 0.0 0.0 0.0 0.0 0.0 0.0 0.0 0.0 0.0 0.0 0.0 0.0 0.0 0.9761699 0.0 0.0 0.0 0.0 0.0 0.70551544 0.0 0.0 0.0 0.0 0.0 0.0 0.0 0.0 0.0 0.0 0.0 0.0 0.0 0.0 0.0 0.0 0.0 0.0
1481 0.0 0.0 0.6554681 0.0 0.0 0.0 0.0 0.0 0.0 0.0 0.0 0.0 0.0 0.0 0.0 0.0 4.827605 0.0 0.0 0.0 1.1679412 0.0 0.0 0.0 0.0 0.0 8.854379 0.0 0.0 0.0 0.0 0.0 0.0 0.0 0.0 0.0 0.0 0.0 0.0 0.0 0.0 0.0 0.0 0.0 0.0 0.0 0.0 0.0 2.3040142 0.0 0.0 0.0 0.0 0.0 0.0 0.0 10.128258 0.0 0.0 0.0 0.0 0.0 0.0 0.0 0.0 0.0 0.0 0.0 0.0 2.2674758 0.0 0.0 0.0 0.0 0.0 0.0 0.0 0.0 0.0 0.0 0.0 0.0 0.0 2.6995714 0.0 0.0 0.07033859 0.0 0.0 0.0 0.0 0.0 0.0 0.0 0.0 0.0 0.0 0.0 0.0 0.0 0.0 0.0 0.0 0.0 0.0 0.0 0.0 0.0 0.0 0.0 0.0 0.0 0.0 0.0 0.0 0.0 0.0 0.0 0.0 0.0 0.0 0.0 0.0 0.0 0.0 0.0 0.0 0.0
1891 0.0 0.0 0.0 0.0 0.0 0.0 0.16244897 0.0 0.0 0.0 0.7607557 0.0 0.0 0.0 0.0 0.0 0.0 0.0 0.0 1.8691362 0.0 0.0 0.0 0.0 0.0 0.0 0.0 7.8800235 0.0 0.0 0.0 1.4373832 0.0 0.0 0.0 0.0 0.0 3.0738442 0.0 0.0 5.216742 0.0 0.0 0.0 0.0 0.0 0.0 0.0 0.0 0.0 0.0 0.0 0.0 0.0 0.0 0.0 0.0 0.37716758 0.0 0.30694476 0.69368625 0.0 0.0 0.0 0.0 0.3561505 0.0 0.10440108 0.0 0.0 0.16375203 0.0 0.0 0.0 0.0 0.0 0.0 0.0 0.0 0.10522306 0.0 0.0 0.0 0.0 0.0 4.5341516 0.0 0.0 0.0 0.0 0.0 0.0 0.0 0.0 0.0 0.42632008 0.0 0.0 0.0 0.0 0.0 0.0 0.0 0.0 10.7132435 0.0 0.0 0.0 0.0 0.0 0.0 0.0 0.27529538 0.0 0.0 0.0 0.0 0.0 0.0 0.0 0.0 0.53318936 0.0 1.6631995 0.0 0.0 0.0 0.0
390 0.0 0.0 0.566813 0.0 0.0 0.0 0.0 0.0 0.0 0.0 0.0 1.6696582 0.0 0.0 0.0 0.0 0.0 0.0 0.0 0.0 0.0 0.0 0.0 0.0 0.6059327 0.0 0.0 0.0 0.0 0.0 0.0 2.4839916 0.1867918 0.0 0.0 0.5221594 0.0 1.2764083 0.0 0.0 0.9067126 0.0 0.36769164 0.0 0.0 0.0 0.0 0.0 0.0 0.0 0.19603339 0.0 0.0 0.0 0.0 0.0 0.0 1.7245628 0.9138535 0.0 0.0 6.2133017 0.0 0.0 0.0 1.2493794 0.0 1.97776 0.0 0.0 0.0 0.0 0.0 0.0 0.0 0.0 0.0 0.0 0.0 0.0 0.0 0.0 0.0 0.0 0.0 0.0 0.0 0.0 5.9991937 0.0 0.0 0.071928255 0.0 0.0 0.0 0.0 0.0 0.0 0.0 0.0 0.0 0.0 0.0 2.5727515 0.015582904 0.0 0.0 0.0 0.0 0.0 0.0 0.0 2.7889144 0.19458652 0.0 0.0 0.0 0.5756128 0.0 0.0 0.0 0.0 0.0 1.769646 0.0 0.0 2.0859106 0.0
277 0.0 0.0 0.0 0.0 0.0 0.0 0.0 0.0 0.5653439 0.33985892 0.0 0.0 0.0 0.0 0.0 0.0 0.0 0.0 0.0 0.0 0.0 0.0 0.0 0.0 0.0 0.0 0.0 0.0 0.0 0.0 0.0 2.2669768 0.0 0.0 0.0 0.0 0.0 3.3850446 0.0 0.0 0.0 0.0 0.0 0.0 0.0 0.0 0.0049787983 0.0 0.0 0.0 0.9786122 0.0 0.68729126 1.6293424 0.0 0.0 0.0 9.171302 2.0715618 0.0 0.0 0.08220816 0.0 0.0 0.0 0.0 0.0 1.7095227 0.17185041 0.0 0.0 0.0 0.6809707 0.0 0.0 0.0 0.0 0.0 0.0 0.0 0.0 0.0 0.0 0.0 0.0 0.0 0.52638596 0.04404311 0.2430676 0.0 0.0 0.0 0.0 0.0 2.643426 0.0 0.0 0.4147879 0.0 0.0 0.0 0.0 0.0 0.0 0.0 0.0 0.0 0.0 0.0 0.0 0.0 0.0 3.2670326 0.0 0.0 2.0233874 2.0573962 0.17365317 0.0 0.0 0.0 0.0 0.0 0.0 0.0 0.5857805 0.0 0.0
434 0.0 0.0 0.29376912 0.0 0.0 0.0 1.6787369 0.0 0.0 0.50147295 0.0 0.0 0.0 0.0 0.0 0.0 0.0 0.65476567 0.0 0.0 0.0 0.0 1.6839986 0.0 0.060861066 0.0 0.0 0.0 0.0 0.0 0.0 5.7217913 3.772909 0.30393958 0.0 0.0 0.0 0.13307475 0.061447024 0.0 0.1489002 0.21318705 0.0 0.0 0.0 0.0 0.0 0.0 0.0 0.0 0.0 0.0 0.0 2.5414255 1.6588886 0.0 0.0 2.5139587 2.448578 0.2525766 0.0 4.769618 0.0 0.0 0.0 2.4691017 0.0 1.9416832 0.0 0.0 0.0 0.0 0.0 0.0 0.0 0.0 0.0 0.0 0.0 0.0 0.0 0.40267545 0.0 0.0 0.0 0.0 0.0 0.0 0.7258489 0.0 0.0 0.07788739 0.0 0.0 2.943585 0.0 0.10926598 0.0 0.0 1.772457 0.0 0.0 0.0 0.0 0.0 0.0 0.0 0.0 0.0 0.0 0.0 0.0 4.4053607 5.0653768 0.0 0.0 2.2276971 1.2466258 0.0 0.0 0.0 0.0 0.0 5.819942 0.0 0.0 0.0 0.0
960 0.0 0.0 0.73117685 0.0 1.3915741 0.0 0.0 0.0 0.0 0.0 0.0 7.238758 0.0 0.0 0.0 0.0 0.0 0.0 0.7985269 0.0 0.0 0.0 0.0 0.0 0.0 0.0 0.0 0.0 0.0 0.34531534 0.0 0.0 0.0 0.0 0.0 0.0 0.0 0.0 0.0 0.28335112 0.0 0.0 3.276399 0.0 0.0 0.0 0.0 0.0 0.0 0.0 0.658376 0.0 0.0 0.0 0.14656325 0.0 1.4541013 0.0 0.0 0.0 0.0 0.0 0.0 0.15767775 0.0 7.8860793 0.0 0.0 0.0 0.0 0.0 0.0 0.0 3.6905394 0.0 0.0 1.170068 0.0 0.0 0.0 0.0 0.0 0.0 0.0 0.0 0.0 0.0 0.0 13.534976 0.0 0.0 0.21066672 0.0 0.0 0.0 0.34499842 0.0 0.0 0.0 0.13282402 0.0 0.0 0.0 0.0 0.0 0.0 0.36491036 0.0 0.0 0.0 0.0 0.0 0.52848756 0.0 0.0 0.0 0.0 0.0 0.0 0.0 0.0 0.0 0.0 0.0 0.0 0.0 9.258059 0.0
475 0.54154265 0.0 0.0 0.0 0.0 0.0 3.7299526 0.0 0.0 1.5096506 0.0 0.0 0.0 0.0 0.0 0.0 0.0 0.0 0.0 0.0 0.0 0.0 0.0 0.0 0.21887244 0.0 0.0 0.0 0.0 0.0 0.0 6.132643 0.50733995 0.0 0.0 0.0 0.0 0.0 0.0 0.0 0.0016903877 0.0 0.0 0.0 0.19834715 0.0 0.0 0.0 0.0 0.0 0.49424967 0.0 0.0 3.7361012 2.099897 0.0 0.0 0.0 2.1722193 0.0 0.0 0.391227 0.0 0.061917946 0.0 0.836322 0.0 5.7304697 0.0 0.0 0.0 0.0 0.0 0.0 0.0 0.0 0.0 0.0 0.0 2.9102907 0.0 0.0 0.0 0.0 0.0 0.0 0.0 0.0 0.34779346 0.0 0.0 0.0 0.0 0.0 0.0 0.0 0.0 0.0 2.3658686 0.0 0.0 0.0 0.0 0.0 0.0 0.0 0.0 0.0 0.0 0.0 0.0 0.0 11.057842 1.3146869 0.0 0.0 0.0 4.6465206 0.0 0.0 0.0 0.0 0.0 0.0 0.0 0.0 0.0 0.0
346 0.0 0.0 5.0249357 0.0 0.0 0.0 0.0 0.0 0.0 0.0 0.0 0.0 0.0 0.0 0.0 0.0 1.2722956 0.0 0.0 0.0 0.0 0.0 0.0 0.0 0.0 0.0 0.0 0.0 0.0 0.0 0.0 0.86126024 0.0 0.104832 0.060323983 0.0 0.0 0.072521314 0.0 0.0 0.0 0.0 0.0 0.0 0.0 0.0 0.0 0.0 0.8573171 0.0 0.0 0.0 0.0 0.0 0.0 0.0 0.0 0.0 0.0 2.1488705 0.0 15.171634 0.0 0.0 0.0 0.0 0.0 0.0 1.012944 0.0 0.0 0.0 0.0 0.0 0.0 0.0 1.1565179 0.0 0.0 0.0 0.0 0.0 0.0 3.1511793 0.0 0.0 0.0 0.0 0.07000612 0.0 0.0 0.0 0.0 0.0 0.0 0.0 0.0 0.0 0.0 0.0 0.0 0.075019285 0.0 0.0 0.0 0.0 0.0 0.0 0.0 0.0 0.0 0.0 0.6664267 0.69115245 0.0 0.0 0.0 0.0 0.0 0.0 0.0 0.0 0.0 0.063078746 0.0 0.7510076 0.0 0.0
1716 0.0 0.0 0.0 0.0 0.0 0.0 0.0 0.0 0.0 0.0 0.0 0.0 0.11384998 0.0 0.0 0.04555139 0.0 0.0 0.0 0.0 0.0 0.0 0.0 0.0 0.0 0.0 0.0 0.0 0.0 0.0 0.0 0.0 0.82861674 0.0 0.0 0.0 0.0 0.0 0.0 0.0 0.0 0.0 0.0 0.0 0.0 0.71817094 0.0 0.0 0.0 0.0 0.0 0.0 0.65857965 0.0 0.0 0.0 0.0 0.0 0.0 0.0 0.0 0.0 7.5367627 0.0 0.0 0.0 0.0 0.0 0.0 0.0 0.0 0.0 0.0 0.0 0.0 0.0 0.0 0.0 0.0 0.0 17.141115 0.0 0.0 0.0 0.0 0.0 0.0 0.0 0.0 0.23946333 0.0 0.0 0.0 0.0 0.71269774 0.0 0.26556122 0.0 0.0 0.31168485 0.0 0.0 0.20909645 0.0 0.0 0.0 0.0 0.0 0.0 0.0 0.0 0.0 0.0 0.0 0.0 0.0 0.0 0.0 0.0 0.0 0.0 0.0 0.0 0.0 0.0 0.0 0.0 0.0
1717 0.0 0.0 0.0 0.0 0.0 0.0 0.0 0.0 0.0 0.0 0.0 0.0 0.0 0.0 0.0 0.0 0.0 0.0 0.0 0.0 0.0 0.0 0.0 0.0 0.0 0.0 0.0 0.0 0.0 0.0 0.0 0.0 2.2387943 0.0 0.0 0.0 0.0 0.0 0.0 0.0 0.0 0.0 0.0 0.0 2.8570087 2.2469566 0.0 0.0 0.0 0.0 0.0 0.0 0.1497483 0.0 0.0 0.0 0.0 1.2632916 0.0 0.0 0.0 0.0 7.6896486 0.0 0.0 0.0 0.0 0.0 0.0 0.0 0.0 0.0 0.0 0.0 0.0 0.0 0.0 1.1871154 0.0 0.0 12.245881 0.0 0.0 0.0 0.0 0.0 0.29161233 0.0 0.0 0.0 0.0 0.0 0.0 0.0 0.32764673 0.0 0.0 0.0 0.0 0.0 0.0 0.0 0.0 0.0 0.0 0.0 0.0 0.0 0.0 0.0 0.0 0.0 0.0 0.0 0.0 0.0 0.0 3.68186 0.0 0.0 0.0 0.0 0.0 0.0 0.0 0.0 0.0 0.0
1718 0.0 0.0 0.0 0.0 0.0 0.0 0.0 0.0 0.0 0.0 0.0 0.0 0.0 0.0 0.0 0.0 0.0 0.0 0.0 0.0 0.0 0.0 0.0 0.0 0.0 0.0 0.0 0.0 0.0 0.0 0.0 0.0 0.4156182 0.0 0.0 0.0 0.0 0.0 0.0 0.0 0.0 0.0 0.0 0.0 0.0 0.15553582 0.0 0.0 0.0 0.0 0.0 0.0 0.0 0.0 0.0 0.0 0.0 0.0 0.0 0.0 0.0 0.0 8.297835 0.0 0.0 0.0 0.0 0.0 0.0 0.0 0.0 0.0 0.0 0.0 0.0 0.0 0.0 0.0 0.0 0.0 13.986167 0.0 0.0 0.0 0.0 0.0 0.0 0.0 0.0 0.26456976 0.0 0.0 0.0 0.0 0.0 0.0 0.0 0.0 0.0 0.0 0.0 0.0 0.0 0.0 0.0 0.0 0.0 0.0 0.0 0.0 0.0 0.0 0.0 0.0 0.0 0.0 0.0 0.0 0.0 0.0 0.0 0.0 0.0 0.0 0.0 0.0 0.0 0.0
400 0.0 0.0 0.0 0.0 0.0 0.0 0.0 0.0 0.78944904 0.0 0.0 0.0 0.0 0.0 0.0 0.0 0.0 5.308326 0.0 0.0 0.0 0.0 0.0 0.0 0.0 0.0 0.0 0.0 0.0 0.0 0.0 0.0 0.0 0.0 0.0 0.0 0.0 0.0 0.0 0.0 0.0 0.31517023 0.0 0.0 0.0 0.0 0.0 0.0 0.0 0.0 0.0 0.0 16.177528 0.0 0.0 0.0 0.0 0.0 0.0 0.0 0.31664532 0.0 1.2243465 0.0 0.3560195 0.0 0.0 0.0 0.0 0.0 0.099308774 0.0 0.0 0.0 0.0 0.0 0.0 0.0 0.0 0.0 1.9265293 0.0 0.0 0.0 0.0 0.0 1.4187143 0.0 0.0 0.0 0.53866535 0.0 0.0 0.0 0.9877628 0.0 1.4071813 0.0 0.0 0.0 0.0 0.0 0.0 0.0 0.0 0.0 0.0 0.0 0.0 0.0 0.0 0.0 0.0 0.0 0.0 0.0 0.0 0.0 0.0 0.0 0.0 0.0 0.55568737 0.0 0.6743691 0.0 0.0 0.0
410 0.0 0.0 0.0 0.0 0.0 0.0 0.0 0.0 0.6221508 0.0 0.0 0.0 0.0 0.0 0.0 0.0 0.0 3.8910804 0.0 0.0 0.0 0.0 0.0 0.0 1.4283211 0.0 2.5596948 0.0 0.0 0.0 0.0 0.0 0.0 0.0 0.0 0.0 0.0 0.0 0.0 1.5906013 0.0 1.5125943 1.6769772 0.0 0.0 0.0 0.0 0.0 0.0 0.0 0.0 0.0 2.820312 0.0 0.0 0.0 0.0 3.7477617 0.0 0.0 0.0 0.0 2.2102869 0.0 0.0 0.0 0.0 0.0 0.0 0.0 0.0 0.0 0.0 0.0 0.0 0.0 0.0 0.0 0.0 0.0 7.0031695 0.0 0.0 0.0 0.0 0.0 1.5647109 0.0 0.0 0.0 0.0 0.0 3.3345954 0.0 4.0750666 0.0 0.0 0.0 0.0 0.0 0.0 0.0 0.0 0.0 0.0 0.0 0.0 0.0 0.0 0.0 2.0965962 0.0 0.2508791 0.0 0.0 0.0 0.0 0.0 0.0 0.0 0.0 0.0 0.0 0.0 0.0 0.0 0.0 0.0
2159 0.0 0.0 0.0 0.0 0.0 0.0 0.0 0.0 0.0 0.0 0.0 0.0 0.0 0.0 0.0 0.0 0.0 1.9683698 0.0 0.0 0.0 0.0 0.0 0.0 0.0 0.0 3.396206 0.0 0.04359392 0.0 0.0 0.0 0.0 0.0 0.0 0.0 0.0 0.0 0.0 0.0 0.0 0.0 0.0 0.0 0.0 0.0 0.0 0.0 0.0 0.0 0.0 0.0 0.0 0.0 0.0 0.0 2.527713 0.0 0.0 0.0 0.0 0.0 0.0 0.0 14.953486 0.0 0.0 0.0 0.0 0.0 0.0 0.0 0.0 0.0 0.22538508 0.5768688 0.0 0.0 0.0 0.0 0.0 0.0 0.0 0.0 0.0 0.0 0.42660952 0.0 0.0 0.0 0.0 0.0 0.0 0.0 0.0 0.0 0.08019884 0.0 0.0 0.0 0.0 0.0 0.0 0.1483774 0.0 0.0 0.0 0.0 0.0 0.0 0.0 0.0 0.0 0.0 0.0 0.0 0.0 0.0 0.0 0.0 0.0 0.0 0.0 0.0 0.79063725 1.6445634 0.0 0.0
1745 0.0 0.0 0.0 0.0 0.0 0.0 0.0 0.0 0.0 0.0 0.0 0.0069594383 0.0 0.0 0.0 0.0 0.0 0.0 0.0 0.087554276 0.0 0.0 0.0 0.0 0.0 0.0 0.0 0.0 0.0 0.0 0.0 0.0 0.0 0.0 0.7079666 0.0 0.0 0.0 0.0 0.0 0.82666093 0.0 0.0 0.0 0.0 0.0 0.0 0.0 0.0 0.0 0.0 0.0 0.0 0.0 0.0 0.0 0.0 0.0 0.0 0.0 0.0 0.0 8.498778 0.0 0.0 0.0 0.0 0.0 0.0 0.0 0.0 0.0 0.0 0.0 0.0 0.0 0.0 0.0 0.0 0.0 15.376461 0.0 0.0 0.0 0.0 0.0 0.0 0.0 0.0 0.0 0.0 0.0 0.0 0.0 0.0 0.0 0.0 0.0 0.0 0.0 0.0 0.0 0.0 0.0 0.0 0.0 0.0 0.0 0.0 0.0 0.0 0.0 0.0 0.0 0.0 0.0 0.0 0.0 0.0 0.0 0.0 0.0 0.0 0.0 0.0 0.0 0.0 0.0
1765 0.0 0.0 0.0 0.0 0.0 0.0 0.0 0.0 0.0 0.0 0.0 0.0 0.0 0.0 0.0 0.0 0.0 0.0 0.0 0.06478469 0.0 0.0 0.0 0.0 0.0 0.0 0.0 0.0 0.0 0.0 0.0 0.0 0.0 0.0 0.0 0.0 0.0 1.2083502 0.0 0.0 0.0 0.0 0.0 0.0 0.0 0.0 0.0 0.049164355 0.0 0.0 0.0 0.0 0.23080558 0.0 0.0 0.0 0.0 0.34331125 0.45886824 0.0 0.0 0.0 7.7822638 0.0 0.0 0.0 0.0 0.0 0.0 0.0 0.0 0.0 0.0 0.0 0.0 0.0 0.0 0.0 0.0 0.0 16.215887 0.0 0.0 0.0 0.0 0.0 0.0 0.0 0.0 0.0 0.0 0.0 0.0 0.0 0.0 0.0 0.0 0.0 0.0 0.0 0.0 0.7333727 0.0 0.0 0.0 0.0 0.0 0.0 0.0 0.0 0.0 0.0 0.0 0.0 0.0 0.0 0.0 0.0 0.0 0.0 0.0 0.0 0.0 0.0 0.0 0.0 0.0 0.0
1799 0.3309206 0.0 0.0 0.0 0.0 0.0 0.0 0.0 0.0 0.0 0.0 0.0 0.0 0.0 0.0 0.0 0.0 0.0 0.0 0.0 0.0 0.0 0.0 0.0 0.0 0.0 0.0 0.0 0.0 0.37800628 0.0 0.0 0.0 0.0 0.0 0.0 0.0 0.0 0.0 0.0 0.0 0.0 0.0 0.0 0.0 0.0 0.0 0.0 0.0 0.0 0.0 0.0 0.0 0.0 0.0 0.0 0.0 0.0 0.0 0.0 0.0 0.0 6.1227818 0.0 0.0 0.0 0.0 0.0 0.0 0.0 0.0 0.0 0.0 0.0 0.0 0.0 0.0 0.0 0.0 0.0 15.755406 0.0 0.0 0.0 0.0 0.0 0.0 0.0 0.0 0.0 0.0 0.0 0.0 0.0 0.0 0.0 0.0 0.0 0.0 0.0 0.0 0.0 0.1366133 0.0 0.0 0.0 0.0 0.0 0.0 0.0 0.0 0.0 0.0 0.0 0.0 0.0 0.0 0.0 0.0 0.0 0.0 0.0 0.0 0.0 0.0 0.0 0.0 0.0
1805 0.0 0.0 0.0 0.0 0.0 0.0 0.0 0.0 0.0 0.0 0.0 0.0 0.0 0.0 0.0 0.0 0.0 0.0 0.0 0.0 0.0 0.0 0.0 0.0 0.0 0.0 0.0 0.0 0.0 0.0 0.0 0.0 0.0 0.0 0.0 0.0 0.0 0.0 0.0 0.0 0.0 0.36078256 0.0 0.0 0.07310465 0.09929609 0.0 0.0 0.0 0.0 0.0 0.0 0.0 0.0 0.0 0.0 0.0 0.0 0.0 0.0 0.0 0.0 7.8985014 0.0 0.0 0.0 0.0 0.0 0.0 0.0 0.0 0.0 0.0 0.0 0.0 0.0 0.0 0.0 0.0 0.0 15.287297 0.0 0.0 0.0 0.0 0.0 0.0 0.0 0.0 0.0 0.0 0.0 0.0 0.0 0.0 0.0 0.0 0.0 0.0 0.0 0.0 0.0 0.0 0.0 0.0 0.0 0.0 0.0 0.4994555 0.0 0.0 0.0 0.0 0.0 0.0 0.0 0.0 0.08998738 0.0 0.0 0.30952334 0.0 0.0 0.0 0.0 0.0 0.0 0.0
1815 0.0 0.0 0.0 0.0 0.0 0.0 0.0 0.0 0.0 0.0 0.0 0.0 0.0 0.0 0.0 0.0 0.0 0.0 0.0 0.24037856 0.0 0.0 0.0 0.0 0.5018705 0.0 0.0 0.0 0.0 0.0 0.0 0.0 0.0 0.0 0.0 0.0 0.5006902 0.0 0.0 0.0 0.0 0.0 0.0 0.0 0.0 6.2377734 0.0 0.0 0.0 0.0 0.0 0.0 0.7901945 0.0 0.0 0.0 0.0 0.0 0.0 0.0 0.0 0.0 8.084787 0.0 0.0 0.0 0.0 0.0 0.0 0.25005668 0.0 0.0 0.0 0.0 0.0 0.0 0.0 0.0 0.0 0.0 15.513716 0.0 0.0 0.0 0.0 0.11900571 0.0 0.0 0.0 0.0 0.0 0.0 0.0 0.0 0.0 0.0 0.0 0.0 0.0 0.0 0.0 0.0 0.0 0.0 0.0 0.0 0.0 0.0 0.0 0.0 0.0 0.0 0.0 0.0 0.0 0.0 0.13381828 0.0 0.0 0.0 0.0 0.44659847 0.0 0.0 0.0 0.0 0.0 0.15572809
1829 0.0 0.0 0.0 0.0 0.0 0.0 0.0 0.0 0.0 0.0 0.0 0.0 0.0 0.0 0.0 0.0 0.0 0.0 0.0 0.0 0.0 0.0 0.0 0.0 0.0 0.0 0.0 0.0 0.0 0.0 0.0 0.0 0.0 0.0 0.0 0.0 0.0 0.0 0.0 0.0 0.0 0.0 0.0 0.0 0.0 0.0 0.0 0.0 0.0 0.0 0.0 0.0 0.0 0.0 0.0 0.0 0.0 0.0 0.0 0.0 0.0 0.0 8.566758 0.0 0.0 0.0 0.0 0.0 0.0 0.0 0.0 0.0 0.0 0.0 0.0 0.0 0.0 0.0 0.0 0.0 15.941109 0.0 0.0 0.0 0.0 0.0 0.0 0.0 0.0 0.17748603 0.0 0.0 0.0 0.0 0.0 0.0 0.0 0.0 0.0 0.0 0.0 0.0 0.0 0.0 0.0 0.0 0.0 0.0 0.0 0.0 0.0 0.0 0.0 0.0 0.0 0.0 0.0 0.0 0.0 0.0 0.06741087 0.1881594 0.0 0.0 0.0 0.0 0.0 0.0
1840 0.0 0.0 0.0 0.0 0.507184 0.0 0.0 0.0 0.0 0.0 0.0 0.0 0.0 0.0 0.0 0.0 0.0 0.0 0.0 0.0 0.0 0.0 0.0 0.0 0.0 0.0 0.0 0.0 0.0 0.0 0.0 0.0 0.0 0.0 0.0 0.0 0.0 0.0 0.0 0.0 0.0 1.163336 0.0 0.0 0.0 4.6356893 0.0 0.0 0.0 0.0 0.0 0.0 0.0 0.0 0.0 0.0 0.0 0.0 0.0 0.0 0.0 0.0 9.86 0.0 0.0 0.0 0.0 0.0 0.0 0.0 0.0 0.0 0.0 0.0 0.0 0.0 0.0 0.0 0.59027994 0.0 15.357839 0.0 0.0 0.0 0.0 0.0 0.0 0.0 0.0 0.0 0.0 0.0 0.0 0.0 0.0 0.0 0.0 0.0 0.0 0.0 0.0 0.0 0.0 0.0 0.0 0.0 0.0 0.0 0.0 0.0 0.0 0.0 0.0 0.0 0.0 0.0 0.0 0.0 0.0 0.0 0.0 0.0 0.0 0.0 0.0 0.0 0.0 0.0
1855 0.0 0.0 0.0 0.0 0.0 0.0 0.0 0.0 0.0 0.0 0.0 0.0 0.0 0.0 0.0 0.0 0.0 0.0 0.0 0.0 0.0 0.0 0.0 0.0 0.0 0.27161175 0.0 0.0 0.0 0.0 0.0 0.0 0.0 0.0 0.0 0.0 0.0 0.0 0.0 0.0 0.0 0.0 0.0 0.0 0.01405102 0.0 0.0 0.019308522 0.0 0.0 0.26128477 0.0 0.0 0.0 0.0 0.0 0.0 0.0 0.0 0.0 0.0 0.0 7.7364335 0.0 0.0 0.0 0.0 0.0 0.0 0.0 0.0 0.0 0.0 0.0 0.0 0.0 0.0 0.3229053 0.0 0.0 13.856461 0.0 0.0 0.0 0.0 0.0 0.0 0.0 0.0 0.0 0.0 0.0 0.0 0.0 0.0 0.0 0.0 0.0 0.0 0.0 0.0 0.0 0.0 0.0 0.0 0.0 0.0 0.0 0.0 0.0 0.65272975 0.0 0.0 0.0 0.0 0.0 0.0 0.0 0.0 0.0 0.0 0.0 0.0 0.0 0.0 0.0 0.0 0.0
1865 0.0 0.21277672 0.0 0.0 0.0 0.0 0.0 0.0 0.0 0.0 0.0 0.0 0.0 0.0 0.0 0.0 0.3021202 0.0 0.0 0.0 0.0 0.0 0.0 0.0 0.0 0.0 0.0 0.0 0.0 0.3156132 0.0 0.0 0.44847736 0.0 0.0 0.0 0.0 0.0 0.0 0.0 0.0 0.0 0.0 0.0 0.4916054 0.6127122 0.0 1.6346574e-05 0.0 0.0 0.0 0.0 0.8439331 0.0 0.0 0.0 0.0 0.0 0.0 0.0 0.0 0.0 8.491413 0.0 0.0 0.0 0.0 0.0 0.0 0.0 0.0 0.0 0.0 0.0 0.0 0.0 0.0 0.57085073 0.0 0.0 16.488623 0.0 0.0 0.0 0.0 0.0 0.0 0.0 0.0 0.0 0.0 0.0 0.0 0.0 0.0 0.0 0.0 0.0 0.0 0.0 0.0 0.0 0.0 0.0 0.0 0.0 0.0 0.0 0.0 0.0 0.0 0.0 0.0 0.0 0.0 0.0 0.0 0.0 0.0 0.0 0.0 0.0 0.0 0.0 0.0 0.0 0.0 0.0
1783 0.0 0.0 0.0 0.0 0.0 0.0 0.0 0.0 2.6893947 0.0 0.0 0.0 0.0 0.0 0.0 0.0 0.0 0.0 0.0 0.0 0.0 0.0 0.0 0.0 0.0 0.0 0.0 0.0 0.0 0.0 0.0 0.0 0.3406286 0.0 0.0 0.0 0.0 0.0 0.0 0.0 0.0 0.5518586 0.0 0.0 0.8520068 0.0 0.0 0.0 0.0 0.0 0.0 0.0 0.80894804 0.0 0.0 0.0 0.0 0.41881633 0.0 0.0 0.0 0.0 8.048963 0.0 0.0 0.0 0.0 0.0 0.0 0.0 0.0 0.0 0.0 0.0 0.0 0.0 0.0 0.21246481 0.0 0.0 13.879736 0.0 0.0 0.0 0.0 0.0 0.0 0.0 0.0 0.2213166 0.0 0.0 0.0 0.0 0.7340505 0.0 0.6716202 0.0 0.0 0.0 0.0 0.0 0.0 0.0 0.0 0.0 0.0 0.0 0.0 0.0 0.0 0.0 0.0 0.0 0.0 0.0 0.0 0.23147069 0.0 0.0 0.44602358 0.0 0.0 0.0 0.0 0.0 0.0 0.0
902 0.0 0.0 0.0 0.0 2.480193 0.0 0.0 0.0 0.0 8.555704 0.0 0.9374824 0.0 0.0 0.0 0.69481933 0.0 0.0 5.822687 0.0 0.0 0.0 0.0 0.0 0.0 0.0 0.0 0.0 0.0 0.0 0.0 0.0 0.0 0.0 0.0 4.3018928 0.0 0.0 4.81317 0.0 0.0 0.0 0.0 0.0 0.0 0.0 0.0 1.0172535 0.0 0.0 0.0 0.0 0.0 0.0 0.0 0.0 0.0 0.31915075 0.0 0.0 0.0 0.0 0.0 2.235211 0.0 4.130516 0.0 0.0 0.0 0.0 0.0 0.0 0.0 0.0 0.0 0.0 0.0 0.0 1.3630418 0.37050217 0.0 0.0 0.0 0.0 0.0 0.6043974 0.0 0.21359544 3.6071491 0.0 0.0 3.845538 2.9735694 0.0 0.0 0.0 0.0 0.0 0.0 0.0 0.0 0.0 4.9924846 0.0 0.0 0.0 0.0 0.0 0.0 0.0 0.0 0.71976227 1.0028534 0.0 0.0 0.0 0.0 0.0 1.7473776 0.0 0.14981891 0.0 0.0 0.29290742 0.0 0.0 0.0 0.0
1247 2.1069758 0.0 0.0 0.0 0.0 0.0 0.0 0.0 0.0 6.435348 0.2608449 0.0 0.0 0.0 0.0 0.0 0.0 0.0 0.9735054 0.0 0.0 0.0 0.0 0.0 0.0 0.0 0.0 0.0 0.0 0.0 0.0 0.0 0.0 0.0 0.0 0.0 0.0 0.0 0.0 0.0 1.4006658 0.0 0.0 0.0 0.0 0.0 0.0 0.0 0.0 0.0 0.0 0.0 1.8361309 0.0 0.0 0.0 0.0 0.0 0.0 0.0 0.0 0.0 0.0 0.0 0.0 2.8118174 0.0 3.4798439 0.0 0.0 0.0 0.0 0.0 0.0 0.0 0.0 0.0 0.0 0.0 11.23591 0.0 0.0 0.0 0.0 0.0 0.0 0.0 0.0 0.0 0.0 0.0 0.0 0.12350509 0.0 0.0 0.0 0.0 0.0 0.0 0.0 0.0 0.0 10.882479 0.0 0.0 0.0 0.0 0.0 0.0 0.0 0.0 0.0 11.738587 0.0 0.0 0.0 0.0 0.0 0.0 0.0 0.0 0.0 0.0 0.6479111 0.0 0.0 0.0 0.0
933 0.0 0.0 0.0 0.0 0.0 0.0 0.0 0.0 0.0 9.080619 0.0 7.6940317 0.0 0.0 0.0 0.0 0.0 0.0 0.0 0.0 0.0 0.2969591 0.0 0.0 0.0 0.0 0.0 0.0 0.0 0.0 0.0 1.1280353 0.6738707 0.0 0.0 0.48727918 0.0 0.0 2.882314 0.039785437 0.0 0.0 0.0 0.29828352 0.0 0.0 0.0 0.6280968 0.0 0.0 0.0 0.0 0.0 0.0 0.0 0.0 2.3082304 0.16630732 0.0 0.0 0.0 0.0 0.0 1.9657168 0.0 8.875244 0.0 0.0 0.0 3.7155576 0.0 0.0 0.0 0.0 0.21295984 0.0 0.0 0.0 0.0 0.011287779 0.0 0.0 0.0 0.0 0.0 0.6151763 0.0 0.0 0.0 0.0 0.0 2.7109675 4.3905325 0.0 0.0 0.0 1.1803079 0.0 0.0 0.0 0.0 0.0 7.058651 0.0 0.0 0.0 0.0 0.0 0.0 0.0 0.0 0.0 0.0 0.0 0.0 0.0 0.0 0.0 0.0 0.0 0.0 0.0 0.0 0.0 0.0 0.0 0.0 0.0
682 0.0 0.0 0.0 0.0 15.902029 0.0 0.0 0.0 0.0 0.0 0.0 0.0 0.0 0.0 0.0 0.0 0.0 0.0 0.0 0.0 0.0 0.0 0.0 0.0 0.0 0.0 0.0 0.0 0.03868983 0.0 0.0 0.0 0.87495244 0.0 0.0 0.0 0.0 0.0 0.6181501 0.0 0.0 0.0 3.0106223 0.0 0.0 0.0 0.0 0.0 0.0 0.0 0.0 0.0 0.0 0.0 0.29133493 0.0 0.0 0.0 0.0 0.0 0.0 0.0 0.0 0.0 0.0 0.39259893 0.0 0.0 0.0 0.0 0.0 0.0 0.0 0.0 0.35259378 0.0 0.51723623 0.51503396 0.0 0.0 0.0 0.0 0.0 0.0 0.0 0.0 0.0 0.0 1.7257192 0.6487212 0.0 0.0 0.0 0.0 0.0 0.0 0.0 0.0 0.0 0.0 0.010276437 0.0 0.0 0.0 0.0 0.0 0.0 0.0 0.0 0.8665047 0.0 0.0 0.0 0.0 0.0 0.0 0.0 0.0 0.0 0.0 0.0 0.081124246 0.0 0.0 0.0 0.0 4.067765 0.0
23 0.0 0.0 0.0 0.0 0.0 0.0 0.0 0.0 0.10212056 1.5064173 2.4169574 0.0 0.0 0.0 0.0 0.0 1.8719087 0.0 0.0 0.08442688 2.0352387 6.038596 0.0 0.0 0.0 0.0 0.0 0.0 3.7288659 0.12417413 0.0 0.36670506 0.0 0.0 0.0 0.0 0.0 1.8115911 0.0 2.3387594 0.0 0.0 0.0 0.0 0.0 0.0 0.0 0.0 0.028271198 0.0 0.0 0.0 0.0 0.0 0.0 0.0 0.0 0.0 0.0 5.9753513 9.785001 0.0 0.0 0.0 0.0 0.0 0.0 0.0 0.0 0.0 0.0 0.0 0.0 0.2586267 0.0 0.0 0.05759816 0.0 0.0 0.0 0.0 0.0 0.0 0.23327033 0.0 0.0 0.0 0.0 0.0 0.0 0.0 0.0 0.0 0.0 0.0 0.0 0.0 0.0 0.0 0.02948381 0.0 0.90165395 1.73466 0.0 0.0 0.0 0.0 1.2200497 1.1249528 0.0 4.634934 0.0 0.0 0.0 0.0 0.0 0.0 0.0 0.0 0.0 0.0 1.2548858 2.972365 0.0 0.0 0.0 0.0 0.0
391 0.0 0.0 0.0 0.0 0.0 0.0 0.0 0.0 0.0 0.0 0.0 0.0 0.0 0.0 0.0 0.0 2.067192 0.0 0.0 0.0 2.9593215 9.185671 0.0 0.0 0.0 0.0 0.13054487 0.0 0.0 0.0 0.0 0.0 0.0 0.0 0.0 0.0 0.0 0.0 0.0 0.0 0.0 0.0 0.0 0.0 0.0 0.0 0.0 0.0 2.972088 0.0 0.0 0.0 0.0 0.0 0.0 0.0 0.0 0.0 0.0 0.0 4.108511 0.0 0.0 0.0 0.0 0.0 0.0 0.0 0.0 0.0 0.0 0.9984962 0.0 0.0 0.0 0.0 0.0 0.0 0.0 0.0 0.0 0.0 0.0 2.201484 0.0 0.0 0.0 0.0 0.0 0.0 0.0 0.0 0.0 0.0 0.0 0.0 0.0 0.0 0.0 0.0 0.21432394 0.0 0.0 0.0 0.0 0.0 0.0 11.35823 0.0 0.0 4.9201894 0.0 0.0 0.0 0.0 0.0 0.0 0.0 0.0 0.0 0.0 0.0 0.0 0.0 0.0 0.0 0.0 2.4979436
25 0.0 0.0 0.0 0.0 0.0 0.5636137 0.0 0.34067732 0.0 0.57235336 0.83312196 0.0 0.0 0.0 0.0 0.0 0.0 0.0 0.1377509 1.2019066 1.3320173 2.926142 0.0 0.0 2.701043 0.0 0.0 0.0 1.7152869 0.0 0.0 0.0 0.0 0.0 0.0 0.0 0.0 0.54651076 0.0 0.7065286 0.0 0.0 0.0 0.0 0.0 0.0 0.0 0.0 0.0 0.0 0.0 0.0 0.0 0.0 0.0 0.0 0.0 0.0 0.0 2.7831063 8.767853 0.0 0.0 0.0 0.0 0.0 0.0 0.0 0.0 0.0 0.0 0.46598184 0.0 0.39721924 0.0 0.0 0.0 0.0 0.0 0.0 0.0 0.0 0.0 0.0 1.6395825 0.0 0.0 0.0 0.0 0.0 0.0 0.0 0.0 0.0 0.0 0.0 0.0 0.0 0.0 0.0 0.0 0.0 0.0 0.0 0.0 0.0 0.0 0.019399464 0.0 0.0 11.679634 0.0 0.0 0.0 0.0 0.0 0.0 0.0 0.0 0.0 0.0 0.0 0.0 0.0 0.0 0.0 0.0 5.6153674
89 0.0 0.0 0.0 0.0 3.2367268 0.0 0.0 0.0 0.0 5.417569 0.0 0.0 0.0 0.0 0.0 0.0 0.36190563 0.0 0.0 2.1414187 3.336314 1.1335613 0.0 0.0 0.0 0.0 0.0 0.0 5.080551 0.0 0.0 0.0 0.0 0.0 1.035611 0.0 0.0 2.5997338 0.0 4.003907 0.0 0.0 0.65742594 0.0 0.0 0.0 0.0 0.0 0.0 0.0 0.0 0.0 0.0 0.0 0.0 0.0 0.0 0.0 0.0 2.8910253 1.2863553 0.0 0.0 0.0 0.0 0.0 0.2863856 0.0 0.0 0.0 0.0 0.0 0.0 0.0 0.0 0.0 0.0 0.0 0.3248657 0.0 0.0 0.0 0.0 5.0009713 0.0 0.0 0.0 0.0 0.0 0.0 0.0 0.0 0.0 0.0 0.0 0.0 0.0 0.0 0.0 0.0 0.0 10.976473 0.0 0.0 1.3998442 0.39254358 2.7526333 0.0 0.0 0.0 0.0 0.0 0.0 0.0 0.0 0.0 0.0 0.0 0.0 0.0 0.0 0.0074867755 0.0 0.0 0.0 0.0 0.0 0.0
980 0.0 1.6805768 0.0 0.0 3.890222 0.0 0.0 0.0 3.542151 0.0 1.0741177 0.0 0.0 0.0 0.39822617 0.0 0.0 0.0 0.0 0.0 0.0 0.0 0.0 4.5512147 0.0 0.20209007 0.22370282 0.0 0.68761903 1.2935865 0.0 0.0 0.0 0.0 0.0 0.0 0.0 0.6029759 0.0 0.4396819 0.0 0.0 0.0 0.0 0.0 0.0 0.0 0.0 0.1028423 0.0 0.0 0.0 0.0 0.033913568 0.0 0.19620305 0.0 0.0 0.5953038 1.5950961 1.7976036 0.0 0.0 1.4811819 0.0 0.0 0.0 0.0 0.0 0.0 2.659886 0.5567083 0.0 4.063603 0.0 0.0 0.6125761 0.0 0.0 0.0 0.0 0.0 0.0 0.0 0.0 0.0 0.17621608 0.0 0.0 0.0 0.0 0.0 0.0 0.0 0.0 0.0 0.0 5.419635 0.0 1.6270851 0.0 0.0 0.0 0.0 0.0 0.0 0.0 0.0 0.28859067 0.0 0.0 0.0039368123 0.010515809 0.0 0.0 2.6238477 0.0 0.0 0.0 0.0 0.0 4.778494 1.9830987 0.0 3.1214757 0.0 0.0 0.0
1394 0.0 0.0 0.0 0.0 0.0 0.0 0.0 0.0 0.0 0.0 0.0 0.4516272 0.3992468 0.0 0.0 0.0 0.0 0.040301904 0.0 0.0 0.0 0.0 0.0 0.0 0.0 0.0 0.0 0.0 0.0 0.0 0.0 0.0 0.0 0.0 0.0 0.0 0.0 0.0 0.99845517 0.27755165 0.0 0.0 0.0 0.26755387 0.0 0.0 0.0 0.017648622 0.0 0.0 0.0 0.0 0.0 0.0 0.0 0.0 0.5089642 0.0 0.0 0.0 0.0 0.0 0.0 1.0241054 0.0 0.0 0.0 0.0 0.0 0.0 0.0 0.0 0.0 0.0 0.0 0.0 0.0 0.0 0.0 0.0 0.0 0.0 0.0 0.0 0.0 0.0 0.0 0.0 2.122744 0.0 0.0 0.0 0.0 0.0 0.0 0.0 0.0 0.0 0.0 0.0 0.0 0.0 0.0 0.0 0.0 0.0 0.0 0.0 0.0 0.0 0.0 4.9009504 0.0 0.0 0.0 0.0 0.0 0.0 0.0 0.0 0.0 0.0 0.0 0.0 0.0 0.0 15.4489765 0.0
1545 0.0 0.0 0.0 0.0 0.0 0.0 0.0 0.0 0.0 0.0 0.0 1.2941422 0.6471895 0.0 0.0 0.0 0.0 0.0 0.0 0.0 0.0 0.0 0.1091433 0.0 0.0 0.0 0.0 0.0 0.0 0.0 0.0 0.0 0.0 0.0 0.0 0.0 0.0 0.0 0.17028362 0.0 0.0 0.0 0.0 0.7387331 0.0 0.0 0.0 0.0 0.0 0.0 0.0 0.0 0.0 0.0 0.0 0.0 0.0 0.0 0.0 0.0 0.0 0.0 0.0 2.64725 0.0 0.0 0.0 0.0 0.0 0.041005462 0.0 0.0 0.0 0.0 0.0 0.0 0.0 0.0 0.0 0.0 0.0 0.0 0.0 0.0 0.0 0.0 0.0 0.0 0.0 0.0 0.0 0.0 0.0 0.0 0.0 0.0 0.4196213 0.0 0.0 0.0 0.0 0.0 0.0 0.0 0.0 0.10958123 0.0 0.0 0.0 0.0 0.0 5.5524354 0.0 0.0 0.0 0.0 0.0 0.0 0.0 0.0 0.0 0.0 0.0 0.0 0.0 0.0 13.747727 0.0
887 0.0 0.0 0.0 0.0 0.0 0.0 0.0 0.0 0.0 0.0 0.0 0.0 2.0812976 0.0 0.0 0.0 0.0 0.0 0.16856208 0.0 0.0 0.0 0.0 0.0 0.0 0.0 0.0 0.0 0.0 0.0 0.0 0.0 0.0 0.0 0.0 0.0 0.0 0.0 1.8668655 0.0 0.0 0.0 0.0 0.0 0.0 0.0 0.0 0.0 0.0 0.013367727 0.0 0.0 0.0 0.0 0.0 0.0 0.9158317 0.0 0.0 0.0 0.0 0.0 0.0 0.7393063 0.0 1.1742983 0.0 0.0 0.0 0.0 0.0 0.15951669 0.0 0.0 0.0 0.0 0.0 0.0 0.0 0.0 0.0 0.0 0.030438185 0.0 0.0 0.0 0.0 0.0 0.0 0.0 0.0 0.3080153 0.0 0.0 0.0 0.0 0.0 0.0 0.0 0.0 0.0 0.0 0.0 0.0 0.0 0.0 0.034121454 0.0 0.0 0.0 0.0 6.631557 0.0 0.0 0.0 0.0 0.0 0.0 0.0 0.0 0.0 0.0 0.0 0.0 0.0 0.0 15.550119 0.0
893 0.0 0.0 0.0 0.0 0.0 0.0 0.0 0.0 0.0 0.0 0.0 0.0 2.458676 0.0 0.0 0.0 0.0 0.0 0.0 0.0 0.0 0.0 0.0 0.0 0.0 0.0 0.0 0.0 0.0 0.0 0.0 0.0 0.0 0.0 0.0 0.0 0.0 0.0 1.5634801 0.0 0.0 0.0 0.0 0.34865695 0.0 0.0 0.0 0.5258655 0.0 0.0 0.0 0.0 0.12725407 0.0 0.0 0.0 0.0 0.0 0.0 0.0 0.0 0.0 0.0 1.7323917 0.0 0.0 0.10749662 0.0 0.0 0.0 0.0 0.0 0.0 0.0 0.0 0.0 0.0 0.0 0.0 0.0 0.0 0.0 0.0 0.0 0.0 0.0 0.0 0.0 0.0 0.0 0.0 0.0 0.0 0.0 0.0 0.0 0.0 0.0 0.0 0.0 0.8266189 0.0 0.0 0.0 0.0 0.0 0.0 0.0 0.0 0.0 0.0 8.7957325 0.0 0.0 0.0 0.21555163 0.0 0.0 0.0 0.0 0.0 0.0 0.0 0.0 0.0 0.0 13.380377 0.0
289 0.0 0.0 0.0 0.0 0.0 0.0 0.0 0.0 0.0 0.3316227 0.0 0.0 0.83815485 0.0 0.0 0.0 0.0 0.0 0.0 0.0 0.0 0.0 0.0 0.0 0.0 0.0 0.0 0.0 0.0 0.0 0.0 0.0 0.0 0.0 0.0 0.0 0.0 0.0 0.9600029 0.0 0.0 0.0 0.0 1.6877935 0.0 0.0 0.0 0.0 0.0 0.0 0.0 0.0 0.0 0.0 0.0 0.0 0.0 0.0 0.0 0.0 0.0 0.0 0.0 0.92454314 0.0 0.6181547 0.9079802 0.0 0.0 0.07370174 0.0 0.0 0.0 0.0 0.0 0.0 0.0 0.0 0.0 0.0 0.0 0.0 0.0 0.0 0.0 0.0 0.0 0.0 0.0 0.0 0.0 0.0 0.0 0.0 0.0 0.0 0.0 0.0 0.0 0.0 0.0 0.0 0.0 0.0 0.0 0.0 0.4746498 0.0 0.0 0.0 0.0 5.2124014 0.0 0.0 0.0 0.0 0.0 0.0 0.0 0.0 0.0 0.0 0.24078406 0.0 0.0 0.0 14.782875 0.0
931 0.0 0.0 0.0 0.0 0.0 0.0 0.0 0.0 0.0 0.0 0.0 0.0 0.0 0.0 0.0 0.0 0.0 0.0 0.0 0.0 0.0 0.0 0.0 0.0 0.0 0.0 0.0 0.0 0.0 0.0 0.0 0.0 0.0 0.0 0.0 0.0 0.0 0.0 0.63062143 0.0 0.0 0.0 0.0 0.0 0.0 0.0 0.0 0.5958134 0.0 0.0 0.0 0.0 0.0 0.0 0.0 0.0 0.0 0.0 0.0 0.0 0.0 0.0 0.0 2.5262132 0.0 0.0 0.3606776 0.0 0.0 0.0 0.0 0.0 0.0 0.0 0.0 0.0 0.0 0.0 0.0 0.0 0.0 0.0 0.0 0.0 0.0 0.0 0.0 0.0 0.0 0.0 0.0 0.0 0.0 0.0 0.0 0.0 0.0 0.0 0.0 0.0 0.0 0.0 0.0 0.0 0.0 0.0 0.0 0.0 0.0 0.0 0.0 6.5416193 0.0 0.0 0.0 0.0 0.0 0.0 0.0 0.0 0.0 0.0 0.0 0.0 0.0 0.0 15.04764 0.0
950 0.0 0.0 0.0 0.0 3.009661 0.0 0.0 0.0 0.0 0.0 0.0 0.0 0.0 0.0 0.0 0.0 0.0 0.0 0.0 0.0 0.0 0.0 0.0 0.0 0.0 0.0 0.0 0.0 0.0 0.0 0.0 0.0 0.0 0.0 0.0 0.0 0.0 0.0 2.2499423 0.0 0.46715575 0.0 0.0 0.0 0.0 0.0 0.0 0.0 0.0 0.0 0.0 0.0 0.0 0.0 0.0 0.0 0.0 0.0 0.0 0.0 0.0 0.0 0.0 0.20050038 0.0 0.0 0.0 0.0 0.0 0.0 0.0 0.0 0.0 0.0 0.0 0.0 0.0 0.0 0.0 0.0 0.0 0.0 0.0 0.0 0.0 0.0 0.0 0.0 0.0 0.0 0.0 0.0 0.0 0.0 0.0 0.0 0.0 0.0 0.0 0.0 0.0 0.0 0.0 0.0 0.0 0.0 0.0 0.0 0.0 0.0 0.0 5.4432077 0.0 0.0 0.0 0.0 0.0 0.0 0.0 0.0 0.0 0.0 0.0 0.0 0.0 0.0 13.676166 0.0
975 0.0 0.0 0.0 0.0 0.0 0.0 0.0 0.0 0.0 0.0 0.0 2.26867 0.0 0.0 0.0 0.0 0.0 0.026946917 0.0 0.0 0.0 0.0 0.0 0.0 0.0 0.0 0.4220457 0.08851533 0.0 0.0 0.0 0.0 0.0 0.0 0.0 0.0 0.0 0.0 1.415438 0.0 0.0 0.0 0.741319 0.0 0.0 0.0 0.0 1.0192679 0.0 0.0 0.0 0.0 0.0 0.0 0.0 0.0 0.0 0.0 0.0 0.0 0.0 0.0 0.0 0.0 0.0 0.60547674 0.0 0.0 0.0 0.0 0.06312351 0.0 0.0 0.0 0.0 0.0 0.0 0.0 0.0 0.0 0.0 0.0 0.0 0.0 0.0 0.0 0.0 0.0 4.9552846 0.0 0.0 0.0 0.22553581 0.0 0.0 0.0 0.0 0.0 0.0 0.0 0.31463644 0.0 0.0 0.0 0.0 0.0 0.0 0.0 0.0 0.0 0.0 3.528931 0.0 0.0 0.0 0.0 0.0 0.0 0.0 0.0 0.0 0.0 0.0 0.0 0.0 0.0 16.24848 0.0
999 0.0 0.0 0.0 0.0 0.0 0.0 0.0 0.0 0.0 0.0 0.0 0.7180297 2.2011898 0.0 0.0 0.0 0.0 0.0 0.0 0.0 0.0 0.0 0.0 0.0 0.0 0.0 0.0 0.5734615 0.0 0.0 0.0 0.0 0.0 0.0 0.0 0.75564116 0.0 0.0 1.6015033 0.0 0.0 0.0 0.0 1.9218085 0.0 0.0 0.0 0.6603575 0.0 0.0 0.20592836 0.0 0.0 0.0 0.0 0.0 0.0 0.0 0.0 0.0 0.0 0.0 0.0 1.9646413 0.0 0.0 0.0 0.0 0.0 0.0 0.0 0.0 0.0 0.0 0.0 0.0 0.0 0.0 0.0 0.0 0.0 0.0 0.0 0.0 0.0 0.0 0.0 0.0 1.3760138 0.0 0.0 0.0 0.48983216 0.0 0.0 0.0 0.0 0.0 0.0 0.0 0.0 0.0 0.0 0.0 0.0 0.0 0.0 0.0 0.0 0.0 0.0 5.1292605 0.0 0.0 0.0 0.0 0.0 0.0 0.0 0.0 0.0 0.0 0.0 0.0 0.0 0.0 16.66297 0.0
955 0.0 0.0 0.0 0.0 0.0 0.0 0.0 0.0 0.0 0.0 0.0 0.21850437 0.31015128 0.0 0.0 0.0 0.0 0.0 0.0 0.0 0.0 0.0 0.0 0.0 0.0 0.0 0.0 0.0 0.0 0.0 0.030701712 0.0 0.0 0.0 0.0 0.0 0.0 0.0 0.78617895 0.0 0.0 0.0 0.0 2.008744 0.0 0.0 0.0 0.74011886 0.0 0.0 0.0 0.0 0.0 0.0 0.0 0.0 0.0 0.0 0.0 0.0 0.0 0.0 0.0 4.056332 0.0 0.0 0.6230972 0.0 0.0 0.0 0.0 0.0 0.0 0.0 0.0 0.0 0.0 0.0 0.0 0.0 0.0 0.0 0.0 0.0 0.0 0.0 0.0 0.0 0.0 0.0 0.0 0.0 0.0 0.0 0.0 0.0 0.0 0.0 0.0 0.0 0.0 0.0 0.0 0.0 0.0 0.0 0.4687149 0.0 0.0 0.0 0.0 5.687029 0.0 0.0 0.0 0.0 0.0 0.0 0.0 0.0 0.0 0.0 0.0 0.0 0.0 0.0 15.014792 0.0
341 0.0 0.0 0.0 0.0 0.0 0.0 0.0 0.0 0.0 0.0 0.0 0.0072936714 0.0 0.0 0.0 0.0 0.0 0.0 0.0 0.0 0.0 0.0 0.0 0.0 0.0 0.0 0.0 0.0 0.0 0.0 0.0 0.0 0.0 0.0 0.0 0.0 0.0 0.0 0.74451137 0.0 0.0 0.0 0.0 0.54133934 0.0 0.0 0.0 0.0 0.0 0.0 0.0 0.0 0.0 0.0 0.0 0.0 0.6112317 0.0 0.0 0.0 0.0 0.0 0.0 1.8765998 0.0 0.0 0.0 0.0 0.0 0.0 0.0 0.0 0.0 0.22003978 0.0 0.0 0.0 0.0 0.0 0.0 0.0 0.0 0.0 0.0 0.0 0.0 0.0 0.26588625 0.0 0.0 0.0 0.0 0.0 0.0 0.0 0.0 0.0 0.0 0.0 0.0 0.0 0.0 0.0 0.0 0.0 0.049354047 0.0 0.0 0.0 0.0 0.0 6.1713977 0.0 0.0 0.0 0.0 0.0 0.0 0.0 0.0 0.0 0.0 0.0 0.0 0.0 0.0 14.12034 0.0
1555 0.0 0.0 0.0 0.0 0.0 0.0 0.0 0.0 0.0 0.0 0.0 0.0 0.0 0.0 0.0 0.0 0.0 0.0 0.0 0.0 0.0 0.0 0.0 0.0 0.0 0.0 0.0 0.0 0.0 0.0 0.0 0.0 0.0 0.0 0.0 0.0 0.0 0.0 0.0 0.0 0.0 0.0 0.0 0.0 0.0 0.0 0.0 0.0 0.0 0.0 0.0 0.0 0.0 0.0 0.0 0.0 0.0 0.0 0.0 0.0 0.0 0.0 0.0 0.0 0.0 0.0 0.0 0.0 0.0 0.09710258 0.0 0.0 0.0 0.0 3.9903104 0.0 0.0 0.06522101 0.0 0.0 0.0 0.0 1.5866677 0.0 0.0 0.0 0.0 0.0 0.0 2.3575535 0.0 0.0 0.0 0.0 0.0 0.0 1.5336246 0.0 0.0 0.0 4.347329 0.0 0.0 0.0 0.0 0.0 0.0 0.0 0.40357643 16.946978 0.0 0.0 0.0 0.0 8.44028 0.0 0.0 0.0 0.0 0.0 0.47001123 0.0 0.0 0.0 0.0 0.0 0.0 0.0
1619 0.78848124 0.0 0.0 0.0 0.0 0.10407764 0.3273866 0.0 0.0 0.0 0.0 0.0 0.0 0.1518969 0.0 0.0 0.0 0.0 0.0 0.0 0.0 0.0 0.0 0.0 0.0 0.0 0.0 0.11215074 0.0 0.0 0.0 0.0 0.0 0.0 0.0 0.0 0.0 0.0 0.0 0.0 0.0 0.0 0.0 0.042863652 0.0 0.0 0.0 0.0 0.0 0.0 0.0 0.0 0.0 0.0 0.0 0.0 0.0 0.0 0.0 0.0 0.0 0.0 0.0 0.0 0.0 0.0 0.0 0.0 0.0 0.0 0.069297254 0.0 0.0 0.0 0.14389153 0.0 0.0 0.0 0.19855835 0.0 0.0 0.32135475 3.8014717 0.0 0.0 0.0 0.0 0.0 0.0 0.0 0.0 0.0 0.0 0.0 0.0 0.0 0.0 0.0 0.0 0.0 5.0991783 0.0 0.0 0.0 0.0 0.0 0.0 0.0 0.0 13.145668 0.1971102 0.0 0.0 0.0 11.0309515 0.0 0.0 0.0 0.0 0.0 0.0 0.0 0.0 0.029213086 0.0 0.0 0.0 0.0
1575 0.0 0.0 0.0 0.0 0.0 0.0 0.0 0.0 0.0 0.0 0.0 0.0 0.0 0.0 0.0 0.0 0.0 0.0 0.0 0.0 0.0 0.0 0.0 0.0 0.0 0.0 0.0 0.0 0.0 0.0 0.0 0.0 0.0 0.0 0.0 0.0 0.0 0.0 0.0 0.0 0.0 0.0 0.0 0.0 0.0 0.064522594 0.0 0.0 0.0 0.0 0.0077506304 0.0 0.0 0.0 0.0 0.0 0.0 0.0 0.0 0.0 0.0 0.0 0.0 0.0 0.0 0.0 0.0 0.0 0.0 0.0 0.0 0.0 0.0 0.0 0.0 0.0 0.0 0.0 0.0 0.0 0.0 0.0 4.404867 0.0 0.0 0.0 0.020138845 0.0 0.0 0.0 0.0 0.0 0.0 0.0 0.0 0.0 0.0 0.0 0.0 0.0 7.9767976 0.0 0.0 0.0 0.0 0.0 0.0 0.003397137 0.0 15.277997 0.0 0.0 0.0 0.0 9.726241 0.0 0.0 0.0 0.0 0.0 0.0 0.0 0.0 0.0 0.0 0.0 0.0 0.17032708
1600 0.0 0.0 0.60431695 0.0 0.74539125 0.0 0.0 0.0 0.0 0.0 0.0 0.0 0.0 0.0 0.0 0.0 0.0 0.0 0.0 0.0 0.0 0.0 0.0 0.0 0.0 0.0 0.0 0.0 0.0 0.0 0.0 0.0 0.0 0.0 0.0 0.0 0.0 0.0 0.0 0.0 0.0 0.0 0.36349124 0.0 0.0 0.0 0.0 0.0 0.0 0.0 0.0 0.0 0.0 0.0 0.0 0.0 0.0 0.0 0.0 0.0 0.0 0.0 0.0 0.0 0.0 0.0 0.0 0.0 0.0 0.093869224 0.0 0.0 0.0 0.0 2.8108878 0.0 0.0 0.18932855 0.0 0.0 0.0 0.0 1.1954252 0.0 0.0 0.0 0.0 0.0 0.0 2.3192115 0.0 0.0 0.0 0.0 0.0 0.0 0.70585114 0.0 0.0 0.0 4.7084045 0.0 0.0 0.0 0.0 0.0 0.0 0.0 0.0 16.556517 0.0 0.0 0.0 0.0 4.257884 0.0 0.0 0.0 0.0 0.0 0.0 0.0 0.0 0.0 0.0 0.0 0.0 0.0
1585 0.0 0.0 0.28350604 0.0 0.0 0.0 0.0 0.40626705 0.0 0.1871691 0.0 0.0 0.0 0.0 0.0 0.0 0.0 0.0 0.0 0.0 0.0 0.0 0.0 0.0 0.0 0.0 0.0 0.0 0.059425272 0.0 0.0 0.0 0.0 0.0 0.0 0.0 0.0 0.0 0.0 0.0 0.0 0.0 0.0 0.0 0.0 0.0 0.0 0.0 0.0 0.0 0.0 0.0 0.0 0.0 0.0 0.0 0.0 0.0 0.0 0.0 0.0 0.0 0.0 0.0 0.0 0.0 0.0 0.0 0.0 0.0 0.0 0.0 0.0 0.0 1.5043613 0.0 0.0 0.0 0.0 0.0 0.0 0.0 0.9584434 0.0 0.0 0.0 0.0 0.106403396 0.0 0.863365 0.0 0.0 0.0 0.0 0.0 0.0 0.40916246 0.0 0.0 0.0 4.7425947 0.0 0.0 0.0 0.0 0.0 0.0 0.0 0.0 16.616653 0.0 0.0 0.0 0.0 6.3896666 0.0 0.0 0.0 0.0 0.0 0.0 0.0 0.0 0.0 0.0 0.0 0.0 0.0
1565 0.0 0.0 2.3759937 0.0 2.3662531 0.0 0.0 0.0 0.0 0.0 0.0 0.0 0.0 0.0 0.0 0.0 0.0 0.0 0.0 0.0 0.0 0.0 0.0 0.0 0.0 0.0 0.0 0.0 0.0 0.0 0.0 0.0 0.0 0.0 0.0 0.0 0.0 0.0 0.0 0.0 0.0 0.0 0.0 0.0 0.0 0.0 0.0 0.0 0.0 0.0 0.0 0.0 0.0 0.0 0.0 0.0 0.0 0.0 0.0 0.0 0.0 0.0 0.0 0.0 0.0 0.0 0.0 0.0 0.0 0.0 0.0 0.0 0.0 0.0 7.986058 0.0 0.0 0.0 0.0 0.0 0.0 0.0 0.0 0.0 0.0 0.0 0.97282743 0.0 0.0 1.4940318 0.0 0.27164748 0.0 0.0 0.30957115 0.0 1.857763 0.0 0.0 0.0 3.4962063 0.0 0.0 0.0 0.0 0.0 0.0 0.0 1.1269116 12.853934 0.0 0.0 0.0 0.0 0.7745209 0.0 0.0 0.0 0.0 0.0 0.0 0.0 0.0 0.0 0.0 3.9395144 0.0 0.0
27 0.0 0.0 0.0 0.0 0.0 0.0 0.0 0.0 0.0 0.0 0.0 0.0 0.0 0.0 0.6734328 0.0 0.0 0.0 0.0 1.7518104 0.88623095 1.578561 0.0 0.0 0.21550442 0.0 0.0 0.0 0.0 0.0 0.0 0.0 0.0 0.0 0.0 0.0 0.0 0.0 0.0 0.4762125 0.0 0.0 3.395018 0.0 0.0 0.0 0.0 0.9919571 0.0 0.0 0.05433458 0.0 0.0 0.0 0.0 0.0 0.0 0.033597782 0.0 0.0 7.143986 0.0 0.0 0.0 0.0 0.0 7.9355426 0.0 0.0 0.0 0.0 0.0 0.0 0.0 0.0 0.0 0.0 0.0 0.0 0.0 0.0 0.0 0.0 0.0 9.864194 0.0 0.0 0.0 0.0 0.0 0.0 0.0 0.0 0.0 0.0 0.0 0.0 0.0 0.0 0.0 0.0 0.30027318 0.0 0.0 0.0 0.0 0.0 0.0 0.0 0.0 6.286819 0.0 0.32932925 0.0 0.0 0.0 0.0 0.0 0.0 0.0 0.0 0.0 0.0 0.0 0.0 0.0 0.0 0.036421165
43 0.0 0.0 0.0 0.0 0.0 0.0 0.0 0.0 0.0 0.0 0.0 0.0 0.0 0.0 0.0 0.0 0.0 0.0 0.0 6.852974 0.0 1.8528411 0.0 0.0 2.1997201 0.0 0.0 0.0 0.0 0.0 0.0 0.0 0.0 0.0 0.0 0.0 0.0 0.0 0.0 0.407054 0.0 0.0 1.18674 0.0 0.0 0.0 0.0 0.0 0.0 0.0 0.0 0.0 0.0 0.0 0.0 0.0 0.0 0.0 0.0 1.1330347 13.716885 0.0 0.0 0.0 0.0 0.0 0.9742706 0.0 0.0 0.0 0.0 0.0 0.0 0.0 0.0 0.0 0.0 0.0 0.0 0.0 0.0 0.0 0.0 0.0 3.211564 0.0 0.0 0.5351421 0.0 0.0 0.0 0.0 0.0 0.0 0.0 0.0 0.0 0.0 0.0 0.0 0.0 0.0 0.0 0.0 0.0 0.0 0.0 0.0 0.0 0.0 9.93849 0.0 0.0 0.0 0.0 0.0 0.0 0.0 0.0 0.0 0.0 0.16175845 0.0 0.0 0.0 0.0 0.0 0.3521247
60 0.0 0.0 0.0 0.0 0.0 0.0 0.0 0.0 0.0 0.0 0.0 0.0 0.0 0.0 0.09928608 0.0 0.0 0.0 0.0 0.0 3.1739347 0.0 0.0 0.0 0.0 0.0 0.0 0.0 0.0 0.0 0.0 0.0 0.0 0.0 0.0 0.0 0.0 0.27746147 0.0 0.0 0.0 0.0 0.009360209 0.0 0.0 0.0 0.0 0.0 0.0 0.0 0.0 0.0 0.0 0.0 0.0 0.0 0.0 0.0 0.0 0.0 3.2522423 0.0 0.0 0.0 0.0 0.0 2.6249118 0.0 0.0 0.0 0.0 0.0 0.0 0.0 0.0 0.0 0.0 0.0 0.0 0.0 0.0 0.0 0.0 0.16438027 14.563631 0.0 0.0 0.0 0.0 0.0 0.0 0.0 0.0 0.0 0.0 0.0 0.0 0.0 0.0 0.0 0.0 0.0 0.0 1.7533138 0.0 0.0 0.0 0.0 0.0 0.0 4.82593 0.0 0.0 0.0 0.0 0.0 0.0 0.0 0.0 0.0 0.0 0.0 0.0 0.0 0.0 0.0 0.0 0.0
85 0.0 0.0 0.0 0.0 0.0 0.0 0.0 0.0 0.0 0.0 0.0 0.0 0.0 0.0 0.0 0.0 0.0 0.0 0.0 4.5308776 0.0 3.3665407 0.0 0.0 1.9198173 0.0 0.16639835 0.0 0.0 0.0 0.0 0.0 0.0 0.0 0.0 0.0 0.0 0.0 0.0 0.052600063 0.0 0.0 0.0 0.0 0.0 0.0 0.0 0.0 0.0 0.0 0.0 0.0 0.0 0.0 0.0 0.0 0.0 0.0 0.0 0.33729035 14.127935 0.0 0.0 0.0 0.0 0.0 2.428298 0.0 0.0 0.0 0.0 0.3004884 0.0 0.0 0.0 0.0 0.0 0.0 0.0 0.0 0.0 0.0 0.27323025 0.58426994 3.4856048 0.0 0.0 0.0 0.0 0.0 0.0 0.0 0.0 0.0 0.0 0.0 0.0 0.0 0.0 0.0 0.0 0.0 0.0 0.0 0.10606997 0.0 0.0 0.0 0.0 0.0 6.9557133 0.0 0.0 0.0 0.0 0.0 0.0 0.0 0.0 0.0 0.0 0.0 0.0 0.0 0.0 0.0 0.0 0.97721577
160 0.0 0.0 0.0 0.0 0.0 0.0 0.0 0.0 0.0 0.0 0.0 0.0 0.0 0.0 0.0 0.0 0.0 0.0 0.0 0.8788328 0.16597188 7.112624 0.0 0.0 0.717711 0.0 0.111430615 0.0 0.0 0.0 0.0 0.0 0.0 0.0 0.0 0.0 0.0 0.0 0.0 0.37656444 0.0 0.0 0.15200226 0.0 0.0 0.0 0.0 0.0 0.0 0.0 0.0 0.0 0.0 0.0 0.0 0.0 0.0 0.31441063 0.0 0.0 9.96982 0.0 0.0 0.0 0.0 0.0 1.5047046 0.0 0.0 0.0 0.0 1.3455604 0.0 0.0 0.0 0.6058775 0.0 0.0 0.0 0.0 0.0 0.0 0.0 1.6428899 0.16855106 0.0 0.0 0.0 0.0 0.0 0.0 0.0 0.0 0.0 0.0 0.0 0.0 0.0 0.0 0.0 0.0 0.0 0.0 0.0 0.0 0.0 1.142428 1.235157 0.0 0.0 6.604228 0.0 0.0 0.0 0.0 0.0 1.0942007 0.0 0.0 0.0 0.0 0.0 0.0 0.0 0.0 0.0 0.0 5.3870687
216 0.0 0.0 0.0 0.0 0.0 0.0 0.0 0.0 0.0 1.2900653 0.0 0.0 0.0 0.0 0.0 0.0 2.0350323 0.0 0.0 1.5404862 0.0 0.30611336 0.0 0.0 0.0 0.0 0.0 0.0 1.1849481 0.0 0.0 0.0 0.0 0.0 0.0 0.0 0.0 0.0 0.0 1.3441927 0.0 0.0 1.6215113 0.0 0.0 0.0 0.0 0.0 0.052915797 0.0 0.0 0.0 0.0 0.0 0.0 0.0 0.0 0.0 0.0 0.0 0.0 0.0 0.0 0.0 0.0 0.0 0.0 0.0 0.0 0.0 0.0 0.0 0.0 0.0 0.0 0.0 0.0 0.0 0.0 0.0 0.0 0.0 0.0 4.3295074 0.0 0.0 0.0 0.0 0.0 0.0 0.35113102 0.0 0.0 0.0 0.0 0.0 0.0 0.0 0.0 0.0 0.0 10.462627 0.0 0.0 2.2515266 6.0854816 4.668642 0.0 0.0 0.0 0.0 0.0 0.0 0.0 0.0 0.0 0.0 0.0 0.0 0.0 0.0 0.0 0.0 0.0 0.0 0.0 0.0 0.0
31 0.0 0.0 0.0 0.0 0.0 0.0 0.0 0.0 0.0 1.8278229 0.0 0.0 0.0 0.0 0.0 0.0 0.0 0.0 0.0 1.5811616 0.0 0.0 0.0 0.0 1.8445418 0.0 0.0 0.0 3.232951 0.0 0.0 0.0 0.0 0.0 0.0 0.0 0.0 0.0 0.0 4.424187 0.0 0.0 6.262792 0.0 0.0 0.0 0.0 0.0 0.0 0.0 0.0 0.0 0.0 0.0 0.0 0.0 0.0 0.0 0.0 0.3073732 0.0 0.0 0.0 0.0 0.0 0.0 2.4578195 0.0 0.0 0.0 0.0 0.0 0.0 0.0 0.0 0.0 0.0 0.0 0.0 0.0 0.0 0.0 0.0 7.319786 0.0 0.0 0.0 0.0 0.0 0.0 0.0 0.0 0.0 0.0 0.0 0.0 0.0 0.0 0.0 0.0 0.0 9.247667 0.0 0.0 0.0 1.396025 7.533496 0.0 0.0 0.0 0.7741595 0.0 0.0 0.0 0.0 0.0 0.28909624 0.0 0.0 0.0 0.0 0.0 0.0 0.0 0.0 0.0 0.11012468 0.0
69 0.0 0.0 0.0 0.0 0.0 0.0 0.0 0.0 0.25876683 1.6469526 0.0 0.0 0.0 0.32041562 0.0 0.0 0.0 0.0 0.0 7.368837 0.0 1.5666095 0.04570988 0.0 1.0237554 0.0 0.7381284 0.12531652 0.0 0.0 0.0 0.0 0.0 0.0 0.0 0.0 0.0 0.0 0.0 1.5052848 0.0 0.0 2.1075943 0.0 0.0 0.0 0.0 0.0 0.0 0.0 0.0 0.0 0.0 0.0 0.0 0.0 0.31802 0.0 0.0 0.38465708 4.456615 0.080129325 0.0 0.0 0.0 0.0 0.20277798 0.0 0.0 0.0 0.0 0.0 0.0 0.0 0.0 0.0 0.0 0.0 0.0 0.0 0.0 0.0 0.0 3.198989 0.0 0.0 0.0 0.0 0.0 0.0 0.0 0.0 0.0 0.0 0.0 0.0 0.0 0.0 0.0 0.0 0.0 6.80212 0.0 0.0 10.768788 0.67585874 2.7455482 0.0 0.0 0.0 1.6505979 0.0 0.17341128 0.0 0.0 0.0 0.0 0.0 0.0 0.0 0.0 0.0 0.0 0.0 0.0 0.0 0.0 0.0
70 0.0 0.0 0.0 0.0 0.0 0.0 0.0 0.0 0.0 3.9822783 0.0 0.0 0.0 0.0 0.0 0.0 0.0 0.0 0.0 1.2687501 0.0 0.0 0.0 0.0 0.0 0.0 0.0 0.0 3.022349 0.0 0.0 0.0 0.0 0.0 0.0 0.0 0.0 0.0 0.0 3.5869715 0.0 0.0 6.8896303 0.0 0.0 0.0 0.0 1.6046237 0.0 0.0 0.0 0.0 0.0 0.0 0.0 0.0 0.0 0.0 0.0 0.0 1.1821752 0.0 0.0 0.0 0.0 0.0 0.0 0.0 0.0 0.0 0.0 0.0 0.0 0.0 0.0 0.0 0.0 0.0 0.0 0.0 0.0 0.0 0.0 0.47162932 0.0 0.0 0.0 0.0 0.0 0.0 0.0 0.0 0.0 0.0 0.0 0.0 0.0 0.0 0.0 0.0 0.0 9.367636 0.0 0.0 2.8007283 0.0 5.4860373 0.0 0.0 0.0 1.5948173 0.0 0.0 0.0 0.0 0.0 0.0 0.0 0.0 0.0 0.0 0.0 0.0 0.0 0.0 0.0 0.0 0.0
221 0.0 0.0 0.0 0.0 0.0 0.0 0.0 0.0 0.0 2.7054825 0.0 0.0 0.0 0.0 0.0 0.0 0.0 0.0 0.0 1.0263718 0.16760275 3.1032135 0.0 0.0 0.0 0.0 0.0 0.0 3.4241924 0.0 0.0 0.0 0.0 0.0 0.0 0.0 0.0 0.0 0.0 1.5056596 0.0 0.0 5.2455616 0.0 0.0 0.0 0.0 1.18242 0.0 0.0 0.0 0.0 0.0 0.0 0.0 0.0 0.0 0.0 0.0 0.0 0.0 0.0 0.0 0.0 0.0 0.0 0.0 0.0 0.0 0.0 0.0 0.0 0.0 0.0 0.0 0.0 0.0 0.0 0.0 0.19391757 0.0 0.0 0.0 3.6099987 0.14357132 0.0 0.0 0.0 0.0 0.0 0.0 0.0 0.0 0.0 0.0 0.0 0.0 0.0 0.0 0.0 0.0 10.182784 0.0 0.0 2.504357 3.3990946 6.99578 0.0 0.0 0.0 0.49151307 0.0 0.0 0.0 0.0 0.0 0.0 0.0 0.0 0.0 0.0 0.0 0.0 0.0 0.0 0.0 0.0 0.0
222 0.0 0.0 0.0 0.0 0.0 0.0 0.0 0.0 0.0 1.3608469 0.0 0.0 0.0 0.0 0.0 0.0 0.0 0.0 0.0 0.2620816 0.0 0.2885428 0.0 0.0 0.0 0.0 0.0 0.0 1.8701129 0.0 0.0 0.0 0.0 0.0 0.0 0.0 0.0 0.0 0.0 0.7712777 0.0 0.0 3.981504 0.0 0.0 0.0 0.0 2.8708684 0.09779349 0.0 0.0 0.0 0.0 0.0 0.0 0.0 0.0 0.0 0.0 0.0 0.0 0.0 0.0 0.22333683 0.0 0.0 0.0 0.0 0.0 0.0 0.0 0.0 0.0 0.0 0.0 0.0 0.0 0.0 0.0 0.0 0.0 0.0 0.0 4.5112686 0.41987532 0.0 0.0 0.0 0.0 0.0 0.0 0.0 0.0 0.0 0.0 0.0 0.0 0.0 0.0 0.0 0.0 14.131928 0.0 0.0 0.0 5.048701 5.9100533 0.0 0.0 0.0 0.0 0.0 0.0 0.0 0.0 0.0 0.0 0.0 0.0 0.0 0.0 0.0 0.0 0.0 0.0 0.0 0.0 0.0
223 0.0 0.0 0.0 0.0 0.0 0.0 0.0 0.0 0.0 2.1856089 0.0 0.0 0.0 0.0 0.0 0.0 1.6641134 0.0 0.41638586 0.13861609 0.21086904 0.0 0.0 0.0 0.0 0.0 0.0 0.0 0.95319396 0.0 0.0 0.0 0.0 0.0 0.0 0.0 0.0 0.0 0.0 1.1876961 0.0 0.0 1.8872371 0.0 0.0 0.0 0.0 0.5222066 1.2782694 0.0 0.0 0.0 0.0 0.0 0.0 0.0 0.0 0.0 0.0 0.0 0.5169199 0.0 0.0 0.19271941 0.0 0.0 0.0 0.0 0.0 0.0 0.0 0.0 0.0 0.0 0.0 0.0 0.0 0.0 0.0 0.0 0.0 0.0 0.0 6.1378064 0.0 0.0 0.0 0.0 0.0 0.0 0.0 0.0 0.0 0.0 0.0 0.0 0.0 0.0 0.0 0.0 0.0 10.777804 0.0 0.0 2.6724963 5.4347854 4.7624445 0.0 0.0 0.0 0.0 0.0 0.0 0.0 0.0 0.0 0.0 0.0 0.11936918 0.0 0.0 0.0 0.0 0.0 0.0 0.0 0.0 0.0
666 0.0 0.0 0.22822423 0.0 2.3667648 0.0 0.0 0.0 0.0 0.3904195 0.0 0.0 0.0 0.0 0.0 0.0 0.0 0.0 0.0 1.4535851 0.33441225 0.0 0.0 0.0 0.0 0.0 0.0 0.0 0.0 0.0 5.614483 0.0 0.0 0.0 0.0 0.0 0.0 0.0 0.0 0.0 0.0 0.0 2.7606928 0.0 0.0 0.0 0.0 0.0 0.0 0.0 0.0 1.0141139 0.0 0.0 0.0 0.0 0.0 0.0 0.0 0.0 0.0 0.12686414 0.053387597 0.0 0.0 0.0 0.0 0.0 0.0 0.0 0.0 0.22401544 0.0 0.0 0.0 0.0 0.23874752 0.0 0.0 0.0 1.431133 0.0 0.0 1.2148036 0.0 0.0 0.0 0.0 0.0 4.2504826 0.0 0.0 0.0 0.0 0.0 0.0 0.0 3.8808913 0.0 0.0 0.0 4.8470516 0.0 0.0 3.1084654 5.02143 2.2639964 0.0 0.0 0.0 0.0 0.0 0.0 0.0 0.0 1.0230012 0.0 0.0 0.0 0.0 1.8452005 0.0 1.3964047 0.14547987 0.0 0.0 0.0 0.0
124 0.0 0.0 0.0 0.0 0.0 0.0 0.0 0.0 0.0 1.8743501 0.0 0.0 0.0 0.0 0.0 0.0 0.0 0.0 0.11312047 0.0 1.0593349 0.0 0.0 0.0 0.0 0.0 0.0 0.0 0.80757904 0.0 0.0 0.0 0.0 0.0 0.0 0.0 0.0 0.0 0.0 0.0 0.0 0.0 1.6263154 0.0 0.0 0.0 0.0 1.8908596 0.53787076 0.0 0.0 0.0 0.0 0.0 0.0 0.0 0.0 0.0 0.0 0.0 0.0 0.0 0.0 0.0 0.0 0.0 2.0314317 0.0 0.0 0.0 0.0 0.0 0.0 0.0 0.0 0.0 0.0 0.0 0.0 0.0 0.0 0.0 0.0 3.8170915 5.5115185 0.0 0.0 0.0 0.0 0.0 0.0 0.0 0.0 0.0 0.0 0.0 0.0 0.0 0.0 0.0 0.0 12.596202 0.0 0.0 0.0 0.89225674 3.3933482 0.0 0.0 0.0 2.384633 0.0 0.0 0.0 0.0 0.0 0.0 0.0 0.40193453 0.0 0.0 0.0 0.0 0.0 0.0 0.0 0.0 0.0
234 0.0 0.0 0.0 0.0 0.0 0.0 0.0 0.0 0.0 2.5625825 0.0 0.0 0.0 0.0 0.0 0.0 0.0 0.0 0.0 1.0023042 0.0 0.0 0.0 0.0 0.0 0.0 0.0 0.0 2.1637306 0.0 0.0 0.0 0.0 0.0 0.0 0.0 0.0 0.0 0.0 2.087571 0.0 0.0 2.89929 0.0 0.0 0.0 0.0 0.26434803 0.0 0.0 0.059013546 0.0 0.0 0.0 0.0 0.0 0.0 0.0 0.0 0.0 0.0 0.013761118 0.0 0.0 0.0 0.0 0.7887466 0.0 0.0 0.0 0.0 0.0 0.0 0.0 0.0 0.0 0.0 0.0 0.0 0.0 0.0 0.0 0.0 4.5199804 0.0 0.0 0.0 0.0 0.0 0.0 0.0 0.0 0.0 0.0 0.0 0.0 0.0 0.0 0.0 0.0 0.0 11.115538 0.0 0.0 2.34677 3.6364863 4.897333 0.0 0.0 0.0 0.0 0.0 0.19148886 0.0 0.0 0.0 0.0 0.0 0.0 0.0 0.0 0.0 0.0 0.0 0.0 0.0 0.0 0.0
142 0.0 0.0 0.0 0.0 0.0 0.0 0.0 0.0 0.0 2.6276011 0.0 0.0 0.0 0.0 0.0 0.0 0.0 0.0 0.0 0.0 0.0 0.26536518 0.0 0.0 1.6124387 0.0 0.0 0.0 2.8817909 0.0 0.0 0.0 0.0 0.0 0.0 0.0 0.0 0.0 0.0 3.2646344 0.0 0.0 4.08204 0.0 0.0 0.0 0.0 0.0 0.0 0.0 0.0 0.0 0.0 0.0 0.0 0.0 0.0 0.0 0.0 0.0 0.0 0.0 0.0 0.0 0.0 0.0 0.89815784 0.035928026 0.0 0.0 0.0 0.0 0.0 0.0 0.0 0.0 0.0 0.0 0.0 0.3648311 0.0 0.0 0.0 4.481325 0.38127452 0.0 0.0 0.0 0.0 0.0 0.0 0.0 0.0 0.0 0.0 0.0 0.0 0.0 0.0 0.0 0.0 7.965282 0.0 0.0 0.0 3.4464247 7.5399485 0.0 0.0 0.0 0.74164486 0.0 0.0 0.0 0.0 0.0 1.6274152 0.0 0.0 0.0 0.0 0.0 0.0 0.0 0.0 0.0 0.0 0.0
247 0.0 0.0 0.0 0.0 0.0 0.0 0.0 0.0 0.0 0.0 0.0 0.0 0.0 0.0 0.0 0.0 0.0 0.0 0.0 0.38928708 1.5289431 0.0 0.0 0.0 0.95771354 0.0 0.0 0.0 0.0 0.0 0.0 0.0 0.0 0.0 0.0 0.0 0.0 0.0 0.0 0.0 0.0 0.0 0.0 0.0 0.0 0.0 0.0 0.0 0.0 0.0 0.0 0.0 0.0 0.0 0.0 0.0 0.0 0.0 0.0 1.3943529 0.0 0.082678914 0.0 0.0 0.0 0.0 0.0 0.0 0.0 0.0 0.0 0.0 0.0 0.0 0.0 0.0 0.0 0.0 0.0 0.0 0.0 0.0 0.0 6.293155 0.0 0.0 0.0 0.0 0.0 0.0 0.0 0.0 0.0 0.0 0.0 0.0 0.0 0.0 0.0 0.0 0.0 7.6879272 0.0 0.0 1.0393587 11.492424 2.9756153 0.0 0.0 0.0 0.64570606 0.0 0.0 0.0 0.0 0.0 0.0 0.0 0.0 0.0 0.0 0.0 0.0 0.0 0.0 0.0 0.0 0.11126889
399 0.0 0.0 0.0 4.222918 0.0 0.0 0.0 0.0 1.0986578 0.0 0.0 0.0 0.0 0.0 0.0 0.0 0.0 6.5408797 0.0 0.0 0.0 0.0 0.0 0.0 0.0 0.4829939 0.0 0.0 0.0 0.0 0.0 0.0 0.0 0.0 0.0 0.0 0.0 0.43814117 0.45399746 0.0 0.0 4.8324413 0.0 0.0 0.0 0.0 0.0 0.0 0.0 0.0 0.0 0.0 0.5562538 0.0 0.0 0.0 0.0 2.5377975 0.0 0.0 0.0 0.0 0.0 0.0 0.0 0.0 0.0 0.0 0.0 0.0 0.0 1.6090554 0.12394257 0.37047648 0.0 0.0 0.0 0.0 0.0 0.0 0.0 0.0 0.0 0.0 0.0 0.0 0.0 0.0 0.0 0.0 0.0 0.0 0.0 0.0 14.50346 0.0 0.0 0.0 0.0 0.0 0.0 0.0 0.0 1.1640279 0.0 0.0 0.0 0.0 0.0 0.0 0.0 0.0 0.0 0.0 0.0 2.6608534 0.0 0.0 0.0 0.0 0.0 0.0 0.0 0.0 3.673825 0.0 0.0 0.0
416 0.0 0.0 0.0 0.0 0.0 0.0 0.0 0.0 3.345735 0.0 0.0 0.0 0.0 0.0 0.0 0.0 0.0 3.843834 0.0 0.0 0.0 0.0 0.0 0.0 0.0 0.0 2.4607806 0.0 0.0 0.0 0.0 0.0 0.0 0.0 0.0 1.708229 0.0 0.0 0.0 2.3368382 0.0 0.620728 1.7961222 0.0 0.0 0.0 0.0 0.0 0.0 0.0 0.983798 0.7040213 5.224027 0.0 0.0 0.0 0.0 5.546693 0.0 0.0 0.0 0.0 0.22006218 0.0 0.0 0.0 0.0 0.0 0.0 0.0 0.0 1.0344191 0.0 0.0 0.0 0.0 0.0 0.0 0.0 0.545601 3.784903 1.0996649 0.0 0.0 0.0 0.0 0.9100194 0.0 0.0 0.0 0.0 0.0 3.481836 0.0 6.0662866 0.0 0.0 0.0 0.0 0.0 0.0 0.0 0.0 0.0 0.0 0.0 0.0 0.0 0.0 0.0 0.9681301 0.0 1.0563757 0.0 0.0 0.0 0.0 0.0 0.0 0.0 0.0 0.0 0.0 0.0 0.0 0.0 0.0 4.3495126
1497 0.0 0.0 0.0 0.0 0.0 0.0 0.0 0.0 4.885888 0.0 0.0 0.16166472 0.0 0.0 0.0 0.0 0.0 2.1468115 0.0 0.0 0.0 0.9988981 0.57869035 0.0 0.0 0.0 0.0 0.0 0.0 0.0 0.0 0.0 0.0 0.23859632 0.0 0.0 0.0 0.0 0.0 0.20405051 0.0 5.133647 0.0 0.0 0.0 0.0 0.0 0.0 0.0 0.0 0.0 0.0 4.160542 0.0 0.0 0.0 0.0 0.0 0.0 0.0 2.1538815 0.9567499 4.6600466 0.0 0.0 0.0 0.0 0.0 0.0 0.101544544 3.5971146 0.0 0.0 0.0 0.0 0.0 0.0 0.0 0.45443726 0.0 3.434256 0.0 0.0 0.0 0.0 0.0 0.0 0.0 0.0 0.0 0.0 0.0 0.0 0.0 0.0 0.0 0.70345426 0.0 0.0 0.0 1.2136635 0.0 0.0 0.81513155 0.0 0.0 0.0 0.0 3.8335824 0.0 0.0 0.0 0.0 0.0 0.0 0.0 0.0 0.0 0.0 0.0 0.0 0.0 0.0 0.0 0.0 0.8216908 0.0 0.22507988
